{"learner":{"attributes":{"scikit_learn":"{\"_estimator_type\": \"classifier\"}"},"feature_names":["Percentage of Attributes Used","Number of Attributs in Combination","Total Number of Attributs in Original Table"],"feature_types":["float","int","int"],"gradient_booster":{"model":{"gbtree_model_param":{"num_parallel_tree":"1","num_trees":"100"},"iteration_indptr":[0,1,2,3,4,5,6,7,8,9,10,11,12,13,14,15,16,17,18,19,20,21,22,23,24,25,26,27,28,29,30,31,32,33,34,35,36,37,38,39,40,41,42,43,44,45,46,47,48,49,50,51,52,53,54,55,56,57,58,59,60,61,62,63,64,65,66,67,68,69,70,71,72,73,74,75,76,77,78,79,80,81,82,83,84,85,86,87,88,89,90,91,92,93,94,95,96,97,98,99,100],"tree_info":[0,0,0,0,0,0,0,0,0,0,0,0,0,0,0,0,0,0,0,0,0,0,0,0,0,0,0,0,0,0,0,0,0,0,0,0,0,0,0,0,0,0,0,0,0,0,0,0,0,0,0,0,0,0,0,0,0,0,0,0,0,0,0,0,0,0,0,0,0,0,0,0,0,0,0,0,0,0,0,0,0,0,0,0,0,0,0,0,0,0,0,0,0,0,0,0,0,0,0,0],"trees":[{"base_weights":[2.4542823E-2,-7.494494E-1,7.0263624E-1,-1.5298407E0,-5.112113E-1,3.9666495E-1,1.0376993E0,-1.9917779E0,-1.188618E0,-8.401772E-1,-3.2359952E-1,2.146458E-1,5.6813115E-1,7.4744356E-1,1.1629839E0,-2.0886686E0,-1.4752573E0,-1.3043368E0,-7.4209285E-1,-1.0526767E0,-3.2291558E-1,-3.9581624E-1,-1.0866567E-1,-1.7170107E-1,2.8129888E-1,7.465655E-1,2.9077867E-1,8.566352E-1,4.4648024E-1,1.2176839E0,8.687052E-1,-7.5071657E-1,-2.0057492E0,-1.2040206E0,-2.2560155E0,-1.416837E0,-1.2127326E0,-1.3943412E0,-7.0683837E-1,-1.5215706E0,-9.360739E-1,-5.605905E-2,-1.0384561E0,-2.8742197E-1,-1.75055E0,-2.8416976E-1,2.3686539E-1,2.0436406E-2,-2.874624E-1,3.1019613E-1,-7.54692E-1,4.2666146E-1,8.468474E-1,2.2663538E-1,7.777759E-1,4.0765873E-1,9.392253E-1,7.059215E-2,6.254889E-1,3.365106E-1,1.2816317E0,6.317767E-1,1.1479187E0,-6.162658E-1,-4.8638523E-1,-3.8080606E-1,3.380985E-1,-7.7056676E-1,-2.0356922E-1,-5.0539714E-1,-4.0882564E-1,-2.3910148E-1,-3.6645836E-1,-4.5246297E-1,-2.6492095E-1,-2.2441402E-1,-1.4948931E-1,-5.471289E-1,-4.2463183E-1,-3.5803977E-1,-2.4143016E-1,-9.8773405E-2,1.6353244E-1,-4.5679125E-1,4.1790333E-1,-1.2107026E-1,-1.4254016E-2,-5.713289E-1,-4.972948E-1,-6.2986225E-2,-3.1422442E-1,1.6841546E-1,3.141239E-2,7.5222366E-2,-1.01822674E-1,1.14239044E-1,4.862084E-2,-3.7670326E-1,1.55908E-1,1.3677593E-1,4.558469E-2,2.550091E-1,-1.391978E-1,-2.2865574E-1,7.270317E-2,2.2559468E-1,4.2702597E-1,6.1408978E-2,1.7621312E-1,2.4142714E-1,3.294455E-1,1.515836E-1,2.4657299E-1,3.7474585E-1,3.9728138E-1,2.2084E-1,1.5390503E-1,2.875247E-1,3.7555072E-1],"categories":[],"categories_nodes":[],"categories_segments":[],"categories_sizes":[],"default_left":[0,0,0,0,0,0,0,0,0,0,0,0,0,0,0,0,0,0,0,0,0,0,0,0,0,0,0,0,0,0,0,0,0,0,0,0,0,0,0,0,0,0,0,0,0,0,0,0,0,0,0,0,0,0,0,0,0,0,0,0,0,0,0,0,0,0,0,0,0,0,0,0,0,0,0,0,0,0,0,0,0,0,0,0,0,0,0,0,0,0,0,0,0,0,0,0,0,0,0,0,0,0,0,0,0,0,0,0,0,0,0,0,0,0,0,0,0,0,0],"id":0,"left_children":[1,3,5,7,9,11,13,15,17,19,21,23,25,27,29,31,33,35,37,39,41,43,45,47,49,51,53,55,57,59,61,-1,63,65,67,69,71,73,75,77,79,81,83,85,87,89,91,-1,93,95,97,99,101,103,105,107,109,-1,111,-1,113,115,117,-1,-1,-1,-1,-1,-1,-1,-1,-1,-1,-1,-1,-1,-1,-1,-1,-1,-1,-1,-1,-1,-1,-1,-1,-1,-1,-1,-1,-1,-1,-1,-1,-1,-1,-1,-1,-1,-1,-1,-1,-1,-1,-1,-1,-1,-1,-1,-1,-1,-1,-1,-1,-1,-1,-1,-1],"loss_changes":[5.6233945E4,9.301584E3,5.854551E3,1.8420859E3,2.3656152E3,9.315884E2,9.903828E2,2.4564648E2,3.4691895E2,1.5298887E3,3.7889624E2,3.7298767E2,7.6050244E2,2.6979053E2,3.0540625E2,1.3846484E2,1.6424988E2,5.3371094E1,3.0931274E1,5.3806445E2,7.7428235E2,2.6828242E3,3.724823E2,5.9195183E1,3.7001624E2,2.9969043E2,1.8785345E2,2.23271E2,8.266739E1,9.708594E1,1.9691821E2,0E0,6.1692383E1,9.0870544E1,9.791394E1,3.2370117E1,9.825684E0,2.7519836E0,1.0960999E1,6.03916E1,2.661997E2,4.8544064E2,1.2988961E3,4.7146155E2,1.6192383E1,2.3049783E2,8.86813E1,0E0,4.0282516E1,1.256145E2,2.1483765E2,1.788855E1,3.0100586E1,8.282294E1,1.0589294E1,3.4126663E1,1.0796973E2,0E0,2.7566406E1,0E0,1.1677734E1,1.9680176E1,2.578357E1,0E0,0E0,0E0,0E0,0E0,0E0,0E0,0E0,0E0,0E0,0E0,0E0,0E0,0E0,0E0,0E0,0E0,0E0,0E0,0E0,0E0,0E0,0E0,0E0,0E0,0E0,0E0,0E0,0E0,0E0,0E0,0E0,0E0,0E0,0E0,0E0,0E0,0E0,0E0,0E0,0E0,0E0,0E0,0E0,0E0,0E0,0E0,0E0,0E0,0E0,0E0,0E0,0E0,0E0,0E0,0E0],"parents":[2147483647,0,0,1,1,2,2,3,3,4,4,5,5,6,6,7,7,8,8,9,9,10,10,11,11,12,12,13,13,14,14,15,15,16,16,17,17,18,18,19,19,20,20,21,21,22,22,23,23,24,24,25,25,26,26,27,27,28,28,29,29,30,30,32,32,33,33,34,34,35,35,36,36,37,37,38,38,39,39,40,40,41,41,42,42,43,43,44,44,45,45,46,46,48,48,49,49,50,50,51,51,52,52,53,53,54,54,55,55,56,56,58,58,60,60,61,61,62,62],"right_children":[2,4,6,8,10,12,14,16,18,20,22,24,26,28,30,32,34,36,38,40,42,44,46,48,50,52,54,56,58,60,62,-1,64,66,68,70,72,74,76,78,80,82,84,86,88,90,92,-1,94,96,98,100,102,104,106,108,110,-1,112,-1,114,116,118,-1,-1,-1,-1,-1,-1,-1,-1,-1,-1,-1,-1,-1,-1,-1,-1,-1,-1,-1,-1,-1,-1,-1,-1,-1,-1,-1,-1,-1,-1,-1,-1,-1,-1,-1,-1,-1,-1,-1,-1,-1,-1,-1,-1,-1,-1,-1,-1,-1,-1,-1,-1,-1,-1,-1,-1],"split_conditions":[3.5E-1,3E0,5.4545456E-1,1.0344828E-1,1.9354838E-1,4.375E-1,1.1E1,4.4E1,2.0588236E-1,4.7E1,2.3E1,1.1E1,4.6153846E-1,1E1,1.2E1,4.761905E-2,1.22E2,1.7391305E-1,2E0,1.2E-1,1.22E2,2.2E1,2.580645E-1,3.846154E-1,2.2E1,4.5454547E-1,1.6E1,5E0,6.1538464E-1,5.555556E-1,1.1E1,-7.5071657E-1,9.259259E-2,1.21E2,2.13E2,2E0,2E0,2.580645E-1,2.9411766E-1,9.677419E-2,2.3E1,9.8E1,2.13E2,5E0,2.2857143E-1,3.2E1,2.6666668E-1,2.0436406E-2,3E0,3.846154E-1,2.3E1,8E0,6E0,3E0,4.3E1,5.833333E-1,6E0,7.059215E-2,7.1428573E-1,3.365106E-1,6.666667E-1,1.3E1,7.5E-1,-6.162658E-1,-4.8638523E-1,-3.8080606E-1,3.380985E-1,-7.7056676E-1,-2.0356922E-1,-5.0539714E-1,-4.0882564E-1,-2.3910148E-1,-3.6645836E-1,-4.5246297E-1,-2.6492095E-1,-2.2441402E-1,-1.4948931E-1,-5.471289E-1,-4.2463183E-1,-3.5803977E-1,-2.4143016E-1,-9.8773405E-2,1.6353244E-1,-4.5679125E-1,4.1790333E-1,-1.2107026E-1,-1.4254016E-2,-5.713289E-1,-4.972948E-1,-6.2986225E-2,-3.1422442E-1,1.6841546E-1,3.141239E-2,7.5222366E-2,-1.01822674E-1,1.14239044E-1,4.862084E-2,-3.7670326E-1,1.55908E-1,1.3677593E-1,4.558469E-2,2.550091E-1,-1.391978E-1,-2.2865574E-1,7.270317E-2,2.2559468E-1,4.2702597E-1,6.1408978E-2,1.7621312E-1,2.4142714E-1,3.294455E-1,1.515836E-1,2.4657299E-1,3.7474585E-1,3.9728138E-1,2.2084E-1,1.5390503E-1,2.875247E-1,3.7555072E-1],"split_indices":[0,1,0,0,0,0,2,2,0,2,2,2,0,2,2,0,2,0,1,0,2,2,0,0,2,0,2,1,0,0,1,0,0,2,2,1,1,0,0,0,2,2,2,1,0,2,0,0,1,0,2,1,1,1,2,0,1,0,0,0,0,2,0,0,0,0,0,0,0,0,0,0,0,0,0,0,0,0,0,0,0,0,0,0,0,0,0,0,0,0,0,0,0,0,0,0,0,0,0,0,0,0,0,0,0,0,0,0,0,0,0,0,0,0,0,0,0,0,0],"split_type":[0,0,0,0,0,0,0,0,0,0,0,0,0,0,0,0,0,0,0,0,0,0,0,0,0,0,0,0,0,0,0,0,0,0,0,0,0,0,0,0,0,0,0,0,0,0,0,0,0,0,0,0,0,0,0,0,0,0,0,0,0,0,0,0,0,0,0,0,0,0,0,0,0,0,0,0,0,0,0,0,0,0,0,0,0,0,0,0,0,0,0,0,0,0,0,0,0,0,0,0,0,0,0,0,0,0,0,0,0,0,0,0,0,0,0,0,0,0,0],"sum_hessian":[1.07143125E5,5.0033535E4,5.7109594E4,1.1700627E4,3.833291E4,2.9851824E4,2.7257768E4,4.96896E3,6.731667E3,1.3920565E4,2.4412344E4,1.4481406E4,1.5370418E4,8.220261E3,1.9037506E4,4.1815303E3,7.8742957E2,5.344656E3,1.3870112E3,9.866295E3,4.0542712E3,1.827215E4,6.140194E3,2.1305195E3,1.2350887E4,9.352078E3,6.0183403E3,6.0305034E3,2.189757E3,1.605086E4,2.9866465E3,6.932804E2,3.48825E3,5.8629266E2,2.011369E2,2.3922454E3,2.9524104E3,6.914785E1,1.3178634E3,1.9624926E3,7.903802E3,2.953762E3,1.1005094E3,1.69196E4,1.3525499E3,4.072065E3,2.068129E3,6.937309E2,1.4367887E3,1.201641E4,3.344774E2,2.2332278E3,7.11885E3,5.319204E3,6.9913654E2,9.378881E2,5.092615E3,1.0056845E3,1.1840725E3,6.425344E3,9.625516E3,1.617429E3,1.3692175E3,3.0938594E3,3.943905E2,5.707513E2,1.5541373E1,1.673513E2,3.3785595E1,3.968681E2,1.9953772E3,6.3066444E1,2.889344E3,5.49579E1,1.418995E1,1.0982571E3,2.1960637E2,5.0588297E2,1.4566096E3,2.66726E3,5.236542E3,2.03119E3,9.2257196E2,9.180672E2,1.8244221E2,1.1399936E4,5.519665E3,5.018287E2,8.5072125E2,3.712361E3,3.5970395E2,5.9755457E2,1.4705743E3,1.2613289E2,1.3106558E3,8.1366973E3,3.8797124E3,2.4010295E2,9.437443E1,2.0176757E3,2.155521E2,7.101957E3,1.6892797E1,8.243685E1,5.236767E3,6.743605E2,2.4776102E1,4.414651E2,4.96423E2,2.7618596E3,2.3307556E3,7.367512E2,4.4732126E2,5.4809243E3,4.1445913E3,8.581541E2,7.592749E2,4.885397E2,8.806778E2],"tree_param":{"num_deleted":"0","num_feature":"3","num_nodes":"119","size_leaf_vector":"1"}},{"base_weights":[2.8873838E-2,-4.8829108E-1,5.439096E-1,-9.545685E-1,-3.383558E-1,2.9396948E-1,8.3970493E-1,-1.2243971E0,-7.5143903E-1,-5.6118655E-1,-2.1920958E-1,1.5550584E-1,4.2954594E-1,5.79334E-1,9.5830375E-1,-1.3790435E0,-1.0520023E0,-8.1873554E-1,-4.8408154E-1,-7.550334E-1,-2.8597802E-1,-3.3921355E-1,-1.4267644E-1,-1.17398694E-1,2.0470405E-1,5.771456E-1,2.1178426E-1,3.947407E-1,7.067072E-1,1.011484E0,6.8513864E-1,-1.488753E0,-1.3160062E0,-1.1462414E0,-6.4153683E-1,-8.844746E-1,-7.648051E-1,-8.8304925E-1,-4.6183506E-1,-7.053974E-1,-4.8728937E-1,-5.1358706E-1,-5.535962E-2,-4.1922507E-1,-1.0797999E-2,-1.8860167E-1,1.714538E-1,1.4427855E-2,-1.9480334E-1,2.2568828E-1,-4.903599E-1,3.151303E-1,6.6350424E-1,1.1309255E-1,4.2791885E-1,1.7434931E-1,2.0508176E-1,-2.964183E-1,7.2556293E-1,2.7514052E-1,1.0757722E0,5.012616E-1,9.842231E-1,-4.3823996E-1,-5.372194E-1,-3.8197744E-1,-4.0626502E-1,-3.5712358E-1,-2.6873925E-1,-2.1106918E-1,4.8900017E-1,-3.1237432E-1,-2.5576133E-1,-1.5624133E-1,-2.3095436E-1,-2.8390253E-1,-1.7646429E-1,-1.23791605E-1,-1.6384207E-1,-2.4189246E-1,-1.3901043E-1,-7.0801266E-2,-2.4680138E-1,3.707712E-2,-1.5463386E-1,-1.9662808E-1,-1.09835446E-1,7.070056E-2,-2.3509629E-1,-3.8269244E-2,-3.074137E-1,1.6146073E-1,2.4284018E-2,5.4435614E-2,-6.875906E-2,6.186196E-2,1.7079161E-1,-2.3744918E-1,1.1695639E-1,9.225626E-2,2.8576338E-1,1.9986646E-1,-9.534012E-2,1.0101754E-1,4.5843073E-3,9.9684425E-2,1.8124183E-1,2.116225E-1,4.881386E-2,1.0458244E-1,-1.4300196E-1,2.4291565E-1,1.4257228E-1,3.1284738E-1,3.3585188E-1,1.2152476E-1,1.9228941E-1,2.3026596E-1,3.4869033E-1],"categories":[],"categories_nodes":[],"categories_segments":[],"categories_sizes":[],"default_left":[0,0,0,0,0,0,0,0,0,0,0,0,0,0,0,0,0,0,0,0,0,0,0,0,0,0,0,0,0,0,0,0,0,0,0,0,0,0,0,0,0,0,0,0,0,0,0,0,0,0,0,0,0,0,0,0,0,0,0,0,0,0,0,0,0,0,0,0,0,0,0,0,0,0,0,0,0,0,0,0,0,0,0,0,0,0,0,0,0,0,0,0,0,0,0,0,0,0,0,0,0,0,0,0,0,0,0,0,0,0,0,0,0,0,0,0,0,0,0],"id":1,"left_children":[1,3,5,7,9,11,13,15,17,19,21,23,25,27,29,31,33,35,37,39,41,43,45,47,49,51,53,55,57,59,61,63,65,67,69,71,73,75,77,79,-1,81,83,85,87,89,91,-1,93,95,97,99,101,103,105,-1,107,109,111,-1,113,115,117,-1,-1,-1,-1,-1,-1,-1,-1,-1,-1,-1,-1,-1,-1,-1,-1,-1,-1,-1,-1,-1,-1,-1,-1,-1,-1,-1,-1,-1,-1,-1,-1,-1,-1,-1,-1,-1,-1,-1,-1,-1,-1,-1,-1,-1,-1,-1,-1,-1,-1,-1,-1,-1,-1,-1,-1],"loss_changes":[2.8067514E4,3.675539E3,3.9030322E3,7.002549E2,1.0562007E3,5.371565E2,7.4609766E2,1.4498828E2,1.3096533E2,7.392627E2,2.380697E2,1.9013751E2,4.6461377E2,1.7769702E2,2.4061426E2,1.804248E1,9.989722E1,1.9997803E1,1.26449585E1,3.4973438E2,3.0074893E2,2.65271E2,2.2843802E2,2.772203E1,1.7509546E2,1.9477588E2,1.24582184E2,1.0923364E2,8.490845E1,8.333496E1,1.4854077E2,6.22876E0,1.2900391E0,2.2325195E1,6.99095E1,1.2238281E1,3.5498047E0,8.7231064E-1,5.560669E0,1.8755737E2,0E0,2.4722052E2,2.3449321E2,1.0158716E2,3.770976E2,7.048251E2,6.7005295E1,0E0,1.9118504E1,7.784656E1,9.358581E1,1.0077347E1,1.7490967E1,8.776463E1,3.066156E1,0E0,3.2417274E1,9.854171E0,9.220825E1,0E0,1.0738281E1,2.2316986E1,3.887744E1,0E0,0E0,0E0,0E0,0E0,0E0,0E0,0E0,0E0,0E0,0E0,0E0,0E0,0E0,0E0,0E0,0E0,0E0,0E0,0E0,0E0,0E0,0E0,0E0,0E0,0E0,0E0,0E0,0E0,0E0,0E0,0E0,0E0,0E0,0E0,0E0,0E0,0E0,0E0,0E0,0E0,0E0,0E0,0E0,0E0,0E0,0E0,0E0,0E0,0E0,0E0,0E0,0E0,0E0,0E0,0E0],"parents":[2147483647,0,0,1,1,2,2,3,3,4,4,5,5,6,6,7,7,8,8,9,9,10,10,11,11,12,12,13,13,14,14,15,15,16,16,17,17,18,18,19,19,20,20,21,21,22,22,23,23,24,24,25,25,26,26,27,27,28,28,29,29,30,30,31,31,32,32,33,33,34,34,35,35,36,36,37,37,38,38,39,39,41,41,42,42,43,43,44,44,45,45,46,46,48,48,49,49,50,50,51,51,52,52,53,53,54,54,56,56,57,57,58,58,60,60,61,61,62,62],"right_children":[2,4,6,8,10,12,14,16,18,20,22,24,26,28,30,32,34,36,38,40,42,44,46,48,50,52,54,56,58,60,62,64,66,68,70,72,74,76,78,80,-1,82,84,86,88,90,92,-1,94,96,98,100,102,104,106,-1,108,110,112,-1,114,116,118,-1,-1,-1,-1,-1,-1,-1,-1,-1,-1,-1,-1,-1,-1,-1,-1,-1,-1,-1,-1,-1,-1,-1,-1,-1,-1,-1,-1,-1,-1,-1,-1,-1,-1,-1,-1,-1,-1,-1,-1,-1,-1,-1,-1,-1,-1,-1,-1,-1,-1,-1,-1,-1,-1,-1,-1],"split_conditions":[3.5E-1,3E0,5.4545456E-1,1.0344828E-1,1.8518518E-1,4.375E-1,1.1E1,2E0,2.0588236E-1,5E0,2.580645E-1,1.1E1,4.6153846E-1,6.1538464E-1,1.2E1,4.761905E-2,5E1,1.7391305E-1,2E0,1.7857143E-1,4.7E1,3E1,2.3E1,3.846154E-1,2.2E1,4.5454547E-1,1.4E1,5.714286E-1,5E0,5.555556E-1,1.6E1,1.22E2,8.82353E-2,9.259259E-2,3.846154E-2,2E0,2E0,2.580645E-1,2.580645E-1,1.5E-1,-4.8728937E-1,3.2E1,1.22E2,1.6E1,3.2E1,2.2E1,2.4E1,1.4427855E-2,3E0,2E1,2.3E1,9E0,6E0,5E0,1.6E1,1.7434931E-1,4E0,4E0,1E1,2.7514052E-1,6.666667E-1,6.25E-1,7.5E-1,-4.3823996E-1,-5.372194E-1,-3.8197744E-1,-4.0626502E-1,-3.5712358E-1,-2.6873925E-1,-2.1106918E-1,4.8900017E-1,-3.1237432E-1,-2.5576133E-1,-1.5624133E-1,-2.3095436E-1,-2.8390253E-1,-1.7646429E-1,-1.23791605E-1,-1.6384207E-1,-2.4189246E-1,-1.3901043E-1,-7.0801266E-2,-2.4680138E-1,3.707712E-2,-1.5463386E-1,-1.9662808E-1,-1.09835446E-1,7.070056E-2,-2.3509629E-1,-3.8269244E-2,-3.074137E-1,1.6146073E-1,2.4284018E-2,5.4435614E-2,-6.875906E-2,6.186196E-2,1.7079161E-1,-2.3744918E-1,1.1695639E-1,9.225626E-2,2.8576338E-1,1.9986646E-1,-9.534012E-2,1.0101754E-1,4.5843073E-3,9.9684425E-2,1.8124183E-1,2.116225E-1,4.881386E-2,1.0458244E-1,-1.4300196E-1,2.4291565E-1,1.4257228E-1,3.1284738E-1,3.3585188E-1,1.2152476E-1,1.9228941E-1,2.3026596E-1,3.4869033E-1],"split_indices":[0,1,0,0,0,0,2,1,0,1,0,2,0,0,2,0,2,0,1,0,2,2,2,0,2,0,2,0,2,0,2,2,0,0,0,1,1,0,0,0,0,2,2,2,2,2,2,0,1,2,2,1,1,1,2,0,1,2,2,0,0,0,0,0,0,0,0,0,0,0,0,0,0,0,0,0,0,0,0,0,0,0,0,0,0,0,0,0,0,0,0,0,0,0,0,0,0,0,0,0,0,0,0,0,0,0,0,0,0,0,0,0,0,0,0,0,0,0,0],"split_type":[0,0,0,0,0,0,0,0,0,0,0,0,0,0,0,0,0,0,0,0,0,0,0,0,0,0,0,0,0,0,0,0,0,0,0,0,0,0,0,0,0,0,0,0,0,0,0,0,0,0,0,0,0,0,0,0,0,0,0,0,0,0,0,0,0,0,0,0,0,0,0,0,0,0,0,0,0,0,0,0,0,0,0,0,0,0,0,0,0,0,0,0,0,0,0,0,0,0,0,0,0,0,0,0,0,0,0,0,0,0,0,0,0,0,0,0,0,0,0],"sum_hessian":[1.05372984E5,5.257784E4,5.2795145E4,1.2791799E4,3.978604E4,2.86167E4,2.4178445E4,5.4917554E3,7.3000435E3,1.3860331E4,2.5925709E4,1.4158663E4,1.4458035E4,7.5685E3,1.6609945E4,2.8912068E3,2.6005483E3,5.8304106E3,1.4696332E3,8.13124E3,5.729091E3,1.0094343E4,1.5831366E4,2.1623928E3,1.19962705E4,8.616256E3,5.84178E3,3.0918254E3,4.476675E3,1.3900977E4,2.7089685E3,1.0467797E3,1.8444271E3,2.1135125E3,4.87036E2,2.6206006E3,3.20981E3,7.5575226E1,1.394058E3,7.6937314E3,4.375089E2,2.88274E3,2.8463506E3,8.1166226E3,1.9777201E3,1.3812418E4,2.018949E3,6.8921857E2,1.4731742E3,1.1645368E4,3.5090265E2,2.1370417E3,6.479214E3,4.0115452E3,1.8302345E3,1.5581705E3,1.5336549E3,8.232391E1,4.394351E3,5.639598E3,8.261378E3,1.6792449E3,1.0297236E3,9.6343494E2,8.334477E1,8.867239E2,9.5770325E2,1.7934503E3,3.20062E2,4.7476233E2,1.2273685E1,4.3815573E2,2.1824448E3,6.71053E1,3.1427046E3,6.0399475E1,1.5175748E1,8.840584E2,5.099995E2,5.428192E3,2.2655398E3,1.5196941E3,1.363046E3,2.0498108E3,7.965397E2,1.4878453E3,6.6287773E3,1.5000455E3,4.776746E2,1.2873763E4,9.3865454E2,3.986424E2,1.6203066E3,1.2302623E2,1.350148E3,1.102206E4,6.233081E2,2.6152948E2,8.9373184E1,2.1132957E3,2.374604E1,6.4616426E3,1.7571367E1,1.219921E3,2.791624E3,1.1882433E3,6.419912E2,1.1851257E2,1.4151423E3,1.7776886E1,6.454703E1,3.2870435E3,1.1073074E3,4.725908E3,3.5354702E3,9.9685583E2,6.823891E2,4.6692264E2,5.6280096E2],"tree_param":{"num_deleted":"0","num_feature":"3","num_nodes":"119","size_leaf_vector":"1"}},{"base_weights":[2.6216803E-2,-3.372654E-1,4.2145988E-1,-6.691694E-1,-2.3211978E-1,2.1671738E-1,6.8635815E-1,-8.613178E-1,-4.952264E-1,-3.4091896E-1,-1.09394744E-1,1.1191148E-1,3.2320243E-1,4.4811314E-1,8.026405E-1,-9.94422E-1,-7.3779655E-1,-5.4322815E-1,-3.292002E-1,-4.254052E-1,-9.2620134E-2,4.1180734E-2,-1.258719E-1,1.7977452E-1,1.5220558E-3,4.4457743E-1,1.535324E-1,3.7046736E-1,7.26296E-1,8.5668355E-1,5.41658E-1,-1.1062305E0,-9.360821E-1,-7.9647166E-1,-4.635401E-1,-6.7024064E-1,-5.3330237E-1,-3.5960495E-1,-1.773819E-1,-4.3455172E-1,3.557489E-1,-1.1410726E-1,4.0780586E-1,-1.5921403E-1,-1.0977042E-1,2.0293668E-1,-4.8916495E-1,-1.9922067E-1,2.2592969E-1,2.3089199E-1,5.1903397E-1,8.0696754E-2,3.1960225E-1,4.5266685E-1,1.7605917E-1,-2.4355093E-1,7.7472126E-1,2.2773795E-1,9.253664E-1,3.779073E-1,8.3917755E-1,-3.570953E-1,-2.7274254E-1,-2.8599992E-1,-2.101388E-1,-3.606877E-1,-2.27794E-1,5.3766775E-1,-1.558431E-1,-2.2208165E-1,-1.0665488E-1,-1.643149E-1,-1.5774687E-1,-1.6827281E-1,-8.435069E-2,-1.2302519E-1,-4.8126552E-2,-1.2552802E-1,-4.071126E-1,-2.5002297E-2,-5.045473E-1,-4.6754465E-2,-4.587185E-3,1.016378E-2,6.5440476E-2,-1.5709355E-1,3.1161952E-1,3.914636E-2,-6.424756E-2,-4.508134E-3,1.2453424E-1,7.693454E-2,-5.997031E-4,1.5639925E-1,-6.6586055E-2,7.389993E-2,3.2157358E-3,4.164509E-2,1.1662096E-1,6.5017484E-2,1.5897371E-1,3.6982123E-2,7.592553E-2,2.2439086E-1,-9.467571E-2,2.5779977E-1,1.6119993E-1,2.6690704E-1,2.9205516E-1,1.0533854E-1,2.104105E-1,1.7336893E-1,2.9382676E-1],"categories":[],"categories_nodes":[],"categories_segments":[],"categories_sizes":[],"default_left":[0,0,0,0,0,0,0,0,0,0,0,0,0,0,0,0,0,0,0,0,0,0,0,0,0,0,0,0,0,0,0,0,0,0,0,0,0,0,0,0,0,0,0,0,0,0,0,0,0,0,0,0,0,0,0,0,0,0,0,0,0,0,0,0,0,0,0,0,0,0,0,0,0,0,0,0,0,0,0,0,0,0,0,0,0,0,0,0,0,0,0,0,0,0,0,0,0,0,0,0,0,0,0,0,0,0,0,0,0,0,0,0,0],"id":2,"left_children":[1,3,5,7,9,11,13,15,17,19,21,23,25,27,29,31,33,35,37,39,41,-1,43,45,47,49,51,53,55,57,59,61,63,65,67,69,71,73,75,77,-1,79,-1,-1,81,83,85,87,89,91,93,95,97,99,101,103,105,-1,107,109,111,-1,-1,-1,-1,-1,-1,-1,-1,-1,-1,-1,-1,-1,-1,-1,-1,-1,-1,-1,-1,-1,-1,-1,-1,-1,-1,-1,-1,-1,-1,-1,-1,-1,-1,-1,-1,-1,-1,-1,-1,-1,-1,-1,-1,-1,-1,-1,-1,-1,-1,-1,-1],"loss_changes":[1.4649757E4,1.8536606E3,2.649379E3,4.2669287E2,5.386294E2,3.0749707E2,5.896387E2,9.9072754E1,5.3294556E1,4.485498E2,7.707419E1,1.0404776E2,2.8140686E2,1.5065784E2,2.0137305E2,1.8005371E1,5.0360596E1,6.2025146E0,6.8943024E0,2.3564453E2,1.6956927E2,0E0,1.1579401E2,1.3336874E2,2.3829411E2,1.2664514E2,6.8938705E1,8.724841E1,7.174933E1,7.872266E1,1.1941852E2,1.5413574E1,7.1552734E0,3.8226196E1,7.133694E1,7.9637604E0,2.3291016E-1,1.9656464E1,9.3463564E-1,2.3543384E2,0E0,2.579969E2,0E0,0E0,7.4415665E1,2.1354797E1,1.572422E1,1.3779434E1,1.13862526E2,1.2265053E1,1.0170654E1,4.59507E1,2.1667114E1,6.987384E1,6.578224E0,5.465874E0,2.869226E1,0E0,1.1076172E1,1.3500366E1,3.1374329E1,0E0,0E0,0E0,0E0,0E0,0E0,0E0,0E0,0E0,0E0,0E0,0E0,0E0,0E0,0E0,0E0,0E0,0E0,0E0,0E0,0E0,0E0,0E0,0E0,0E0,0E0,0E0,0E0,0E0,0E0,0E0,0E0,0E0,0E0,0E0,0E0,0E0,0E0,0E0,0E0,0E0,0E0,0E0,0E0,0E0,0E0,0E0,0E0,0E0,0E0,0E0,0E0],"parents":[2147483647,0,0,1,1,2,2,3,3,4,4,5,5,6,6,7,7,8,8,9,9,10,10,11,11,12,12,13,13,14,14,15,15,16,16,17,17,18,18,19,19,20,20,22,22,23,23,24,24,25,25,26,26,27,27,28,28,29,29,30,30,31,31,32,32,33,33,34,34,35,35,36,36,37,37,38,38,39,39,41,41,44,44,45,45,46,46,47,47,48,48,49,49,50,50,51,51,52,52,53,53,54,54,55,55,56,56,58,58,59,59,60,60],"right_children":[2,4,6,8,10,12,14,16,18,20,22,24,26,28,30,32,34,36,38,40,42,-1,44,46,48,50,52,54,56,58,60,62,64,66,68,70,72,74,76,78,-1,80,-1,-1,82,84,86,88,90,92,94,96,98,100,102,104,106,-1,108,110,112,-1,-1,-1,-1,-1,-1,-1,-1,-1,-1,-1,-1,-1,-1,-1,-1,-1,-1,-1,-1,-1,-1,-1,-1,-1,-1,-1,-1,-1,-1,-1,-1,-1,-1,-1,-1,-1,-1,-1,-1,-1,-1,-1,-1,-1,-1,-1,-1,-1,-1,-1,-1],"split_conditions":[3.5E-1,3E0,5.4545456E-1,1.1764706E-1,2.3529412E-1,4.375E-1,1.1E1,2E0,2.0588236E-1,6E0,1E1,3.846154E-1,4.6153846E-1,7.2727275E-1,1.2E1,4.761905E-2,4.4E1,2E0,2.9411766E-1,2.13E2,2.13E2,4.1180734E-2,1.1E1,2.2E1,6E0,4.5454547E-1,1.4E1,1E1,5E0,5.555556E-1,7E-1,4.4E1,1.0344828E-1,6.451613E-2,4.5E1,1.7391305E-1,1.7391305E-1,8E0,2E0,1.35E2,3.557489E-1,1.6E2,4.0780586E-1,-1.5921403E-1,2.9411766E-1,4E0,4.7E1,3E0,4.117647E-1,8E0,6E0,5E0,4.7058824E-1,8E0,6.1538464E-1,4E0,1E1,2.2773795E-1,6.666667E-1,1.6E1,1.6E1,-3.570953E-1,-2.7274254E-1,-2.8599992E-1,-2.101388E-1,-3.606877E-1,-2.27794E-1,5.3766775E-1,-1.558431E-1,-2.2208165E-1,-1.0665488E-1,-1.643149E-1,-1.5774687E-1,-1.6827281E-1,-8.435069E-2,-1.2302519E-1,-4.8126552E-2,-1.2552802E-1,-4.071126E-1,-2.5002297E-2,-5.045473E-1,-4.6754465E-2,-4.587185E-3,1.016378E-2,6.5440476E-2,-1.5709355E-1,3.1161952E-1,3.914636E-2,-6.424756E-2,-4.508134E-3,1.2453424E-1,7.693454E-2,-5.997031E-4,1.5639925E-1,-6.6586055E-2,7.389993E-2,3.2157358E-3,4.164509E-2,1.1662096E-1,6.5017484E-2,1.5897371E-1,3.6982123E-2,7.592553E-2,2.2439086E-1,-9.467571E-2,2.5779977E-1,1.6119993E-1,2.6690704E-1,2.9205516E-1,1.0533854E-1,2.104105E-1,1.7336893E-1,2.9382676E-1],"split_indices":[0,1,0,0,0,0,2,1,0,1,2,0,0,0,2,0,2,1,0,2,2,0,2,2,1,0,2,2,2,0,0,2,0,0,2,0,0,2,1,2,0,2,0,0,0,1,2,1,0,1,1,1,0,2,0,2,2,0,0,1,2,0,0,0,0,0,0,0,0,0,0,0,0,0,0,0,0,0,0,0,0,0,0,0,0,0,0,0,0,0,0,0,0,0,0,0,0,0,0,0,0,0,0,0,0,0,0,0,0,0,0,0,0],"split_type":[0,0,0,0,0,0,0,0,0,0,0,0,0,0,0,0,0,0,0,0,0,0,0,0,0,0,0,0,0,0,0,0,0,0,0,0,0,0,0,0,0,0,0,0,0,0,0,0,0,0,0,0,0,0,0,0,0,0,0,0,0,0,0,0,0,0,0,0,0,0,0,0,0,0,0,0,0,0,0,0,0,0,0,0,0,0,0,0,0,0,0,0,0,0,0,0,0,0,0,0,0,0,0,0,0,0,0,0,0,0,0,0,0],"sum_hessian":[1.01970484E5,5.31196E4,4.885088E4,1.2778249E4,4.0341355E4,2.7555092E4,2.1295787E4,6.0695225E3,6.708727E3,2.1382973E4,1.895838E4,1.3888072E4,1.366702E4,6.9864526E3,1.4309335E4,2.9180425E3,3.15148E3,5.202345E3,1.506382E3,1.5953811E4,5.429162E3,1.186661E3,1.777172E4,8.600313E3,5.2877593E3,7.966495E3,5.7005244E3,5.4637534E3,1.5226995E3,1.1852658E4,2.456677E3,9.943694E2,1.9236731E3,2.5945017E3,5.569781E2,3.7226334E2,4.8300815E3,1.2538949E3,2.5248701E2,1.5864482E4,8.932781E1,5.350898E3,7.8264244E1,6.785629E2,1.7093158E4,8.313165E3,2.8714835E2,2.7911035E3,2.4966555E3,2.0596196E3,5.9068755E3,3.963626E3,1.7368986E3,3.8391565E3,1.6245968E3,7.222233E1,1.4504772E3,4.9019653E3,6.950693E3,1.5860223E3,8.7065466E2,6.934659E2,3.0090356E2,1.7896012E3,1.3407188E2,2.1500366E2,2.379498E3,1.2726252E1,5.4425183E2,3.033997E2,6.886363E1,1.6254312E3,3.2046506E3,3.4985312E2,9.040418E2,1.5577342E1,2.3690967E2,1.5593366E4,2.7111615E2,5.2489414E3,1.0195673E2,1.1489218E4,5.60394E3,6.859734E2,7.627192E3,2.81454E2,5.6943274E0,1.2063826E2,2.6704653E3,1.0984822E3,1.3981733E3,1.8558639E3,2.0375572E2,5.888918E3,1.795787E1,1.1764532E3,2.7871729E3,4.8130365E2,1.2555948E3,9.478404E2,2.8913162E3,9.655269E2,6.590699E2,4.2560873E0,6.796625E1,1.067406E3,3.8307114E2,4.0037021E3,2.9469905E3,1.4666833E3,1.1933896E2,3.0589053E2,5.6476416E2],"tree_param":{"num_deleted":"0","num_feature":"3","num_nodes":"113","size_leaf_vector":"1"}},{"base_weights":[2.2269085E-2,-1.774966E-1,4.170889E-1,-3.8035405E-1,-5.546273E-2,3.026536E-1,6.557478E-1,-5.0049096E-1,-1.9098957E-1,-1.4401615E-1,3.5545155E-2,1.16951145E-1,3.8712278E-1,4.4670054E-1,7.660645E-1,-6.034024E-1,-3.2191315E-1,-3.0252498E-1,-1.5179168E-1,-1.73268E-1,1.3141085E-1,2.869795E-2,4.994806E-1,1.8410926E-1,-4.7531135E-2,5.0135016E-1,1.9254498E-1,3.6379758E-1,5.921245E-1,7.993911E-1,6.032173E-1,-5.7490224E-1,-4.228419E-1,-3.876724E-1,-2.0521146E-1,-1.6923708E-1,3.4787837E-1,-1.5196519E-1,-3.980278E-1,3.42095E-1,-4.8644322E-1,4.7788404E-2,-2.9406163E-1,1.229754E0,4.0730953E-1,-3.547484E-2,2.650974E-1,-5.0103188E-2,2.633779E-2,1.2099836E-1,1.8760972E-1,1.87323E-1,1.0005141E0,4.5375627E-1,2.0180748E-1,-1.6321214E-1,6.3607025E-1,2.2817372E-1,8.528937E-1,3.939649E-1,7.99174E-1,-2.2607926E-1,-1.4899164E-1,-2.0886888E-1,-1.1368939E-1,-7.466786E-2,-2.10131E-2,-4.4180352E-2,-3.933539E-1,-5.62463E-2,1.0717512E-1,-1.422468E-1,-6.97266E-2,6.481849E-2,1.3078447E-1,-2.2834183E-1,9.9501915E-2,8.170157E-3,1.10711925E-1,-1.6517915E-1,4.5166243E-2,3.758193E-1,1.3280636E-1,9.698199E-2,3.3449143E-1,-2.0920733E-1,2.7574461E-3,4.9253855E-2,1.0116321E-1,3.967194E-2,6.785703E-2,3.3787248E-1,2.0011313E-1,3.5799123E-2,1.5058064E-1,5.5449627E-2,7.571033E-2,1.8815367E-1,-6.4383455E-2,2.1609822E-1,1.2463017E-1,2.4972844E-1,2.7324766E-1,1.7137177E-1,5.1775545E-2,1.9430482E-1,2.8784752E-1],"categories":[],"categories_nodes":[],"categories_segments":[],"categories_sizes":[],"default_left":[0,0,0,0,0,0,0,0,0,0,0,0,0,0,0,0,0,0,0,0,0,0,0,0,0,0,0,0,0,0,0,0,0,0,0,0,0,0,0,0,0,0,0,0,0,0,0,0,0,0,0,0,0,0,0,0,0,0,0,0,0,0,0,0,0,0,0,0,0,0,0,0,0,0,0,0,0,0,0,0,0,0,0,0,0,0,0,0,0,0,0,0,0,0,0,0,0,0,0,0,0,0,0,0,0,0,0],"id":3,"left_children":[1,3,5,7,9,11,13,15,17,19,21,23,25,27,29,31,33,-1,35,37,39,41,43,45,47,49,51,53,55,57,59,61,-1,63,65,67,-1,69,71,73,75,77,79,81,83,85,87,-1,-1,-1,-1,89,91,93,95,97,99,-1,101,103,105,-1,-1,-1,-1,-1,-1,-1,-1,-1,-1,-1,-1,-1,-1,-1,-1,-1,-1,-1,-1,-1,-1,-1,-1,-1,-1,-1,-1,-1,-1,-1,-1,-1,-1,-1,-1,-1,-1,-1,-1,-1,-1,-1,-1,-1,-1],"loss_changes":[7.77844E3,1.6211509E3,9.0473486E2,5.5949756E2,3.295446E2,3.5128687E2,2.4728564E2,2.7637622E2,3.0582907E2,1.6699857E2,6.404814E1,7.737775E1,3.420652E2,4.4530823E1,3.7655273E1,2.1849487E2,4.2160095E1,0E0,2.0869827E2,8.9645874E1,2.592539E2,1.2247247E2,1.923767E1,8.8458755E1,3.2859783E1,1.1765723E2,2.3845566E1,3.439392E1,4.478305E1,1.1458496E1,4.8803772E1,1.2859595E2,0E0,9.191895E0,1.170742E1,2.2547018E2,0E0,3.096569E2,2.033139E1,1.7469208E1,1.14085884E2,1.2390088E2,1.2669082E2,3.0807495E-2,1.5213322E1,3.965173E1,2.6388306E1,0E0,0E0,0E0,0E0,1.2089325E1,7.7267075E-1,2.4442719E1,6.8011475E-1,3.173458E0,2.335144E1,0E0,2.1383057E0,2.271302E1,1.4378571E1,0E0,0E0,0E0,0E0,0E0,0E0,0E0,0E0,0E0,0E0,0E0,0E0,0E0,0E0,0E0,0E0,0E0,0E0,0E0,0E0,0E0,0E0,0E0,0E0,0E0,0E0,0E0,0E0,0E0,0E0,0E0,0E0,0E0,0E0,0E0,0E0,0E0,0E0,0E0,0E0,0E0,0E0,0E0,0E0,0E0,0E0],"parents":[2147483647,0,0,1,1,2,2,3,3,4,4,5,5,6,6,7,7,8,8,9,9,10,10,11,11,12,12,13,13,14,14,15,15,16,16,18,18,19,19,20,20,21,21,22,22,23,23,24,24,25,25,26,26,27,27,28,28,29,29,30,30,31,31,33,33,34,34,35,35,37,37,38,38,39,39,40,40,41,41,42,42,43,43,44,44,45,45,46,46,51,51,52,52,53,53,54,54,55,55,56,56,58,58,59,59,60,60],"right_children":[2,4,6,8,10,12,14,16,18,20,22,24,26,28,30,32,34,-1,36,38,40,42,44,46,48,50,52,54,56,58,60,62,-1,64,66,68,-1,70,72,74,76,78,80,82,84,86,88,-1,-1,-1,-1,90,92,94,96,98,100,-1,102,104,106,-1,-1,-1,-1,-1,-1,-1,-1,-1,-1,-1,-1,-1,-1,-1,-1,-1,-1,-1,-1,-1,-1,-1,-1,-1,-1,-1,-1,-1,-1,-1,-1,-1,-1,-1,-1,-1,-1,-1,-1,-1,-1,-1,-1,-1,-1],"split_conditions":[4.2105263E-1,1.8518518E-1,6.25E-1,4E0,2.9411766E-1,1.1E1,1.1E1,1.4285715E-1,2.3E1,3.1E1,2.5E1,1E1,1.2E1,7.2727275E-1,1.2E1,1.3636364E-1,1.4E1,-3.0252498E-1,2.13E2,2.8E1,3.2E1,2.2E1,2.6E1,8E0,5.3846157E-1,4.6153846E-1,4.7E1,7E-1,5E0,6.666667E-1,1.6E1,2E0,-4.228419E-1,1.5E-1,1.7391305E-1,1.6E2,3.4787837E-1,2.5E1,2.9E1,2E-1,3.8E1,2E1,2.3E1,3.3333334E-1,4.7E1,3E0,4.5454547E-1,-5.0103188E-2,2.633779E-2,1.2099836E-1,1.8760972E-1,4.7058824E-1,5.555556E-1,5E0,7.1428573E-1,4E0,1E1,2.2817372E-1,7.5E-1,1.3E1,8E-1,-2.2607926E-1,-1.4899164E-1,-2.0886888E-1,-1.1368939E-1,-7.466786E-2,-2.10131E-2,-4.4180352E-2,-3.933539E-1,-5.62463E-2,1.0717512E-1,-1.422468E-1,-6.97266E-2,6.481849E-2,1.3078447E-1,-2.2834183E-1,9.9501915E-2,8.170157E-3,1.10711925E-1,-1.6517915E-1,4.5166243E-2,3.758193E-1,1.3280636E-1,9.698199E-2,3.3449143E-1,-2.0920733E-1,2.7574461E-3,4.9253855E-2,1.0116321E-1,3.967194E-2,6.785703E-2,3.3787248E-1,2.0011313E-1,3.5799123E-2,1.5058064E-1,5.5449627E-2,7.571033E-2,1.8815367E-1,-6.4383455E-2,2.1609822E-1,1.2463017E-1,2.4972844E-1,2.7324766E-1,1.7137177E-1,5.1775545E-2,1.9430482E-1,2.8784752E-1],"split_indices":[0,0,0,1,0,2,2,0,2,2,2,2,2,0,2,0,2,0,2,2,2,2,2,2,0,0,2,0,2,0,2,1,0,0,0,2,0,2,2,0,2,2,2,0,2,1,0,0,0,0,0,0,0,1,0,2,2,0,0,2,0,0,0,0,0,0,0,0,0,0,0,0,0,0,0,0,0,0,0,0,0,0,0,0,0,0,0,0,0,0,0,0,0,0,0,0,0,0,0,0,0,0,0,0,0,0,0],"split_type":[0,0,0,0,0,0,0,0,0,0,0,0,0,0,0,0,0,0,0,0,0,0,0,0,0,0,0,0,0,0,0,0,0,0,0,0,0,0,0,0,0,0,0,0,0,0,0,0,0,0,0,0,0,0,0,0,0,0,0,0,0,0,0,0,0,0,0,0,0,0,0,0,0,0,0,0,0,0,0,0,0,0,0,0,0,0,0,0,0,0,0,0,0,0,0,0,0,0,0,0,0,0,0,0,0,0,0],"sum_hessian":[9.8619805E4,6.548641E4,3.313339E4,2.4596846E4,4.0889566E4,2.239663E4,1.0736762E4,1.5048261E4,9.548584E3,2.0723953E4,2.0165613E4,7.0030522E3,1.5393578E4,3.7105046E3,7.0262573E3,9.545164E3,5.503097E3,4.3579776E2,9.112787E3,1.8734605E4,1.9893466E3,1.9873365E4,2.9224823E2,4.9726147E3,2.0304376E3,9.698483E3,5.6950947E3,2.3654924E3,1.3450122E3,5.8293726E3,1.1968848E3,9.220856E3,3.24307E2,3.5182866E3,1.9848105E3,8.99401E3,1.1877653E2,1.7114193E4,1.6204128E3,1.4838201E3,5.0552646E2,1.8764352E4,1.1090143E3,3.1368994E1,2.6087924E2,1.3400055E3,3.6326091E3,1.0782233E3,9.522144E2,5.419302E3,4.279182E3,5.659747E3,3.5347687E1,1.5197319E3,8.457605E2,7.380157E1,1.2712107E3,3.3873386E3,2.442034E3,5.802621E2,6.166227E2,2.805823E3,6.4150337E3,9.439696E1,3.4238896E3,1.4994125E3,4.8539807E2,8.825353E3,1.6865741E2,1.5998764E4,1.1154294E3,1.1088274E3,5.1158542E2,6.347418E2,8.4907825E2,3.785063E2,1.2702017E2,1.7636975E4,1.1273777E3,7.030997E2,4.0591455E2,2.990434E1,1.464653E0,2.3448991E2,2.6389326E1,8.3788124E1,1.2562173E3,1.5153083E3,2.1173008E3,2.343249E3,3.3164978E3,2.3943142E1,1.1404547E1,1.9180884E2,1.3279231E3,6.366599E2,2.0910059E2,3.8222995E0,6.997927E1,9.182736E2,3.5293704E2,1.8158986E3,6.261353E2,3.2135226E2,2.589098E2,3.1963016E2,2.9699255E2],"tree_param":{"num_deleted":"0","num_feature":"3","num_nodes":"107","size_leaf_vector":"1"}},{"base_weights":[1.8229242E-2,-1.6552159E-1,2.5712138E-1,-3.592546E-1,-1.0989163E-1,1.2611187E-1,4.481294E-1,-5.3508085E-1,-2.6082578E-1,-1.7437463E-1,-4.2746674E-2,1.3203779E-2,1.6146024E-1,2.61817E-1,5.540764E-1,-5.909662E-1,-2.6065904E-1,-2.802474E-1,-1.8171722E-1,-2.249288E-1,3.3657532E-2,-4.9678598E-2,2.8744432E-1,7.939988E-2,-3.402382E-2,2.4473965E-1,6.580152E-2,2.0937185E-1,4.7697538E-1,6.0824764E-1,3.2720885E-1,-8.8562125E-1,-5.5678964E-1,-5.4507807E-2,-8.379978E-1,-3.531646E-1,-2.6639065E-1,-4.231921E-1,-1.689084E-1,-1.7164496E-1,-5.2569294E-1,1.2711698E0,-2.758373E-2,-2.5824811E-2,-1.6386521E-1,4.331189E-1,-3.066007E-2,-4.891465E-2,1.7248985E-1,5.442195E-2,9.217324E-2,-2.1356384E-1,1.15603164E-1,2.6433882E-1,9.067028E-2,-1.1031437E-1,5.159791E-1,1.5236554E-1,6.8521464E-1,2.2788778E-1,6.857895E-1,-2.733912E-1,-1.4776509E-1,-1.4737406E-1,-2.161011E-1,-6.5685414E-2,1.608864E-1,-3.2764128E-1,7.503647E-2,-5.7280447E-2,-1.0958817E-1,-9.290504E-2,-7.729252E-2,-1.3513097E-1,-8.974602E-2,-4.1162543E-2,-6.6981554E-2,-7.8400865E-2,5.238195E-2,-2.597592E-1,-7.372806E-2,2.4944828E-1,5.113484E-1,-1.2126487E-1,1.9550253E-2,-1.9256303E-2,3.9888404E-2,-1.7762963E-1,-2.652725E-3,1.2036688E-1,2.4453017E-1,-8.869918E-2,2.8484446E-1,-1.3839455E-1,-7.4914927E-3,3.543538E-2,8.359265E-2,-7.22567E-2,-5.4783657E-2,3.4727145E-3,4.8942074E-2,3.9987527E-2,9.376874E-2,1.8674994E-2,4.0113516E-2,1.580371E-1,-4.4396743E-2,1.793539E-1,9.497847E-2,1.9318281E-1,2.2306228E-1,5.017475E-2,1.2525517E-1,1.4324154E-1,2.5478673E-1],"categories":[],"categories_nodes":[],"categories_segments":[],"categories_sizes":[],"default_left":[0,0,0,0,0,0,0,0,0,0,0,0,0,0,0,0,0,0,0,0,0,0,0,0,0,0,0,0,0,0,0,0,0,0,0,0,0,0,0,0,0,0,0,0,0,0,0,0,0,0,0,0,0,0,0,0,0,0,0,0,0,0,0,0,0,0,0,0,0,0,0,0,0,0,0,0,0,0,0,0,0,0,0,0,0,0,0,0,0,0,0,0,0,0,0,0,0,0,0,0,0,0,0,0,0,0,0,0,0,0,0,0,0,0,0],"id":4,"left_children":[1,3,5,7,9,11,13,15,17,19,21,23,25,27,29,31,33,35,37,39,41,43,45,47,-1,49,51,53,55,57,59,61,63,65,67,69,71,73,75,77,79,81,83,85,87,89,91,93,95,-1,-1,97,99,101,103,105,107,-1,109,111,113,-1,-1,-1,-1,-1,-1,-1,-1,-1,-1,-1,-1,-1,-1,-1,-1,-1,-1,-1,-1,-1,-1,-1,-1,-1,-1,-1,-1,-1,-1,-1,-1,-1,-1,-1,-1,-1,-1,-1,-1,-1,-1,-1,-1,-1,-1,-1,-1,-1,-1,-1,-1,-1,-1],"loss_changes":[4.199063E3,5.826835E2,1.0406565E3,2.0860571E2,1.8187671E2,9.8459595E1,3.3383447E2,6.622034E1,1.1832947E1,2.253706E2,4.7120735E1,4.9318676E1,1.4965738E2,6.913226E1,1.3234766E2,3.570874E1,8.731975E1,6.1788025E0,4.653023E0,2.7618677E2,3.1759836E2,5.4902958E1,1.9630241E1,4.6162407E1,0E0,3.970276E1,1.2169966E2,3.2173813E1,2.7582367E1,6.689526E1,7.3959305E1,3.3059082E0,3.4205017E1,5.277155E1,5.366417E1,1.8750076E0,1.8977661E0,1.23021126E-1,2.471962E0,4.5490057E2,2.4680396E2,3.623111E1,1.395357E2,1.0159135E2,2.3123361E2,3.2114258E0,3.506088E1,1.6037664E1,1.2893173E1,0E0,0E0,1.0740242E0,3.6706047E1,2.1270264E1,1.9041119E0,1.8939779E0,1.8206482E1,0E0,1.1374512E1,1.8686592E1,1.4951752E1,0E0,0E0,0E0,0E0,0E0,0E0,0E0,0E0,0E0,0E0,0E0,0E0,0E0,0E0,0E0,0E0,0E0,0E0,0E0,0E0,0E0,0E0,0E0,0E0,0E0,0E0,0E0,0E0,0E0,0E0,0E0,0E0,0E0,0E0,0E0,0E0,0E0,0E0,0E0,0E0,0E0,0E0,0E0,0E0,0E0,0E0,0E0,0E0,0E0,0E0,0E0,0E0,0E0,0E0],"parents":[2147483647,0,0,1,1,2,2,3,3,4,4,5,5,6,6,7,7,8,8,9,9,10,10,11,11,12,12,13,13,14,14,15,15,16,16,17,17,18,18,19,19,20,20,21,21,22,22,23,23,25,25,26,26,27,27,28,28,29,29,30,30,31,31,32,32,33,33,34,34,35,35,36,36,37,37,38,38,39,39,40,40,41,41,42,42,43,43,44,44,45,45,46,46,47,47,48,48,51,51,52,52,53,53,54,54,55,55,56,56,58,58,59,59,60,60],"right_children":[2,4,6,8,10,12,14,16,18,20,22,24,26,28,30,32,34,36,38,40,42,44,46,48,-1,50,52,54,56,58,60,62,64,66,68,70,72,74,76,78,80,82,84,86,88,90,92,94,96,-1,-1,98,100,102,104,106,108,-1,110,112,114,-1,-1,-1,-1,-1,-1,-1,-1,-1,-1,-1,-1,-1,-1,-1,-1,-1,-1,-1,-1,-1,-1,-1,-1,-1,-1,-1,-1,-1,-1,-1,-1,-1,-1,-1,-1,-1,-1,-1,-1,-1,-1,-1,-1,-1,-1,-1,-1,-1,-1,-1,-1,-1,-1],"split_conditions":[3.6363637E-1,3E0,5.4545456E-1,9.259259E-2,2.3529412E-1,1.1E1,1.1E1,4.7E1,2.0588236E-1,4.7E1,3.1E1,1E1,1.2E1,7.2727275E-1,1.2E1,3.846154E-2,1.22E2,1.1E1,2E0,3.2E1,5.4E1,2.2E1,3.2E1,4E0,-3.402382E-2,3.6842105E-1,6E0,1E1,5E0,5.555556E-1,7.777778E-1,4.4E1,8.82353E-2,9.9E1,2.13E2,6E0,1.1764706E-1,2.580645E-1,2.580645E-1,3.1E1,3.8E1,5E1,6.6E1,1.9E1,2.3E1,2.631579E-1,4.7E1,5E0,4.5454547E-1,5.442195E-2,9.217324E-2,3.888889E-1,4.117647E-1,8E0,6.1538464E-1,4E0,1E1,1.5236554E-1,6.666667E-1,1.6E1,1.5E1,-2.733912E-1,-1.4776509E-1,-1.4737406E-1,-2.161011E-1,-6.5685414E-2,1.608864E-1,-3.2764128E-1,7.503647E-2,-5.7280447E-2,-1.0958817E-1,-9.290504E-2,-7.729252E-2,-1.3513097E-1,-8.974602E-2,-4.1162543E-2,-6.6981554E-2,-7.8400865E-2,5.238195E-2,-2.597592E-1,-7.372806E-2,2.4944828E-1,5.113484E-1,-1.2126487E-1,1.9550253E-2,-1.9256303E-2,3.9888404E-2,-1.7762963E-1,-2.652725E-3,1.2036688E-1,2.4453017E-1,-8.869918E-2,2.8484446E-1,-1.3839455E-1,-7.4914927E-3,3.543538E-2,8.359265E-2,-7.22567E-2,-5.4783657E-2,3.4727145E-3,4.8942074E-2,3.9987527E-2,9.376874E-2,1.8674994E-2,4.0113516E-2,1.580371E-1,-4.4396743E-2,1.793539E-1,9.497847E-2,1.9318281E-1,2.2306228E-1,5.017475E-2,1.2525517E-1,1.4324154E-1,2.5478673E-1],"split_indices":[0,1,0,0,0,2,2,2,0,2,2,2,2,0,2,0,2,2,1,2,2,2,2,1,0,0,1,2,2,0,0,2,0,2,2,2,0,0,0,2,2,2,2,2,2,0,2,2,0,0,0,0,0,2,0,2,2,0,0,2,1,0,0,0,0,0,0,0,0,0,0,0,0,0,0,0,0,0,0,0,0,0,0,0,0,0,0,0,0,0,0,0,0,0,0,0,0,0,0,0,0,0,0,0,0,0,0,0,0,0,0,0,0,0,0],"split_type":[0,0,0,0,0,0,0,0,0,0,0,0,0,0,0,0,0,0,0,0,0,0,0,0,0,0,0,0,0,0,0,0,0,0,0,0,0,0,0,0,0,0,0,0,0,0,0,0,0,0,0,0,0,0,0,0,0,0,0,0,0,0,0,0,0,0,0,0,0,0,0,0,0,0,0,0,0,0,0,0,0,0,0,0,0,0,0,0,0,0,0,0,0,0,0,0,0,0,0,0,0,0,0,0,0,0,0,0,0,0,0,0,0,0,0],"sum_hessian":[9.5656E4,5.4068184E4,4.1587812E4,1.2060764E4,4.200742E4,2.4669225E4,1.6918588E4,4.3269575E3,7.7338066E3,2.1427662E4,2.057976E4,5.8821426E3,1.8787082E4,6.1344194E3,1.0784169E4,3.5939119E3,7.330455E2,6.2073296E3,1.5264768E3,1.7238443E4,4.1892183E3,2.0157432E4,4.2232916E2,3.8629402E3,2.0192023E3,1.0042572E4,8.74451E3,4.933777E3,1.2006423E3,8.704125E3,2.0800442E3,3.7093802E2,3.2229739E3,5.4097363E2,1.9207187E2,9.8732416E2,5.2200054E3,7.527808E1,1.4511987E3,1.464541E4,2.5930327E3,1.9660626E2,3.992612E3,1.6675182E4,3.482249E3,2.894261E2,1.3290306E2,1.6243806E3,2.2385596E3,4.990158E3,5.052414E3,1.3225115E3,7.4219985E3,3.371373E3,1.5624039E3,7.465871E1,1.1259836E3,3.7811829E3,4.9229424E3,1.6301534E3,4.4989066E2,3.469504E2,2.39876E1,2.3037378E3,9.192361E2,4.23676E2,1.1729763E2,1.557025E2,3.6369366E1,6.984783E1,9.174763E2,8.717735E2,4.348232E3,5.9563805E1,1.571428E1,9.189012E2,5.3229755E2,1.1632445E4,3.0129653E3,1.1696251E3,1.4234076E3,9.903683E1,9.7569435E1,7.882852E2,3.204327E3,1.3430869E4,3.2443127E3,9.247921E2,2.557457E3,2.6901346E2,2.0412626E1,1.0516706E2,2.7735994E1,8.813054E1,1.5362501E3,1.4817235E3,7.5683606E2,6.9920294E2,6.233085E2,2.3282444E3,5.0937544E3,9.0790814E2,2.4634648E3,9.425099E2,6.1989404E2,3.443546E0,7.1215164E1,7.9681366E2,3.2916992E2,2.890002E3,2.0329403E3,1.2366018E3,3.935516E2,1.9955473E2,2.5033594E2],"tree_param":{"num_deleted":"0","num_feature":"3","num_nodes":"115","size_leaf_vector":"1"}},{"base_weights":[1.4422295E-2,-9.17367E-2,2.3879652E-1,-2.0316616E-1,-2.501097E-2,1.631693E-1,4.486002E-1,-2.5340027E-1,-9.16163E-3,-6.4214945E-2,3.247941E-2,6.9677494E-2,2.0864241E-1,2.6782572E-1,5.4548794E-1,-4.17243E-1,-1.8305644E-1,1.010257E0,-5.5640813E-2,-9.116086E-2,4.0240455E-2,8.7477945E-2,-2.2788703E-2,1.0642906E-1,-2.299673E-2,3.0277216E-1,9.256649E-2,2.3033285E-1,6.052285E-1,5.781112E-1,3.9970893E-1,-3.9738643E-1,-9.585008E-1,-1.7809881E-1,-4.440476E-1,4.8985916E-1,1.5518687E0,6.258017E-2,-3.7261042E-1,-5.5519782E-2,-3.1416196E-1,1.1834303E0,-1.1135401E-3,1.1860095E-1,-2.5930181E-2,-1.8517417E-1,6.640316E-3,-2.6696008E-2,1.5309402E-1,-2.3851724E-2,1.3196818E-2,6.90871E-2,1.213727E-1,3.5024464E-2,2.2265655E-1,2.91645E-1,1.122764E-1,3.9473793E-1,6.8458295E-1,1.607759E-1,6.3942206E-1,2.379836E-1,6.204702E-1,-1.2599863E-1,6.327519E-1,-2.462379E-1,-3.6428487E-1,-6.683758E-2,-1.2251457E-2,-8.791112E-2,2.3463498E-1,7.98245E-1,4.3562344E-1,-3.229659E-2,1.9484347E-1,-4.2796117E-1,-4.1657396E-2,-3.3286277E-2,9.739759E-3,-2.0334682E-1,-2.1866351E-2,3.151726E-1,3.7796843E-1,5.405004E-2,-1.6816124E-2,-1.8907772E-2,3.7890438E-2,1.006578E-2,-2.318793E-2,-6.434762E-2,-4.919229E-2,1.1454379E-2,-5.034727E-2,-2.0551654E-2,1.4201346E-1,7.172933E-2,3.4426935E-2,-3.7547976E-2,1.8212968E-2,9.387521E-2,2.4638634E-2,2.9698543E-2,1.1442663E-1,2.878784E-2,4.564306E-2,5.052677E-2,1.3726339E-1,2.2419749E-1,1.6467765E-1,1.8400738E-1,2.1445355E-1,1.2043719E-1,1.973924E-2,1.3923296E-1,2.4013963E-1],"categories":[],"categories_nodes":[],"categories_segments":[],"categories_sizes":[],"default_left":[0,0,0,0,0,0,0,0,0,0,0,0,0,0,0,0,0,0,0,0,0,0,0,0,0,0,0,0,0,0,0,0,0,0,0,0,0,0,0,0,0,0,0,0,0,0,0,0,0,0,0,0,0,0,0,0,0,0,0,0,0,0,0,0,0,0,0,0,0,0,0,0,0,0,0,0,0,0,0,0,0,0,0,0,0,0,0,0,0,0,0,0,0,0,0,0,0,0,0,0,0,0,0,0,0,0,0,0,0,0,0,0,0,0,0],"id":5,"left_children":[1,3,5,7,9,11,13,15,17,19,21,23,25,27,29,31,33,35,37,39,41,43,45,47,49,51,53,55,57,59,61,63,65,67,-1,69,71,73,75,77,79,81,83,85,87,89,91,93,95,-1,-1,-1,-1,97,99,101,103,105,107,-1,109,111,113,-1,-1,-1,-1,-1,-1,-1,-1,-1,-1,-1,-1,-1,-1,-1,-1,-1,-1,-1,-1,-1,-1,-1,-1,-1,-1,-1,-1,-1,-1,-1,-1,-1,-1,-1,-1,-1,-1,-1,-1,-1,-1,-1,-1,-1,-1,-1,-1,-1,-1,-1,-1],"loss_changes":[2.2193564E3,4.7026697E2,4.747478E2,2.3086298E2,8.916726E1,9.3506714E1,1.3871826E2,2.1679285E2,2.3096255E2,6.6209175E1,4.8759636E1,2.4524502E1,1.6166992E2,3.4882706E1,2.4312866E1,6.035669E1,8.440402E1,5.9149612E1,1.7471101E2,1.4859883E2,2.2806798E2,2.8381237E1,3.823877E1,3.2031796E1,7.7455163E0,6.020465E1,4.9610477E1,1.8014069E1,4.344246E0,1.0560547E1,3.3661926E1,3.0991315E2,6.0225677E0,8.0461334E1,0E0,2.5366512E1,7.611328E0,3.3939062E2,3.1182092E2,7.864308E1,2.2601437E2,3.8729858E-1,4.6389732E1,8.831711E0,5.2946625E0,7.2784805E-1,3.728646E1,2.8027792E1,1.2559723E1,0E0,0E0,0E0,0E0,1.892095E1,2.575602E1,2.8333344E1,5.4085064E-1,1.0316E0,1.2857895E0,0E0,2.928894E0,1.5404041E1,1.0880066E1,0E0,0E0,0E0,0E0,0E0,0E0,0E0,0E0,0E0,0E0,0E0,0E0,0E0,0E0,0E0,0E0,0E0,0E0,0E0,0E0,0E0,0E0,0E0,0E0,0E0,0E0,0E0,0E0,0E0,0E0,0E0,0E0,0E0,0E0,0E0,0E0,0E0,0E0,0E0,0E0,0E0,0E0,0E0,0E0,0E0,0E0,0E0,0E0,0E0,0E0,0E0,0E0],"parents":[2147483647,0,0,1,1,2,2,3,3,4,4,5,5,6,6,7,7,8,8,9,9,10,10,11,11,12,12,13,13,14,14,15,15,16,16,17,17,18,18,19,19,20,20,21,21,22,22,23,23,24,24,25,25,26,26,27,27,28,28,29,29,30,30,31,31,32,32,33,33,35,35,36,36,37,37,38,38,39,39,40,40,41,41,42,42,43,43,44,44,45,45,46,46,47,47,48,48,53,53,54,54,55,55,56,56,57,57,58,58,60,60,61,61,62,62],"right_children":[2,4,6,8,10,12,14,16,18,20,22,24,26,28,30,32,34,36,38,40,42,44,46,48,50,52,54,56,58,60,62,64,66,68,-1,70,72,74,76,78,80,82,84,86,88,90,92,94,96,-1,-1,-1,-1,98,100,102,104,106,108,-1,110,112,114,-1,-1,-1,-1,-1,-1,-1,-1,-1,-1,-1,-1,-1,-1,-1,-1,-1,-1,-1,-1,-1,-1,-1,-1,-1,-1,-1,-1,-1,-1,-1,-1,-1,-1,-1,-1,-1,-1,-1,-1,-1,-1,-1,-1,-1,-1,-1,-1,-1,-1,-1,-1],"split_conditions":[4.117647E-1,1.8518518E-1,6.363636E-1,4.7E1,3.125E-1,1.1E1,1.1E1,1.0909091E-1,5.4E1,2.5E1,1.2E1,1E1,1.2E1,8.5714287E-1,1.2E1,4.5E1,4.6E1,5E1,1.22E2,2.2E1,2.6E1,3.6842105E-1,1.4E1,8E0,5.3846157E-1,4.6153846E-1,1.6E1,1E1,7E0,6.666667E-1,1.7E1,4.4E1,4.6E1,3E1,-4.440476E-1,6.451613E-2,2.4793388E-2,9.9E1,1.25E2,1.6E1,2.3E1,2.0588236E-1,2.8E1,3E0,4E0,3.5E-1,2.2E1,5.833333E-1,9E0,-2.3851724E-2,1.3196818E-2,6.90871E-2,1.213727E-1,4.2105263E-1,1.8E1,6E0,7.1428573E-1,5E0,1E1,1.607759E-1,7.5E-1,1.3E1,8E-1,-1.2599863E-1,6.327519E-1,-2.462379E-1,-3.6428487E-1,-6.683758E-2,-1.2251457E-2,-8.791112E-2,2.3463498E-1,7.98245E-1,4.3562344E-1,-3.229659E-2,1.9484347E-1,-4.2796117E-1,-4.1657396E-2,-3.3286277E-2,9.739759E-3,-2.0334682E-1,-2.1866351E-2,3.151726E-1,3.7796843E-1,5.405004E-2,-1.6816124E-2,-1.8907772E-2,3.7890438E-2,1.006578E-2,-2.318793E-2,-6.434762E-2,-4.919229E-2,1.1454379E-2,-5.034727E-2,-2.0551654E-2,1.4201346E-1,7.172933E-2,3.4426935E-2,-3.7547976E-2,1.8212968E-2,9.387521E-2,2.4638634E-2,2.9698543E-2,1.1442663E-1,2.878784E-2,4.564306E-2,5.052677E-2,1.3726339E-1,2.2419749E-1,1.6467765E-1,1.8400738E-1,2.1445355E-1,1.2043719E-1,1.973924E-2,1.3923296E-1,2.4013963E-1],"split_indices":[0,0,0,2,0,2,2,0,2,2,2,2,2,0,2,2,2,2,2,2,2,0,2,2,0,0,2,2,1,0,2,2,2,2,0,0,0,2,2,2,2,0,2,1,1,0,2,0,2,0,0,0,0,0,2,1,0,1,2,0,0,2,0,0,0,0,0,0,0,0,0,0,0,0,0,0,0,0,0,0,0,0,0,0,0,0,0,0,0,0,0,0,0,0,0,0,0,0,0,0,0,0,0,0,0,0,0,0,0,0,0,0,0,0,0],"split_type":[0,0,0,0,0,0,0,0,0,0,0,0,0,0,0,0,0,0,0,0,0,0,0,0,0,0,0,0,0,0,0,0,0,0,0,0,0,0,0,0,0,0,0,0,0,0,0,0,0,0,0,0,0,0,0,0,0,0,0,0,0,0,0,0,0,0,0,0,0,0,0,0,0,0,0,0,0,0,0,0,0,0,0,0,0,0,0,0,0,0,0,0,0,0,0,0,0,0,0,0,0,0,0,0,0,0,0,0,0,0,0,0,0,0,0],"sum_hessian":[9.317264E4,6.324832E4,2.9924316E4,2.3688076E4,3.9560246E4,2.1996936E4,7.9273813E3,1.8815756E4,4.8723184E3,2.3520781E4,1.6039465E4,7.1988257E3,1.4798109E4,2.7675022E3,5.159879E3,5.650303E3,1.3165453E4,2.1155652E2,4.660762E3,1.8697574E4,4.823207E3,8.0390464E3,8.000418E3,5.1545513E3,2.0442749E3,8.170653E3,6.6274565E3,2.4922417E3,2.7526038E2,4.213903E3,9.459761E2,5.4520244E3,1.9827895E2,1.3116459E4,4.8994896E1,1.0886244E2,1.0269407E2,3.3952349E3,1.2655271E3,1.6122112E4,2.5754626E3,1.674204E2,4.6557866E3,6.3079004E3,1.7311461E3,1.2266472E3,6.7737705E3,1.3379879E3,3.8165632E3,1.1087523E3,9.3552246E2,4.774545E3,3.396108E3,4.595863E3,2.0315936E3,1.6393707E3,8.528711E2,7.699713E1,1.9826324E2,2.5019248E3,1.7119781E3,5.471921E2,3.98784E2,5.404112E3,4.791228E1,1.3162416E2,6.665479E1,9.894206E3,3.2222522E3,2.9591194E1,7.927125E1,6.35941E0,9.633466E1,2.6324763E3,7.627587E2,2.2880489E2,1.0367222E3,9.890464E3,6.231648E3,1.0264839E3,1.5489786E3,6.654299E1,1.008774E2,1.0823134E3,3.5734734E3,2.562689E2,6.051632E3,8.023273E2,9.2881885E2,5.1093884E2,7.1570844E2,5.7373184E3,1.0364523E3,1.2355507E3,1.0243718E2,1.1751285E3,2.6414348E3,6.3456903E2,3.9612937E3,1.2362958E3,7.952978E2,5.217869E2,1.1175837E3,6.075985E2,2.4527258E2,1.7526035E1,5.9471096E1,1.3248132E2,6.578192E1,1.2790916E3,4.3288663E2,2.800145E2,2.6717758E2,2.1531769E2,1.8346631E2],"tree_param":{"num_deleted":"0","num_feature":"3","num_nodes":"115","size_leaf_vector":"1"}},{"base_weights":[1.1235227E-2,-3.785349E-2,2.752949E-1,-1.17716745E-1,2.9314008E-2,1.4861058E-1,3.5804632E-1,-3.5636085E-1,-9.900944E-2,-1.9694764E-2,6.1550144E-2,1.3288847E-1,4.9785167E-1,2.6025105E-1,4.462934E-1,-5.6463015E-1,-2.7681166E-1,-1.0395482E-1,1.0111511E0,3.0185002E-1,-3.0319888E-2,2.16605E-3,7.938057E-2,1.7097782E-1,5.4476097E-2,3.0797347E-1,5.743545E-1,9.464852E-2,8.777178E-2,4.7769102E-1,3.1314328E-1,-2.9426318E-1,-5.21822E-1,-3.0855757E-1,-1.9317855E-1,-9.319774E-2,-7.655829E-1,8.691672E-1,3.4283888E-1,3.0702257E-1,-6.6784084E-1,-3.6388088E-2,9.422007E-2,3.30708E-2,-1.637987E-2,1.315011E-1,3.062844E-2,1.22028954E-1,2.9454798E-1,9.3020955E-3,8.0495E-2,1.2285303E-1,3.6412472E-1,6.422747E-1,4.376936E-1,1.1709361E-1,-2.6306662E-1,1.3094053E-1,5.393805E-1,1.7686586E-1,5.1869243E-1,-1.6627091E-1,5.6552537E-2,-8.91225E-2,-1.06991984E-1,-3.8433895E-2,-7.152736E-2,-2.9508172E-2,4.1810787E-1,-4.2860723E-1,-1.7554046E-1,1.3899703E-1,2.8159285E-1,8.130403E-2,9.685963E-2,-3.6989933E-1,6.1300762E-2,-6.126869E-3,-5.3255197E-2,3.2198417E-1,-3.984737E-4,-8.571825E-3,2.4056915E-2,2.8415997E-2,5.101317E-2,-6.4195725E-3,2.8075503E-2,-5.0637703E-2,3.8999405E-2,7.376476E-2,1.1199292E-1,2.052884E-2,3.3113185E-2,1.24159835E-1,1.1340208E-2,2.544831E-1,8.5356645E-2,1.802971E-1,2.493874E-1,1.1964236E-1,1.9607212E-1,2.6908806E-2,2.2297327E-1,-5.823373E-1,1.7109968E-2,1.5397245E-1,1.8510747E-1,9.253342E-2,1.4047996E-2,2.8531533E-1,1.3168032E-1],"categories":[],"categories_nodes":[],"categories_segments":[],"categories_sizes":[],"default_left":[0,0,0,0,0,0,0,0,0,0,0,0,0,0,0,0,0,0,0,0,0,0,0,0,0,0,0,0,0,0,0,0,0,0,0,0,0,0,0,0,0,0,0,0,0,0,0,0,0,0,0,0,0,0,0,0,0,0,0,0,0,0,0,0,0,0,0,0,0,0,0,0,0,0,0,0,0,0,0,0,0,0,0,0,0,0,0,0,0,0,0,0,0,0,0,0,0,0,0,0,0,0,0,0,0,0,0,0,0,0,0],"id":6,"left_children":[1,3,5,7,9,11,13,15,17,19,21,23,25,27,29,31,33,35,37,39,41,43,45,47,49,51,53,-1,55,57,59,-1,61,63,65,67,69,71,-1,73,75,77,79,81,-1,83,85,87,89,-1,91,93,95,97,99,101,103,-1,105,107,109,-1,-1,-1,-1,-1,-1,-1,-1,-1,-1,-1,-1,-1,-1,-1,-1,-1,-1,-1,-1,-1,-1,-1,-1,-1,-1,-1,-1,-1,-1,-1,-1,-1,-1,-1,-1,-1,-1,-1,-1,-1,-1,-1,-1,-1,-1,-1,-1,-1,-1],"loss_changes":[1.1814891E3,4.1229562E2,1.4973413E2,1.5671713E2,6.595851E1,3.0941536E1,7.4465576E1,4.2123474E1,1.7886926E2,5.6605476E1,2.6665947E1,1.6134544E1,3.3516655E0,3.9054443E1,1.883606E1,1.2039047E1,4.848404E0,2.3064865E2,1.7075653E0,2.8633194E0,1.2122996E1,1.0205985E1,4.921135E1,2.1966545E1,1.0775361E0,7.0283604E-1,1.3153152E0,0E0,1.0281102E1,9.104736E0,2.4262978E1,0E0,1.4859192E1,6.329346E-1,1.4747086E0,2.4501807E2,6.1204254E1,1.6430359E0,0E0,2.1363068E-1,1.7932888E0,3.4452667E1,6.972877E1,1.0943234E1,0E0,1.3253952E1,3.2785873E1,6.06435E0,3.8615036E0,0E0,2.9463863E-1,4.3598634E-1,1.8656697E0,3.8024902E-1,2.450428E-1,1.5720229E1,4.1557625E1,0E0,2.6606445E0,8.957209E0,1.1517792E1,0E0,0E0,0E0,0E0,0E0,0E0,0E0,0E0,0E0,0E0,0E0,0E0,0E0,0E0,0E0,0E0,0E0,0E0,0E0,0E0,0E0,0E0,0E0,0E0,0E0,0E0,0E0,0E0,0E0,0E0,0E0,0E0,0E0,0E0,0E0,0E0,0E0,0E0,0E0,0E0,0E0,0E0,0E0,0E0,0E0,0E0,0E0,0E0,0E0,0E0],"parents":[2147483647,0,0,1,1,2,2,3,3,4,4,5,5,6,6,7,7,8,8,9,9,10,10,11,11,12,12,13,13,14,14,15,15,16,16,17,17,18,18,19,19,20,20,21,21,22,22,23,23,24,24,25,25,26,26,28,28,29,29,30,30,32,32,33,33,34,34,35,35,36,36,37,37,39,39,40,40,41,41,42,42,43,43,45,45,46,46,47,47,48,48,50,50,51,51,52,52,53,53,54,54,55,55,56,56,58,58,59,59,60,60],"right_children":[2,4,6,8,10,12,14,16,18,20,22,24,26,28,30,32,34,36,38,40,42,44,46,48,50,52,54,-1,56,58,60,-1,62,64,66,68,70,72,-1,74,76,78,80,82,-1,84,86,88,90,-1,92,94,96,98,100,102,104,-1,106,108,110,-1,-1,-1,-1,-1,-1,-1,-1,-1,-1,-1,-1,-1,-1,-1,-1,-1,-1,-1,-1,-1,-1,-1,-1,-1,-1,-1,-1,-1,-1,-1,-1,-1,-1,-1,-1,-1,-1,-1,-1,-1,-1,-1,-1,-1,-1,-1,-1,-1,-1],"split_conditions":[5.4545456E-1,2.580645E-1,1.1E1,2E0,3.5E-1,8.5714287E-1,6.363636E-1,4.761905E-2,2.13E2,2.631579E-1,1.1E1,1E1,7E0,7E0,1.2E1,2.3E1,1.0344828E-1,1.35E2,2.34E2,9E0,2.5E1,1E1,1.2E1,6E0,6.1538464E-1,5E0,1E1,9.464852E-2,2.2E1,6.666667E-1,1.7E1,-2.9426318E-1,4.347826E-2,1.8E1,1.2903225E-1,1.31E2,1.39E2,3E0,3.4283888E-1,7E0,1.6E1,2.2E1,2.6E1,4E0,-1.637987E-2,3.6842105E-1,1.6E1,5E0,7E-1,9.3020955E-3,7.1428573E-1,4E0,6E0,9.0909094E-1,9.0909094E-1,1.9E1,2.3E1,1.3094053E-1,7.5E-1,1.3E1,1.8E1,-1.6627091E-1,5.6552537E-2,-8.91225E-2,-1.06991984E-1,-3.8433895E-2,-7.152736E-2,-2.9508172E-2,4.1810787E-1,-4.2860723E-1,-1.7554046E-1,1.3899703E-1,2.8159285E-1,8.130403E-2,9.685963E-2,-3.6989933E-1,6.1300762E-2,-6.126869E-3,-5.3255197E-2,3.2198417E-1,-3.984737E-4,-8.571825E-3,2.4056915E-2,2.8415997E-2,5.101317E-2,-6.4195725E-3,2.8075503E-2,-5.0637703E-2,3.8999405E-2,7.376476E-2,1.1199292E-1,2.052884E-2,3.3113185E-2,1.24159835E-1,1.1340208E-2,2.544831E-1,8.5356645E-2,1.802971E-1,2.493874E-1,1.1964236E-1,1.9607212E-1,2.6908806E-2,2.2297327E-1,-5.823373E-1,1.7109968E-2,1.5397245E-1,1.8510747E-1,9.253342E-2,1.4047996E-2,2.8531533E-1,1.3168032E-1],"split_indices":[0,0,2,1,0,0,0,0,2,0,2,2,1,1,2,2,0,2,2,1,2,2,2,1,0,1,2,0,2,0,2,0,0,2,0,2,2,1,0,1,1,2,2,1,0,0,2,2,0,0,0,1,1,0,0,2,2,0,0,2,2,0,0,0,0,0,0,0,0,0,0,0,0,0,0,0,0,0,0,0,0,0,0,0,0,0,0,0,0,0,0,0,0,0,0,0,0,0,0,0,0,0,0,0,0,0,0,0,0,0,0],"split_type":[0,0,0,0,0,0,0,0,0,0,0,0,0,0,0,0,0,0,0,0,0,0,0,0,0,0,0,0,0,0,0,0,0,0,0,0,0,0,0,0,0,0,0,0,0,0,0,0,0,0,0,0,0,0,0,0,0,0,0,0,0,0,0,0,0,0,0,0,0,0,0,0,0,0,0,0,0,0,0,0,0,0,0,0,0,0,0,0,0,0,0,0,0,0,0,0,0,0,0,0,0,0,0,0,0,0,0,0,0,0,0],"sum_hessian":[9.114594E4,7.685874E4,1.4287191E4,3.5110746E4,4.1748E4,5.6462017E3,8.640989E3,2.5509465E3,3.2559799E4,1.6564814E4,2.5183188E4,5.4042925E3,2.4190953E2,4.1006284E3,4.5403604E3,7.033622E2,1.8475842E3,3.24163E4,1.4349698E2,5.2898224E2,1.6035832E4,5.815577E3,1.936761E4,3.636606E3,1.7676865E3,7.0918106E1,1.7099142E2,3.1052178E3,9.954107E2,3.6719128E3,8.684477E2,6.354703E1,6.398151E2,1.337282E3,5.103023E2,3.1898814E4,5.17486E2,7.269516E1,7.080183E1,5.268552E2,2.126985E0,1.5291464E4,7.443676E2,3.7657937E3,2.0497832E3,9.359618E3,1.0007991E4,2.6062146E3,1.0303914E3,9.305341E2,8.3715234E2,1.724672E1,5.3671387E1,1.1175143E2,5.9239998E1,9.192494E2,7.616135E1,2.205927E3,1.465986E3,5.2333875E2,3.4510892E2,6.121029E2,2.7712238E1,1.0852827E3,2.5199922E2,2.1087993E2,2.9942236E2,3.178937E4,1.09446236E2,1.0921756E2,4.082685E2,1.1746497E1,6.094866E1,1.6650714E2,3.6034808E2,1.0396234E0,1.0873616E0,1.3738451E4,1.5530127E3,6.527523E1,6.7909235E2,1.6316168E3,2.134177E3,4.7910317E3,4.5685864E3,5.4800024E3,4.527989E3,6.8972244E1,2.5372422E3,6.394243E2,3.9096704E2,5.9870416E2,2.3844818E2,3.0262291E0,1.42204895E1,6.2149467E0,4.745644E1,9.514891E1,1.6602514E1,5.261076E1,6.6292377E0,8.818086E2,3.7440815E1,1.1389599E1,6.477175E1,1.102454E3,3.6353195E2,2.594475E2,2.6389124E2,5.2046566E1,2.9306235E2],"tree_param":{"num_deleted":"0","num_feature":"3","num_nodes":"111","size_leaf_vector":"1"}},{"base_weights":[8.58152E-3,-2.6698222E-2,2.0914541E-1,-1.3565648E-1,1.4299192E-3,1.0855757E-1,2.785554E-1,-2.0657681E-1,2.86367E-2,-6.053629E-4,7.8677267E-1,9.631187E-2,4.0429965E-1,1.9614503E-1,3.567554E-1,-1.6345422E-1,-4.0362307E-1,2.4899174E-1,-1.5417951E-1,-3.6809213E-2,3.6664236E-2,5.773771E-1,5.4313284E-1,5.3616118E-2,1.365233E-1,2.4104452E-1,4.7446278E-1,7.228226E-2,6.406765E-2,3.0485252E-1,4.2731386E-1,-2.0178469E-1,-1.0340292E-2,-7.939656E-1,-2.4862523E-1,-5.012788E-2,1.0680082E0,-1.6457504E0,7.8940935E-2,2.191229E-1,-4.91963E-2,4.2350195E-2,-1.09458E-1,-7.5471565E-2,9.37693E-1,1.0017857E-1,4.2932194E-2,1.7114651E-1,5.7358775E-2,9.574638E-2,2.8792667E-1,4.3312228E-1,2.15634E-1,8.4727794E-2,-1.6802345E-1,1.0415136E-1,7.5712435E-2,4.1149172E-1,7.5442445E-1,-4.6207868E-2,-1.3654345E-1,-1.5599538E-1,6.5641566E-3,-2.0990269E-1,-4.6414825E-1,-2.5767973E-2,-1.9802903E-1,3.2490775E-2,-6.030203E-1,2.1970044E-1,4.6899667E-1,-5.505693E-1,-3.7538055E-1,2.2034109E-1,-7.495862E-2,-1.0767048E-2,1.0890195E-1,-3.9197568E-2,-8.701995E-3,1.0874673E-2,8.545944E-2,-7.5280204E-2,3.2941405E-2,6.3059375E-2,-2.6686704E-1,3.0246392E-1,1.55853825E-2,2.5210913E-2,2.3932275E-3,1.3529365E-2,6.511761E-2,1.4567845E-2,2.3812778E-2,1.0347619E-1,8.189081E-3,2.3007117E-1,6.516101E-2,1.5038243E-1,9.288394E-2,1.9182976E-2,1.8797854E-1,-2.5418603E-1,6.157481E-2,1.2567632E-2,1.0400333E-1,1.2903659E-1,-9.9069774E-2,2.8026855E-1,1.437895E-1],"categories":[],"categories_nodes":[],"categories_segments":[],"categories_sizes":[],"default_left":[0,0,0,0,0,0,0,0,0,0,0,0,0,0,0,0,0,0,0,0,0,0,0,0,0,0,0,0,0,0,0,0,0,0,0,0,0,0,0,0,0,0,0,0,0,0,0,0,0,0,0,0,0,0,0,0,0,0,0,0,0,0,0,0,0,0,0,0,0,0,0,0,0,0,0,0,0,0,0,0,0,0,0,0,0,0,0,0,0,0,0,0,0,0,0,0,0,0,0,0,0,0,0,0,0,0,0,0,0],"id":7,"left_children":[1,3,5,7,9,11,13,15,17,19,21,23,25,27,29,31,33,35,37,39,41,-1,43,45,47,49,51,-1,53,55,57,59,61,63,65,67,69,71,73,75,77,79,81,83,85,-1,87,89,91,93,95,97,-1,99,101,-1,103,105,107,-1,-1,-1,-1,-1,-1,-1,-1,-1,-1,-1,-1,-1,-1,-1,-1,-1,-1,-1,-1,-1,-1,-1,-1,-1,-1,-1,-1,-1,-1,-1,-1,-1,-1,-1,-1,-1,-1,-1,-1,-1,-1,-1,-1,-1,-1,-1,-1,-1,-1],"loss_changes":[6.3526996E2,2.3399765E2,9.373645E1,1.8254141E2,9.6999344E1,1.9825958E1,5.113794E1,9.291455E1,1.9035815E2,8.167378E1,4.2440468E1,9.03775E0,2.3801804E0,2.2887787E1,1.479657E1,5.269792E1,1.1863315E2,5.2496533E2,8.9819495E2,9.735074E1,2.4785557E1,0E0,3.194543E1,7.6431775E0,7.4248924E0,4.3219972E-1,1.2166824E0,0E0,4.721856E0,2.278003E1,8.617523E0,8.682779E1,2.9551447E1,3.853003E1,9.417503E1,4.8784998E2,9.416339E1,2.3801208E1,4.8183115E2,5.202993E1,4.8165222E1,4.247011E1,3.4690216E1,1.2229536E1,4.932762E0,0E0,3.5398254E0,1.0908424E1,1.5633655E-1,2.969674E-1,1.5451684E0,9.551163E-1,0E0,1.0120739E1,2.060654E1,0E0,3.3572133E0,2.290976E1,3.4300041E0,0E0,0E0,0E0,0E0,0E0,0E0,0E0,0E0,0E0,0E0,0E0,0E0,0E0,0E0,0E0,0E0,0E0,0E0,0E0,0E0,0E0,0E0,0E0,0E0,0E0,0E0,0E0,0E0,0E0,0E0,0E0,0E0,0E0,0E0,0E0,0E0,0E0,0E0,0E0,0E0,0E0,0E0,0E0,0E0,0E0,0E0,0E0,0E0,0E0,0E0],"parents":[2147483647,0,0,1,1,2,2,3,3,4,4,5,5,6,6,7,7,8,8,9,9,10,10,11,11,12,12,13,13,14,14,15,15,16,16,17,17,18,18,19,19,20,20,22,22,23,23,24,24,25,25,26,26,28,28,29,29,30,30,31,31,32,32,33,33,34,34,35,35,36,36,37,37,38,38,39,39,40,40,41,41,42,42,43,43,44,44,46,46,47,47,48,48,49,49,50,50,51,51,53,53,54,54,56,56,57,57,58,58],"right_children":[2,4,6,8,10,12,14,16,18,20,22,24,26,28,30,32,34,36,38,40,42,-1,44,46,48,50,52,-1,54,56,58,60,62,64,66,68,70,72,74,76,78,80,82,84,86,-1,88,90,92,94,96,98,-1,100,102,-1,104,106,108,-1,-1,-1,-1,-1,-1,-1,-1,-1,-1,-1,-1,-1,-1,-1,-1,-1,-1,-1,-1,-1,-1,-1,-1,-1,-1,-1,-1,-1,-1,-1,-1,-1,-1,-1,-1,-1,-1,-1,-1,-1,-1,-1,-1,-1,-1,-1,-1,-1,-1],"split_conditions":[5.4545456E-1,1.5789473E-1,1.1E1,4.7E1,4.4E1,8.5714287E-1,6.363636E-1,3.2E1,8.6E1,3.125E-1,4.5E1,6.1538464E-1,7E0,7E0,7.2727275E-1,3E1,3.6E1,7.9E1,9.8E1,1.6666667E-1,2.2E1,5.773771E-1,4.7E1,4E0,1E1,5E0,9.0909094E-1,7.228226E-2,2.2E1,8E0,2.7E1,2.8E1,3.5714287E-2,3.5E1,4.5E1,7.8E1,8.2E1,9.6E1,1.05E2,4E0,1.8518518E-1,2E1,2.3E1,4.6E1,1.6E2,1.0017857E-1,5.714286E-1,8E0,7.1428573E-1,4E0,6E0,9E0,2.15634E-1,1.9E1,2.5E1,1.0415136E-1,2.5E1,2.2E1,3.4E1,-4.6207868E-2,-1.3654345E-1,-1.5599538E-1,6.5641566E-3,-2.0990269E-1,-4.6414825E-1,-2.5767973E-2,-1.9802903E-1,3.2490775E-2,-6.030203E-1,2.1970044E-1,4.6899667E-1,-5.505693E-1,-3.7538055E-1,2.2034109E-1,-7.495862E-2,-1.0767048E-2,1.0890195E-1,-3.9197568E-2,-8.701995E-3,1.0874673E-2,8.545944E-2,-7.5280204E-2,3.2941405E-2,6.3059375E-2,-2.6686704E-1,3.0246392E-1,1.55853825E-2,2.5210913E-2,2.3932275E-3,1.3529365E-2,6.511761E-2,1.4567845E-2,2.3812778E-2,1.0347619E-1,8.189081E-3,2.3007117E-1,6.516101E-2,1.5038243E-1,9.288394E-2,1.9182976E-2,1.8797854E-1,-2.5418603E-1,6.157481E-2,1.2567632E-2,1.0400333E-1,1.2903659E-1,-9.9069774E-2,2.8026855E-1,1.437895E-1],"split_indices":[0,0,2,2,2,0,0,2,2,0,2,0,1,1,0,2,2,2,2,0,2,0,2,1,2,1,0,0,2,1,2,2,0,2,2,2,2,2,2,1,0,2,2,2,2,0,0,2,0,1,1,1,0,2,2,0,2,2,2,0,0,0,0,0,0,0,0,0,0,0,0,0,0,0,0,0,0,0,0,0,0,0,0,0,0,0,0,0,0,0,0,0,0,0,0,0,0,0,0,0,0,0,0,0,0,0,0,0,0],"split_type":[0,0,0,0,0,0,0,0,0,0,0,0,0,0,0,0,0,0,0,0,0,0,0,0,0,0,0,0,0,0,0,0,0,0,0,0,0,0,0,0,0,0,0,0,0,0,0,0,0,0,0,0,0,0,0,0,0,0,0,0,0,0,0,0,0,0,0,0,0,0,0,0,0,0,0,0,0,0,0,0,0,0,0,0,0,0,0,0,0,0,0,0,0,0,0,0,0,0,0,0,0,0,0,0,0,0,0,0,0],"sum_hessian":[8.977833E4,7.6349164E4,1.3429161E4,1.5664958E4,6.0684207E4,5.484163E3,7.944998E3,1.09415625E4,4.7233945E3,6.0528344E4,1.5586508E2,5.267384E3,2.167792E2,3.8700686E3,4.0749297E3,8.978494E3,1.963069E3,2.1416382E3,2.5817566E3,3.0703166E4,2.9825176E4,2.6272253E1,1.2959282E2,2.5559048E3,2.711479E3,6.649486E1,1.5028435E2,2.8892993E3,9.807694E2,2.3509148E3,1.7240148E3,7.180591E3,1.7979033E3,5.567761E2,1.4062928E3,1.5694027E3,5.722355E2,3.4814786E2,2.2336086E3,1.4166559E3,2.928651E4,2.8708762E4,1.1164149E3,5.0782722E1,7.88101E1,9.2729164E1,2.4631758E3,1.8856246E3,8.258545E2,1.6963507E1,4.953135E1,1.3090665E2,1.9377705E1,9.0118335E2,7.958606E1,1.9839874E3,3.669274E2,1.6466263E3,7.738845E1,6.043077E3,1.1375137E3,1.06008194E2,1.6918951E3,4.9654437E2,6.023173E1,1.00860895E3,3.9768393E2,1.452903E3,1.1649972E2,3.4256104E2,2.2967444E2,2.3271587E2,1.1543201E2,7.456949E2,1.4879138E3,5.1126407E2,9.0539185E2,5.81567E3,2.347084E4,2.800534E4,7.03421E2,6.784869E2,4.3792804E2,3.8140644E1,1.2642079E1,7.287013E1,5.9399652E0,1.1313679E3,1.3318077E3,5.039761E2,1.3816486E3,5.9233105E2,2.3352342E2,2.7852821E0,1.41782255E1,5.1061287E0,4.442522E1,8.238689E1,4.8519756E1,8.6897003E2,3.2213295E1,2.7774155E1,5.1811905E1,3.2723804E2,3.9689365E1,1.6066904E3,3.9935917E1,4.5353077E1,3.203537E1],"tree_param":{"num_deleted":"0","num_feature":"3","num_nodes":"109","size_leaf_vector":"1"}},{"base_weights":[6.4698844E-3,-3.0316101E-2,1.1445759E-1,-1.0243073E-1,-1.0179655E-2,7.579188E-2,2.0793356E-1,-1.2893751E-1,2.3544641E-1,-1.8489081E-2,1.0764644E-1,1.4410224E-2,1.0146488E-1,1.1483705E-1,2.7812892E-1,-1.3568266E-1,6.7187154E-1,4.3496916E-1,7.3122144E-2,-1.1344715E-3,-1.01824544E-1,2.4489154E-1,-1.4343555E-1,-8.916707E-2,2.0578783E-2,1.3952452E-1,3.5601586E-2,9.920544E-2,3.2171896E-1,2.5549975E-1,4.184872E-1,-1.2622567E-1,-1.042007E0,-7.7879614E-1,8.4686E-1,2.0217618E-1,1.1064348E0,-9.7097725E-1,2.4963067E-1,-1.3536734E-2,1.6324839E-1,-3.8781542E-1,-1.1606728E-2,2.3615369E-1,2.2257961E-1,-3.5876137E-1,1.5459442E-1,5.161608E-2,-1.8333184E-2,3.4183938E-2,5.4164298E-2,-7.1478754E-2,7.2161205E-2,1.2549928E-1,4.0685087E-2,1.867108E-1,3.8329616E-1,2.8995633E-1,8.620178E-2,3.8816607E-1,7.9469997E-1,-4.8637535E-2,8.63187E-3,-3.5924163E-1,-2.6289123E-1,-3.6446893E-1,-9.3994915E-2,2.0126058E-1,3.0319095E-1,1.00766174E-1,-4.3109226E-1,2.8388524E-1,4.0704784E-1,-3.6552927E-1,-1.4828628E-1,2.3334424E-1,8.585489E-3,-1.1740979E-3,-2.0288792E-2,4.3719735E-2,1.2798618E-1,-1.826581E-1,-6.205242E-2,1.7369017E-1,-2.7168322E-2,8.152063E-2,6.4985335E-2,-7.8339204E-2,-5.208531E-1,2.983841E-1,-4.275802E-2,-3.204138E-3,2.3381999E-2,-1.4878224E-2,5.8335126E-3,-2.2811325E-2,2.9258484E-1,2.0486146E-2,2.1174513E-1,9.5665455E-3,4.8295964E-2,1.0300331E-2,1.7008873E-2,2.2423673E-2,6.739367E-2,1.0347601E-1,1.8779261E-1,8.0919266E-2,9.959872E-2,-7.7731763E-3,5.458046E-2,1.4525934E-1,6.2185057E-2,3.0282792E-1,1.3901646E-1],"categories":[],"categories_nodes":[],"categories_segments":[],"categories_sizes":[],"default_left":[0,0,0,0,0,0,0,0,0,0,0,0,0,0,0,0,0,0,0,0,0,0,0,0,0,0,0,0,0,0,0,0,0,0,0,0,0,0,0,0,0,0,0,0,0,0,0,0,0,0,0,0,0,0,0,0,0,0,0,0,0,0,0,0,0,0,0,0,0,0,0,0,0,0,0,0,0,0,0,0,0,0,0,0,0,0,0,0,0,0,0,0,0,0,0,0,0,0,0,0,0,0,0,0,0,0,0,0,0,0,0,0,0,0,0],"id":8,"left_children":[1,3,5,7,9,11,13,15,17,19,21,23,25,27,29,31,33,35,37,39,41,43,45,-1,47,49,51,53,55,57,59,61,63,65,67,69,71,73,75,77,79,81,83,85,-1,87,89,91,93,-1,-1,95,97,99,101,103,105,107,109,111,113,-1,-1,-1,-1,-1,-1,-1,-1,-1,-1,-1,-1,-1,-1,-1,-1,-1,-1,-1,-1,-1,-1,-1,-1,-1,-1,-1,-1,-1,-1,-1,-1,-1,-1,-1,-1,-1,-1,-1,-1,-1,-1,-1,-1,-1,-1,-1,-1,-1,-1,-1,-1,-1,-1],"loss_changes":[3.520545E2,9.5993164E1,8.137439E1,1.2926013E2,5.059756E1,2.510376E1,4.3024292E1,7.2366104E1,3.3975082E1,6.981613E1,1.1735315E2,9.039892E0,2.8152725E1,9.132935E0,1.1821655E1,1.13602066E2,2.9072525E1,7.3372734E1,1.0716429E2,8.145828E1,2.1467169E2,9.386581E0,7.731197E1,0E0,5.5674667E0,7.4490204E0,1.6115147E1,4.0515137E0,1.579834E0,1.88564E1,5.621704E0,7.30844E1,2.4771118E0,2.1708245E0,2.2146683E0,7.737757E1,3.5676575E0,9.318298E0,5.8003616E1,1.9338959E1,1.28689575E1,7.969061E1,2.950265E2,1.4461212E0,0E0,9.357501E1,1.2634777E2,4.2059236E0,2.4170763E0,0E0,0E0,5.0749116E0,7.483762E0,6.0361004E0,8.130932E-2,2.5576878E-1,1.0457478E0,2.1967773E0,5.8947535E0,8.290329E0,2.2227325E0,0E0,0E0,0E0,0E0,0E0,0E0,0E0,0E0,0E0,0E0,0E0,0E0,0E0,0E0,0E0,0E0,0E0,0E0,0E0,0E0,0E0,0E0,0E0,0E0,0E0,0E0,0E0,0E0,0E0,0E0,0E0,0E0,0E0,0E0,0E0,0E0,0E0,0E0,0E0,0E0,0E0,0E0,0E0,0E0,0E0,0E0,0E0,0E0,0E0,0E0,0E0,0E0,0E0,0E0],"parents":[2147483647,0,0,1,1,2,2,3,3,4,4,5,5,6,6,7,7,8,8,9,9,10,10,11,11,12,12,13,13,14,14,15,15,16,16,17,17,18,18,19,19,20,20,21,21,22,22,24,24,25,25,26,26,27,27,28,28,29,29,30,30,31,31,32,32,33,33,34,34,35,35,36,36,37,37,38,38,39,39,40,40,41,41,42,42,43,43,45,45,46,46,47,47,48,48,51,51,52,52,53,53,54,54,55,55,56,56,57,57,58,58,59,59,60,60],"right_children":[2,4,6,8,10,12,14,16,18,20,22,24,26,28,30,32,34,36,38,40,42,44,46,-1,48,50,52,54,56,58,60,62,64,66,68,70,72,74,76,78,80,82,84,86,-1,88,90,92,94,-1,-1,96,98,100,102,104,106,108,110,112,114,-1,-1,-1,-1,-1,-1,-1,-1,-1,-1,-1,-1,-1,-1,-1,-1,-1,-1,-1,-1,-1,-1,-1,-1,-1,-1,-1,-1,-1,-1,-1,-1,-1,-1,-1,-1,-1,-1,-1,-1,-1,-1,-1,-1,-1,-1,-1,-1,-1,-1,-1,-1,-1,-1],"split_conditions":[4.5454547E-1,1.5E-1,6.25E-1,7E0,3.1E1,1.1E1,1.1E1,2.13E2,8.6E1,2.2E1,3.2E1,3E0,1.2E1,8.5714287E-1,8.181818E-1,1.6E2,2E0,7.9E1,9.8E1,2E1,2.3E1,2.631579E-1,3.8E1,-8.916707E-2,1E1,4.6153846E-1,4.7058824E-1,1E1,7E0,1.2E1,2.7E1,6.6E1,1.96E2,2.34E2,2.34E2,7.8E1,8.2E1,9.6E1,1.05E2,1.8E1,3.846154E-1,2.2857143E-1,2.4E1,1.6666667E-1,2.2257961E-1,3.7E1,4.2E1,8E0,5.3846157E-1,3.4183938E-2,5.4164298E-2,1.8E1,4.7E1,8E0,7.1428573E-1,5E0,9.0909094E-1,6.666667E-1,1.4E1,1.3E1,3.5E1,-4.8637535E-2,8.63187E-3,-3.5924163E-1,-2.6289123E-1,-3.6446893E-1,-9.3994915E-2,2.0126058E-1,3.0319095E-1,1.00766174E-1,-4.3109226E-1,2.8388524E-1,4.0704784E-1,-3.6552927E-1,-1.4828628E-1,2.3334424E-1,8.585489E-3,-1.1740979E-3,-2.0288792E-2,4.3719735E-2,1.2798618E-1,-1.826581E-1,-6.205242E-2,1.7369017E-1,-2.7168322E-2,8.152063E-2,6.4985335E-2,-7.8339204E-2,-5.208531E-1,2.983841E-1,-4.275802E-2,-3.204138E-3,2.3381999E-2,-1.4878224E-2,5.8335126E-3,-2.2811325E-2,2.9258484E-1,2.0486146E-2,2.1174513E-1,9.5665455E-3,4.8295964E-2,1.0300331E-2,1.7008873E-2,2.2423673E-2,6.739367E-2,1.0347601E-1,1.8779261E-1,8.0919266E-2,9.959872E-2,-7.7731763E-3,5.458046E-2,1.4525934E-1,6.2185057E-2,3.0282792E-1,1.3901646E-1],"split_indices":[0,0,0,1,2,2,2,2,2,2,2,1,2,0,0,2,1,2,2,2,2,0,2,0,2,0,0,2,1,2,2,2,2,2,2,2,2,2,2,2,0,0,2,0,0,2,2,2,0,0,0,1,2,2,0,1,0,0,2,2,2,0,0,0,0,0,0,0,0,0,0,0,0,0,0,0,0,0,0,0,0,0,0,0,0,0,0,0,0,0,0,0,0,0,0,0,0,0,0,0,0,0,0,0,0,0,0,0,0,0,0,0,0,0,0],"split_type":[0,0,0,0,0,0,0,0,0,0,0,0,0,0,0,0,0,0,0,0,0,0,0,0,0,0,0,0,0,0,0,0,0,0,0,0,0,0,0,0,0,0,0,0,0,0,0,0,0,0,0,0,0,0,0,0,0,0,0,0,0,0,0,0,0,0,0,0,0,0,0,0,0,0,0,0,0,0,0,0,0,0,0,0,0,0,0,0,0,0,0,0,0,0,0,0,0,0,0,0,0,0,0,0,0,0,0,0,0,0,0,0,0,0,0],"sum_hessian":[8.86225E4,6.610468E4,2.2517824E4,1.4428353E4,5.1676324E4,1.5930211E4,6.5876133E3,1.3379349E4,1.049004E3,4.8272832E4,3.403492E3,4.6983857E3,1.1231825E4,2.8329944E3,3.7546191E3,1.3268421E4,1.1092821E2,4.6982883E2,5.791752E2,3.9953527E4,8.319308E3,2.2006235E3,1.2028684E3,9.028005E1,4.608106E3,7.1176914E3,4.1141333E3,2.6353516E3,1.9764272E2,3.2357563E3,5.188627E2,1.3132529E4,1.3589139E2,1.156908E1,9.935912E1,3.498419E2,1.1998692E2,8.310195E1,4.9607324E2,3.715146E4,2.802064E3,1.9942446E3,6.325063E3,2.1640552E3,3.656847E1,6.982099E2,5.0465848E2,2.5632542E3,2.0448514E3,4.386483E3,2.731209E3,1.0468969E3,3.0672366E3,1.817558E3,8.1779364E2,6.317139E1,1.3447133E2,2.6879707E3,5.477856E2,4.820438E2,3.6818886E1,1.0662846E4,2.4696838E3,6.6899055E1,6.899234E1,5.1418138E0,6.427267E0,5.035005E1,4.9009075E1,3.2419156E2,2.5650322E1,7.609541E1,4.3891514E1,5.368012E1,2.942183E1,1.4559816E2,3.504751E2,3.1541328E4,5.610134E3,2.6287861E3,1.732779E2,8.9667065E2,1.097574E3,7.451383E2,5.5799243E3,7.624527E2,1.4016024E3,6.531075E2,4.510244E1,1.3124785E2,3.734106E2,7.6156836E2,1.8016859E3,1.1187722E3,9.260793E2,1.0432804E3,3.616475E0,3.0496992E3,1.7537529E1,5.0014328E2,1.3174147E3,5.8779535E2,2.2999828E2,1.6738308E1,4.6433083E1,1.1820089E2,1.6270433E1,1.8198448E3,8.681259E2,2.5264458E2,2.95141E2,3.1377942E2,1.6826437E2,2.109819E1,1.57206955E1],"tree_param":{"num_deleted":"0","num_feature":"3","num_nodes":"115","size_leaf_vector":"1"}},{"base_weights":[4.816312E-3,-2.5456943E-2,7.603189E-2,-1.9096676E-1,-1.901051E-2,6.2135193E-2,2.202844E-1,-3.765616E-1,-1.2624645E-1,-2.0634074E-2,8.16829E-1,1.8576227E-2,8.602796E-2,2.1042839E-1,6.046949E-1,-2.4776001E-1,-3.3462656E-1,-1.4751855E-1,-8.55113E-2,-1.7681377E-2,-6.950588E-1,6.540348E-1,3.220693E-1,-1.9250427E-1,2.1204043E-2,1.21905126E-1,4.059256E-2,2.197853E-1,-2.8127366E-1,8.300492E-1,3.2157058E-1,3.9770707E-2,-3.9529064E-1,-1.2067844E-1,-5.3084914E-2,-3.1516895E-2,-1.353903E-1,-2.4829252E-2,1.1786547E-1,-4.152979E-1,-8.759186E-1,4.7831783E-1,8.3018726E-1,-6.2077317E-2,-2.2545926E-2,7.646047E-2,1.8696923E-2,1.014036E-1,6.1518718E-2,-2.7992152E-2,9.732139E-2,2.0815678E-1,7.953075E-1,-7.367294E-1,1.9303426E-1,3.3429447E-1,2.7972248E-1,-5.657986E-1,5.8233434E-1,-2.2226041E-2,3.33534E-1,-1.0489504E-1,-2.5050554E-1,-5.3086184E-2,-1.7109308E-2,-3.270427E-2,3.5812656E-4,-6.7779444E-2,-3.0836778E-2,-6.04111E-3,-3.5868812E-1,5.1647043E-1,1.6980778E-2,-2.4585168E-1,-5.7914022E-2,-3.2660714E-1,-1.9992231E-1,6.6705175E-2,1.7376502E-1,2.021512E-1,2.948172E-1,-1.5713938E-2,7.7154962E-3,2.4604961E-2,3.993679E-2,-6.9885254E-3,-1.6106462E-1,7.1552955E-2,2.2542115E-2,6.401364E-2,-2.1422677E-1,3.6642138E-2,2.7817798E-1,-3.492788E-1,-4.6456918E-2,9.218058E-2,-5.7358544E-2,1.469373E-1,3.8970597E-2,4.388331E-2,2.4379332E-1],"categories":[],"categories_nodes":[],"categories_segments":[],"categories_sizes":[],"default_left":[0,0,0,0,0,0,0,0,0,0,0,0,0,0,0,0,0,0,0,0,0,0,0,0,0,0,0,0,0,0,0,0,0,0,0,0,0,0,0,0,0,0,0,0,0,0,0,0,0,0,0,0,0,0,0,0,0,0,0,0,0,0,0,0,0,0,0,0,0,0,0,0,0,0,0,0,0,0,0,0,0,0,0,0,0,0,0,0,0,0,0,0,0,0,0,0,0,0,0,0,0],"id":9,"left_children":[1,3,5,7,9,11,13,15,17,19,21,23,25,27,29,-1,31,33,35,37,39,41,-1,43,45,47,49,51,53,55,57,59,61,63,-1,65,67,69,71,73,75,77,79,-1,-1,-1,81,83,-1,85,87,89,91,93,95,97,-1,-1,99,-1,-1,-1,-1,-1,-1,-1,-1,-1,-1,-1,-1,-1,-1,-1,-1,-1,-1,-1,-1,-1,-1,-1,-1,-1,-1,-1,-1,-1,-1,-1,-1,-1,-1,-1,-1,-1,-1,-1,-1,-1,-1],"loss_changes":[1.8895338E2,6.561412E1,5.2394135E1,2.7645164E1,8.03481E1,2.481755E1,8.574921E0,1.0945457E1,1.469902E0,1.176423E2,4.0953293E0,4.690324E0,2.509842E1,1.0372055E1,3.3624363E0,0E0,1.2426376E1,8.654022E-1,1.5828557E0,5.699746E1,1.2665787E1,1.8563919E0,0E0,1.6041374E-1,4.8842626E0,1.4648773E1,2.6445488E1,1.4555702E1,9.2773E0,1.263464E0,1.6550432E1,9.49303E0,9.147156E0,2.104146E0,0E0,7.2078824E-1,8.80085E-1,3.0695932E2,2.8942538E2,9.096014E0,6.2064285E0,8.734484E-1,1.7245865E-1,0E0,0E0,0E0,4.1225863E0,4.2351E0,0E0,7.3434935E0,1.1631695E1,1.0542671E1,3.7249146E0,5.2378654E0,1.0027435E0,1.5475488E-1,0E0,0E0,2.3688478E0,0E0,0E0,0E0,0E0,0E0,0E0,0E0,0E0,0E0,0E0,0E0,0E0,0E0,0E0,0E0,0E0,0E0,0E0,0E0,0E0,0E0,0E0,0E0,0E0,0E0,0E0,0E0,0E0,0E0,0E0,0E0,0E0,0E0,0E0,0E0,0E0,0E0,0E0,0E0,0E0,0E0,0E0],"parents":[2147483647,0,0,1,1,2,2,3,3,4,4,5,5,6,6,7,7,8,8,9,9,10,10,11,11,12,12,13,13,14,14,16,16,17,17,18,18,19,19,20,20,21,21,23,23,24,24,25,25,26,26,27,27,28,28,29,29,30,30,31,31,32,32,33,33,35,35,36,36,37,37,38,38,39,39,40,40,41,41,42,42,46,46,47,47,49,49,50,50,51,51,52,52,53,53,54,54,55,55,58,58],"right_children":[2,4,6,8,10,12,14,16,18,20,22,24,26,28,30,-1,32,34,36,38,40,42,-1,44,46,48,50,52,54,56,58,60,62,64,-1,66,68,70,72,74,76,78,80,-1,-1,-1,82,84,-1,86,88,90,92,94,96,98,-1,-1,100,-1,-1,-1,-1,-1,-1,-1,-1,-1,-1,-1,-1,-1,-1,-1,-1,-1,-1,-1,-1,-1,-1,-1,-1,-1,-1,-1,-1,-1,-1,-1,-1,-1,-1,-1,-1,-1,-1,-1,-1,-1,-1],"split_conditions":[4.117647E-1,2E0,7.2727275E-1,4.761905E-2,2.13E2,1.1E1,2.7E1,2.3E1,9.259259E-2,1.4E2,2.4793388E-2,3E0,1.2E1,2.2E1,3.4E1,-2.4776001E-1,2.6E1,8.82353E-2,1.2903225E-1,6.6E1,1.6E2,2.34E2,3.220693E-1,5.3846157E-1,6E0,5.555556E-1,1.4E1,1.9E1,2E1,2.3E1,3.7E1,2.5E1,1.22E2,6E-2,-5.3084914E-2,1.0344828E-1,1.5E-1,5.8E1,6.9E1,3.0612245E-2,1.96E2,3E0,4E0,-6.2077317E-2,-2.2545926E-2,7.646047E-2,4E0,4.6153846E-1,6.1518718E-2,9E0,4.1666666E-1,1.8E1,7.5E-1,2.3E1,2.6E1,2.2E1,2.7972248E-1,-5.657986E-1,4.5E1,-2.2226041E-2,3.33534E-1,-1.0489504E-1,-2.5050554E-1,-5.3086184E-2,-1.7109308E-2,-3.270427E-2,3.5812656E-4,-6.7779444E-2,-3.0836778E-2,-6.04111E-3,-3.5868812E-1,5.1647043E-1,1.6980778E-2,-2.4585168E-1,-5.7914022E-2,-3.2660714E-1,-1.9992231E-1,6.6705175E-2,1.7376502E-1,2.021512E-1,2.948172E-1,-1.5713938E-2,7.7154962E-3,2.4604961E-2,3.993679E-2,-6.9885254E-3,-1.6106462E-1,7.1552955E-2,2.2542115E-2,6.401364E-2,-2.1422677E-1,3.6642138E-2,2.7817798E-1,-3.492788E-1,-4.6456918E-2,9.218058E-2,-5.7358544E-2,1.469373E-1,3.8970597E-2,4.388331E-2,2.4379332E-1],"split_indices":[0,1,0,0,2,2,2,2,0,2,0,1,2,2,2,0,2,0,0,2,2,2,0,0,2,0,2,2,1,1,2,2,2,0,0,0,0,2,2,0,2,1,1,0,0,0,1,0,0,1,0,2,0,2,2,1,0,0,1,0,0,0,0,0,0,0,0,0,0,0,0,0,0,0,0,0,0,0,0,0,0,0,0,0,0,0,0,0,0,0,0,0,0,0,0,0,0,0,0,0,0],"split_type":[0,0,0,0,0,0,0,0,0,0,0,0,0,0,0,0,0,0,0,0,0,0,0,0,0,0,0,0,0,0,0,0,0,0,0,0,0,0,0,0,0,0,0,0,0,0,0,0,0,0,0,0,0,0,0,0,0,0,0,0,0,0,0,0,0,0,0,0,0,0,0,0,0,0,0,0,0,0,0,0,0,0,0,0,0,0,0,0,0,0,0,0,0,0,0,0,0,0,0,0,0],"sum_hessian":[8.764176E4,6.149942E4,2.6142338E4,2.3044666E3,5.9194953E4,2.3846494E4,2.295844E3,5.945862E2,1.7098804E3,5.9081168E4,1.1378605E2,8.447539E3,1.5398955E4,2.2399604E3,5.588353E1,4.9161453E1,5.454247E2,1.1215698E3,5.883105E2,5.8824652E4,2.5651385E2,7.180344E1,4.1982613E1,1.0298478E2,8.344555E3,8.603605E3,6.795349E3,2.1986736E3,4.1286922E1,3.0040714E1,2.5842815E1,7.610098E1,4.6932373E2,5.8927435E2,5.322955E2,2.832846E2,3.0502588E2,5.587878E4,2.9458735E3,1.0201279E2,1.5450107E2,3.7806133E1,3.3997303E1,9.10351E1,1.194968E1,8.75146E1,8.25704E3,6.9037744E3,1.699831E3,3.0764512E3,3.7188982E3,2.1564636E3,4.221001E1,2.0779789E1,2.0507135E1,5.871109E0,2.4169603E1,2.0717003E0,2.3771114E1,6.963589E1,6.4650993E0,4.2681827E2,4.2505463E1,3.1180435E2,2.7747003E2,8.338887E1,1.9989572E2,7.918351E1,2.2584236E2,5.5656742E4,2.2203899E2,1.07397064E2,2.8384766E3,3.523808E1,6.677471E1,7.457204E1,7.992903E1,1.1594951E1,2.6211182E1,1.9464134E1,1.4533169E1,7.4176685E2,7.515273E3,4.287056E3,2.616718E3,3.0493513E3,2.709982E1,5.035984E2,3.2152998E3,2.1450862E3,1.1377434E1,7.233468E0,3.4976543E1,1.1401564E1,9.378225E0,1.5961853E1,4.5452814E0,2.5413733E0,3.329736E0,8.780921E0,1.4990193E1],"tree_param":{"num_deleted":"0","num_feature":"3","num_nodes":"101","size_leaf_vector":"1"}},{"base_weights":[3.526564E-3,-5.196916E-2,2.5903981E-2,-1.8339213E-2,-1.8877795E-1,1.5673812E-2,1.21858165E-1,-3.4997135E-2,5.7176773E-2,-2.522003E-1,-1.1486566E-1,1.471529E-2,8.805068E-1,6.5723814E-2,1.6632566E-1,-6.987192E-2,-2.9205168E-3,2.1532565E-2,1.9480383E-1,6.97631E-1,-1.566119E-1,1.6006928E-2,-6.759346E-1,6.729232E-1,3.0619416E-1,3.7933E-1,5.956574E-2,1.4822574E-1,2.8500646E-1,-5.9433658E-2,-1.5644486E-1,1.1838208E-2,-4.6722203E-2,-1.1417896E-2,1.1012015E-1,5.1835816E-2,7.012621E-2,7.643941E-2,7.584317E-1,-1.3195723E-1,-6.539214E-1,1.30916685E-2,3.3627465E-1,-2.7674925E-1,-4.557365E-1,4.4564378E-1,2.762317E-1,-1.8442104E-2,1.6367625E-1,-6.719714E-2,7.082026E-2,1.650603E-1,1.6503388E-2,2.2791283E-1,4.9739432E-1,-3.229631E-2,-1.6109921E-2,-5.110992E-3,-9.219476E-2,-7.7340715E-2,5.7211015E-3,3.17448E-2,-7.579429E-3,-4.759467E-2,4.2037368E-2,2.8994542E-1,1.8801714E-1,-4.263891E-2,4.1606662E-1,-2.7722773E-1,7.1362E-2,4.8678806E-3,-3.1183228E-1,6.358756E-1,-1.2443691E-2,-1.6356526E-1,1.7166408E-2,1.6681689E-1,8.2748726E-2,-1.2779457E-2,-4.4413425E-2,3.0969882E-2,3.5150468E-3,4.3568447E-2,6.327293E-2,-1.2472265E-1,3.0362196E-2,1.0562497E-1,-4.401174E-2,2.5744307E-1,1.253657E-1],"categories":[],"categories_nodes":[],"categories_segments":[],"categories_sizes":[],"default_left":[0,0,0,0,0,0,0,0,0,0,0,0,0,0,0,0,0,0,0,0,0,0,0,0,0,0,0,0,0,0,0,0,0,0,0,0,0,0,0,0,0,0,0,0,0,0,0,0,0,0,0,0,0,0,0,0,0,0,0,0,0,0,0,0,0,0,0,0,0,0,0,0,0,0,0,0,0,0,0,0,0,0,0,0,0,0,0,0,0,0,0],"id":10,"left_children":[1,3,5,7,9,11,13,15,17,-1,19,21,23,25,27,29,31,33,35,37,39,41,43,45,-1,47,49,51,53,55,57,-1,59,61,63,-1,-1,-1,65,67,69,71,73,-1,75,77,-1,-1,-1,79,81,83,85,87,89,-1,-1,-1,-1,-1,-1,-1,-1,-1,-1,-1,-1,-1,-1,-1,-1,-1,-1,-1,-1,-1,-1,-1,-1,-1,-1,-1,-1,-1,-1,-1,-1,-1,-1,-1,-1],"loss_changes":[1.0817155E2,1.15157814E2,6.0932327E1,2.5277262E1,2.378642E2,4.6487946E1,1.4916931E1,1.8415287E1,1.7810848E1,0E0,1.5060458E2,4.9997334E1,1.1193314E0,5.085556E0,7.1244736E0,7.117916E0,1.5922172E1,8.424416E0,6.001816E-1,5.649742E0,5.1666542E1,5.2216026E1,5.2597733E0,1.1645346E0,0E0,3.7530384E0,3.7073565E0,6.4211044E0,5.22694E0,1.9407234E0,1.7830713E1,0E0,5.8579777E1,3.4184783E0,6.331897E0,0E0,0E0,0E0,4.609169E0,6.2351044E1,4.8195282E1,1.8288593E2,3.3993185E2,0E0,2.6586046E0,1.5640235E-1,0E0,0E0,0E0,4.1559982E-1,4.566121E0,2.3048859E0,1.210194E1,1.6283194E1,2.2933903E0,0E0,0E0,0E0,0E0,0E0,0E0,0E0,0E0,0E0,0E0,0E0,0E0,0E0,0E0,0E0,0E0,0E0,0E0,0E0,0E0,0E0,0E0,0E0,0E0,0E0,0E0,0E0,0E0,0E0,0E0,0E0,0E0,0E0,0E0,0E0,0E0],"parents":[2147483647,0,0,1,1,2,2,3,3,4,4,5,5,6,6,7,7,8,8,10,10,11,11,12,12,13,13,14,14,15,15,16,16,17,17,18,18,19,19,20,20,21,21,22,22,23,23,25,25,26,26,27,27,28,28,29,29,30,30,32,32,33,33,34,34,38,38,39,39,40,40,41,41,42,42,44,44,45,45,49,49,50,50,51,51,52,52,53,53,54,54],"right_children":[2,4,6,8,10,12,14,16,18,-1,20,22,24,26,28,30,32,34,36,38,40,42,44,46,-1,48,50,52,54,56,58,-1,60,62,64,-1,-1,-1,66,68,70,72,74,-1,76,78,-1,-1,-1,80,82,84,86,88,90,-1,-1,-1,-1,-1,-1,-1,-1,-1,-1,-1,-1,-1,-1,-1,-1,-1,-1,-1,-1,-1,-1,-1,-1,-1,-1,-1,-1,-1,-1,-1,-1,-1,-1,-1,-1],"split_conditions":[4E0,2.2E1,6.25E-1,1.6E1,2.3E1,2.13E2,1.1E1,2.580645E-1,1.7391305E-1,-2.522003E-1,2.4E1,1.6E2,2.4793388E-2,6E0,8.181818E-1,2.3529412E-1,2.777778E-1,2E1,1.7857143E-1,4.761905E-2,1.3E2,1.25E2,1.96E2,2.34E2,3.0619416E-1,5E0,7E0,1.3E1,1.7E1,9.259259E-2,3E0,1.1838208E-2,3.0769232E-1,1.7E1,5.102041E-2,5.1835816E-2,7.012621E-2,7.643941E-2,8.82353E-2,1.25E2,2.13E2,1.22E2,1.3E2,-2.7674925E-1,3.846154E-2,5E0,2.762317E-1,-1.8442104E-2,1.6367625E-1,7E-1,1E1,7E-1,1.4E1,1.3E1,1.8E1,-3.229631E-2,-1.6109921E-2,-5.110992E-3,-9.219476E-2,-7.7340715E-2,5.7211015E-3,3.17448E-2,-7.579429E-3,-4.759467E-2,4.2037368E-2,2.8994542E-1,1.8801714E-1,-4.263891E-2,4.1606662E-1,-2.7722773E-1,7.1362E-2,4.8678806E-3,-3.1183228E-1,6.358756E-1,-1.2443691E-2,-1.6356526E-1,1.7166408E-2,1.6681689E-1,8.2748726E-2,-1.2779457E-2,-4.4413425E-2,3.0969882E-2,3.5150468E-3,4.3568447E-2,6.327293E-2,-1.2472265E-1,3.0362196E-2,1.0562497E-1,-4.401174E-2,2.5744307E-1,1.253657E-1],"split_indices":[1,2,0,2,2,2,2,0,0,0,2,2,0,2,0,0,0,2,0,0,2,2,2,2,0,2,2,2,2,0,1,0,0,2,0,0,0,0,0,2,2,2,2,0,0,1,0,0,0,0,2,0,2,2,2,0,0,0,0,0,0,0,0,0,0,0,0,0,0,0,0,0,0,0,0,0,0,0,0,0,0,0,0,0,0,0,0,0,0,0,0],"split_type":[0,0,0,0,0,0,0,0,0,0,0,0,0,0,0,0,0,0,0,0,0,0,0,0,0,0,0,0,0,0,0,0,0,0,0,0,0,0,0,0,0,0,0,0,0,0,0,0,0,0,0,0,0,0,0,0,0,0,0,0,0,0,0,0,0,0,0,0,0,0,0,0,0,0,0,0,0,0,0,0,0,0,0,0,0,0,0,0,0,0,0],"sum_hessian":[8.7103016E4,2.502931E4,6.2073707E4,2.0091588E4,4.937722E3,5.609436E4,5.9793447E3,1.646102E4,3.6305676E3,5.0177826E2,4.435944E3,5.6033273E4,6.108647E1,2.6440532E3,3.3352915E3,7.8859604E3,8.57506E3,2.8846301E3,7.459375E2,2.1601364E2,4.21993E3,5.5929652E4,1.03621635E2,2.6957428E1,3.4129044E1,4.9752563E1,2.5943005E3,2.8958904E3,4.3940103E2,7.038948E3,8.470122E2,4.3582476E3,4.2168115E3,2.1032063E3,7.814238E2,4.8002493E2,2.659126E2,2.6704676E1,1.8930898E2,4.02181E3,1.9812032E2,5.542617E4,5.0347995E2,4.7379692E1,5.6241943E1,1.5521834E1,1.1435594E1,1.3798479E1,3.5954082E1,2.1114478E2,2.3831558E3,2.567502E3,3.2838843E2,3.479413E2,9.145973E1,7.461618E2,6.292786E3,4.4080826E2,4.0620395E2,1.0013365E3,3.215475E3,2.21473E2,1.8817333E3,7.804415E1,7.033797E2,7.0928444E1,1.1838052E2,3.9959536E3,2.585641E1,1.5202716E2,4.609315E1,5.526258E4,1.635956E2,8.72022E1,4.1627774E2,4.7834705E1,8.407237E0,8.027751E0,7.4940825E0,1.6305887E2,4.8085915E1,1.5386205E3,8.445354E2,1.7951703E3,7.723317E2,5.316719E1,2.7522122E2,2.6136868E2,8.6572624E1,1.4748641E1,7.671109E1],"tree_param":{"num_deleted":"0","num_feature":"3","num_nodes":"91","size_leaf_vector":"1"}},{"base_weights":[2.387551E-3,-1.0721959E-2,6.325038E-2,8.0285035E-3,-7.195524E-2,5.079574E-2,2.2935323E-1,3.8325724E-3,9.152945E-2,-4.585764E-1,-2.7593525E-2,5.8885764E-2,-2.928355E-1,1.5308116E-1,5.623259E-1,-1.53958835E-2,2.4548523E-2,-5.441359E-3,1.0668253E-1,-5.3822374E-1,-6.7333326E-2,4.1825852E-1,-5.056058E-2,5.28496E-2,1.340303E0,-7.34142E-1,-3.6749035E-2,3.1891894E-1,4.500144E-2,3.0069542E-1,4.512832E-1,-3.5075895E-2,2.2974392E-2,3.5788365E-2,-3.9463717E-2,-3.4674168E-2,2.5010303E-2,1.5196323E-1,8.973782E-2,-2.0560901E-1,-1.3801858E-1,5.1329166E-1,1.3371469E-2,-2.8428143E-1,-2.2499215E-2,1.0550598E-1,3.0361744E-2,1.0238278E0,4.8828134E-1,-1.8727806E-1,-5.7202554E-1,1.1019375E-1,-8.899971E-1,5.8986496E-2,9.2641294E-1,-7.2526735E-1,1.8522148E-1,8.71877E-2,7.022454E-1,-5.937979E-3,-2.476381E-2,3.0147245E-2,-1.3024402E-2,7.0844835E-4,1.9366886E-2,-3.0672565E-2,-9.570626E-4,3.725832E-2,-7.0505934E-3,4.0775225E-2,5.0068542E-2,5.8487677E-3,3.9331056E-2,5.1444158E-2,1.5904073E-1,-9.256815E-2,-6.1016794E-2,3.5161686E-1,-1.3721435E-2,2.7220586E-2,7.928497E-2,1.0482301E-2,-8.015253E-2,3.1434757E-1,1.0987554E-1,-9.395705E-2,8.9268684E-2,-2.3010413E-1,-6.474817E-1,5.8261655E-2,-3.3686414E-1,2.2776444E-1,3.652934E-1,-2.7699155E-1,-1.0727824E-1,1.8523574E-1,4.1565504E-3,1.15975924E-1,-4.2395613E-1,2.3702665E-1,-7.819495E-2],"categories":[],"categories_nodes":[],"categories_segments":[],"categories_sizes":[],"default_left":[0,0,0,0,0,0,0,0,0,0,0,0,0,0,0,0,0,0,0,0,0,0,0,0,0,0,0,0,0,0,0,0,0,0,0,0,0,0,0,0,0,0,0,0,0,0,0,0,0,0,0,0,0,0,0,0,0,0,0,0,0,0,0,0,0,0,0,0,0,0,0,0,0,0,0,0,0,0,0,0,0,0,0,0,0,0,0,0,0,0,0,0,0,0,0,0,0,0,0,0,0],"id":11,"left_children":[1,3,5,7,9,11,13,15,17,19,21,23,25,27,29,31,33,35,37,39,-1,41,43,45,47,49,51,53,55,-1,57,59,61,63,65,-1,67,69,71,-1,-1,73,-1,75,77,79,81,83,-1,-1,-1,85,87,89,91,93,95,97,99,-1,-1,-1,-1,-1,-1,-1,-1,-1,-1,-1,-1,-1,-1,-1,-1,-1,-1,-1,-1,-1,-1,-1,-1,-1,-1,-1,-1,-1,-1,-1,-1,-1,-1,-1,-1,-1,-1,-1,-1,-1,-1],"loss_changes":[6.912893E1,8.184791E1,3.1753178E1,1.9120962E1,2.866109E2,3.972896E1,2.7106472E1,2.0700039E1,3.83745E0,3.1955322E1,1.5354308E2,1.0788544E2,3.712446E1,1.5624815E1,9.279144E0,2.0352146E1,1.7999743E1,1.189643E0,1.7191067E0,1.4437286E1,0E0,2.606392E1,9.351118E1,1.644759E1,4.2796936E0,1.435672E1,2.6311703E1,5.428358E1,5.7316162E1,0E0,1.4637238E1,1.2922207E1,4.7027622E1,2.046281E1,8.509177E0,0E0,1.3406594E0,1.2431526E-1,4.7794933E0,0E0,0E0,3.2803955E0,0E0,2.9389496E0,3.5348346E2,9.725628E0,1.3275382E1,1.4982224E-1,0E0,0E0,0E0,1.431282E1,3.1527882E0,3.890275E1,4.093361E0,5.6214256E0,3.322573E1,3.0543484E1,8.24839E0,0E0,0E0,0E0,0E0,0E0,0E0,0E0,0E0,0E0,0E0,0E0,0E0,0E0,0E0,0E0,0E0,0E0,0E0,0E0,0E0,0E0,0E0,0E0,0E0,0E0,0E0,0E0,0E0,0E0,0E0,0E0,0E0,0E0,0E0,0E0,0E0,0E0,0E0,0E0,0E0,0E0,0E0],"parents":[2147483647,0,0,1,1,2,2,3,3,4,4,5,5,6,6,7,7,8,8,9,9,10,10,11,11,12,12,13,13,14,14,15,15,16,16,17,17,18,18,19,19,21,21,22,22,23,23,24,24,25,25,26,26,27,27,28,28,30,30,31,31,32,32,33,33,34,34,36,36,37,37,38,38,41,41,43,43,44,44,45,45,46,46,47,47,51,51,52,52,53,53,54,54,55,55,56,56,57,57,58,58],"right_children":[2,4,6,8,10,12,14,16,18,20,22,24,26,28,30,32,34,36,38,40,-1,42,44,46,48,50,52,54,56,-1,58,60,62,64,66,-1,68,70,72,-1,-1,74,-1,76,78,80,82,84,-1,-1,-1,86,88,90,92,94,96,98,100,-1,-1,-1,-1,-1,-1,-1,-1,-1,-1,-1,-1,-1,-1,-1,-1,-1,-1,-1,-1,-1,-1,-1,-1,-1,-1,-1,-1,-1,-1,-1,-1,-1,-1,-1,-1,-1,-1,-1,-1,-1,-1],"split_conditions":[7E0,2.2E1,4.7E1,2E1,2.3E1,4.2E1,1.3333334E-1,3.6363637E-1,1.0344828E-1,2.2857143E-1,2.4E1,3.9E1,4.3E1,8.6E1,5.4E1,1.6E1,1.2E1,5.102041E-2,1.9354838E-1,1.4285715E-1,-6.7333326E-2,2.2222222E-1,2.5E1,1.3E1,4.1E1,3.5E-1,4.6E1,7.9E1,9.8E1,3.0069542E-1,5.7E1,2.9411766E-1,1.8E1,1.1E1,6E0,-3.4674168E-2,9.677419E-2,2.1E1,2.4242425E-1,-2.0560901E-1,-1.3801858E-1,4.761905E-2,1.3371469E-2,2.1052632E-1,2.6E1,8.125E-1,3.5E1,2.857143E-1,4.8828134E-1,-1.8727806E-1,-5.7202554E-1,4.4E1,5.3846157E-1,7.8E1,8.2E1,9.6E1,1.05E2,5.6E1,1.6E2,-5.937979E-3,-2.476381E-2,3.0147245E-2,-1.3024402E-2,7.0844835E-4,1.9366886E-2,-3.0672565E-2,-9.570626E-4,3.725832E-2,-7.0505934E-3,4.0775225E-2,5.0068542E-2,5.8487677E-3,3.9331056E-2,5.1444158E-2,1.5904073E-1,-9.256815E-2,-6.1016794E-2,3.5161686E-1,-1.3721435E-2,2.7220586E-2,7.928497E-2,1.0482301E-2,-8.015253E-2,3.1434757E-1,1.0987554E-1,-9.395705E-2,8.9268684E-2,-2.3010413E-1,-6.474817E-1,5.8261655E-2,-3.3686414E-1,2.2776444E-1,3.652934E-1,-2.7699155E-1,-1.0727824E-1,1.8523574E-1,4.1565504E-3,1.15975924E-1,-4.2395613E-1,2.3702665E-1,-7.819495E-2],"split_indices":[1,2,2,2,2,2,0,0,0,0,2,2,2,2,2,2,2,0,0,0,0,0,2,2,2,0,2,2,2,0,2,0,2,2,1,0,0,2,0,0,0,0,0,0,2,0,2,0,0,0,0,2,0,2,2,2,2,2,2,0,0,0,0,0,0,0,0,0,0,0,0,0,0,0,0,0,0,0,0,0,0,0,0,0,0,0,0,0,0,0,0,0,0,0,0,0,0,0,0,0,0],"split_type":[0,0,0,0,0,0,0,0,0,0,0,0,0,0,0,0,0,0,0,0,0,0,0,0,0,0,0,0,0,0,0,0,0,0,0,0,0,0,0,0,0,0,0,0,0,0,0,0,0,0,0,0,0,0,0,0,0,0,0,0,0,0,0,0,0,0,0,0,0,0,0,0,0,0,0,0,0,0,0,0,0,0,0,0,0,0,0,0,0,0,0,0,0,0,0,0,0,0,0,0,0],"sum_hessian":[8.663871E4,7.1285125E4,1.535359E4,5.4574527E4,1.6710594E4,1.4283869E4,1.06972E3,5.196436E4,2.6101685E3,1.7190853E3,1.4991509E4,1.3956133E4,3.2773703E2,8.71541E2,1.98179E2,2.6949867E4,2.5014492E4,3.528402E2,2.2573284E3,1.281757E3,4.3732837E2,7.335783E2,1.4257931E4,1.3891736E4,6.439632E1,1.1966132E2,2.080757E2,3.431145E2,5.284265E2,3.8318905E1,1.5986009E2,1.781347E4,9.136396E3,2.127864E4,3.7358528E3,7.5818886E1,2.7702133E2,6.125274E2,1.6448009E3,4.419734E2,8.3978357E2,5.8454724E2,1.4903107E2,1.5273794E3,1.2730551E4,4.156171E3,9.735565E3,3.281393E1,3.158239E1,1.1081001E2,8.851311E0,1.7824922E2,2.9826477E1,2.4106538E2,1.0204913E2,8.073788E1,4.4768863E2,6.577756E1,9.4082535E1,1.3476299E4,4.3371714E3,4.2147295E3,4.921667E3,9.84284E3,1.1435801E4,1.367433E3,2.36842E3,9.0477875E1,1.8654346E2,3.001207E2,3.124067E2,6.1016614E2,1.0346348E3,2.7978178E1,5.565691E2,1.1726151E3,3.547643E2,2.4199095E2,1.248856E4,3.8038762E3,3.5229477E2,9.588869E3,1.4669547E2,3.1086018E1,1.7279123E0,5.4477837E1,1.2377139E2,2.8652811E1,1.173665E0,2.1706621E2,2.3999165E1,6.712126E1,3.4927876E1,5.149188E1,2.9245998E1,1.2636349E2,3.2132513E2,5.545408E1,1.0323482E1,8.638155E1,7.7009826E0],"tree_param":{"num_deleted":"0","num_feature":"3","num_nodes":"101","size_leaf_vector":"1"}},{"base_weights":[1.7197984E-3,-7.614069E-3,4.546963E-2,5.6757107E-3,-5.12928E-2,3.6733907E-2,2.1278961E-1,-3.7873615E-4,5.7259567E-2,-3.482763E-1,-1.9283997E-2,3.9523598E-2,-6.682337E-1,6.0783386E-1,7.4072674E-2,6.2029124E-3,-1.7121837E-1,4.1687362E-2,1.13265894E-1,-1.6618401E-1,-2.8166267E-1,2.9409564E-1,-3.5416994E-2,3.6721196E-2,4.442182E-1,-7.428264E-1,5.695695E-1,4.999882E-1,3.424782E-1,-7.6935804E-1,1.6004789E-1,-7.1693904E-4,7.10248E-2,-9.036162E-2,-2.0484968E-1,-8.011391E-2,4.6317134E-2,5.9591446E-2,9.782586E-2,-1.037082E-1,-4.8651133E-2,3.605633E-1,9.463014E-3,-2.0125395E-1,-1.5644629E-2,3.94192E-2,-3.380412E-1,-1.24425285E-1,-3.164959E-1,2.852319E-2,2.1852626E-1,3.0306134E-1,9.3894875E-1,-2.1502914E-1,-4.300381E-1,6.938141E-2,5.199142E-1,4.1420157E-3,-1.5457093E-2,4.0900994E-2,1.0883467E-2,-3.5508733E-2,-2.0104183E-2,-6.4852916E-2,-5.4040868E-2,-2.4728518E-2,-1.9377178E-2,1.7030733E-2,2.3782351E-4,1.5142021E-2,3.6682058E-2,3.5266835E-2,1.1189073E-1,-6.590286E-2,-4.2362776E-2,2.5866488E-1,-9.616912E-3,1.0853383E-2,1.0348559E-1,-1.636508E-2,1.8760265E-1,3.698233E-1,2.0313399E-1,-1.2347734E-1,7.435996E-2,-4.906565E-3,2.558933E-1],"categories":[],"categories_nodes":[],"categories_segments":[],"categories_sizes":[],"default_left":[0,0,0,0,0,0,0,0,0,0,0,0,0,0,0,0,0,0,0,0,0,0,0,0,0,0,0,0,0,0,0,0,0,0,0,0,0,0,0,0,0,0,0,0,0,0,0,0,0,0,0,0,0,0,0,0,0,0,0,0,0,0,0,0,0,0,0,0,0,0,0,0,0,0,0,0,0,0,0,0,0,0,0,0,0,0,0],"id":12,"left_children":[1,3,5,7,9,11,13,15,17,19,21,23,25,27,29,31,33,35,37,-1,39,41,43,45,-1,47,49,51,-1,53,55,57,59,61,63,65,67,-1,69,-1,-1,71,-1,73,75,77,-1,-1,-1,-1,-1,79,81,-1,-1,83,85,-1,-1,-1,-1,-1,-1,-1,-1,-1,-1,-1,-1,-1,-1,-1,-1,-1,-1,-1,-1,-1,-1,-1,-1,-1,-1,-1,-1,-1,-1],"loss_changes":[3.51836E1,4.122013E1,2.2135834E1,1.7003942E1,1.5746616E2,2.8344364E1,4.1136845E1,5.4790344E1,4.9831104E0,2.1924332E1,7.5618324E1,5.787597E1,5.6685467E0,1.0663704E1,4.053794E1,2.104668E1,4.897007E0,2.5280266E0,1.6198483E0,0E0,9.273888E0,1.2768143E1,4.6635635E1,4.4986824E1,0E0,5.094368E0,2.1678686E-1,1.3904259E1,0E0,7.793369E-1,1.6493437E1,3.128462E1,1.0265604E1,3.4037971E-1,3.1819534E-1,5.785227E-4,2.0522356E0,0E0,1.2153015E0,0E0,0E0,1.7175293E0,0E0,1.6449165E0,1.8313521E2,1.4133484E1,0E0,0E0,0E0,0E0,0E0,1.32632065E1,3.038971E0,0E0,0E0,3.4939426E1,1.8196127E1,0E0,0E0,0E0,0E0,0E0,0E0,0E0,0E0,0E0,0E0,0E0,0E0,0E0,0E0,0E0,0E0,0E0,0E0,0E0,0E0,0E0,0E0,0E0,0E0,0E0,0E0,0E0,0E0,0E0,0E0],"parents":[2147483647,0,0,1,1,2,2,3,3,4,4,5,5,6,6,7,7,8,8,9,9,10,10,11,11,12,12,13,13,14,14,15,15,16,16,17,17,18,18,20,20,21,21,22,22,23,23,25,25,26,26,27,27,29,29,30,30,31,31,32,32,33,33,34,34,35,35,36,36,38,38,41,41,43,43,44,44,45,45,51,51,52,52,55,55,56,56],"right_children":[2,4,6,8,10,12,14,16,18,20,22,24,26,28,30,32,34,36,38,-1,40,42,44,46,-1,48,50,52,-1,54,56,58,60,62,64,66,68,-1,70,-1,-1,72,-1,74,76,78,-1,-1,-1,-1,-1,80,82,-1,-1,84,86,-1,-1,-1,-1,-1,-1,-1,-1,-1,-1,-1,-1,-1,-1,-1,-1,-1,-1,-1,-1,-1,-1,-1,-1,-1,-1,-1,-1,-1,-1],"split_conditions":[7E0,2.2E1,6.6E1,1.9E1,2.3E1,5.8E1,8.6E1,1.8E1,2.6666668E-1,1.4285715E-1,2.4E1,5.7E1,2.9411766E-1,8.2E1,9.6E1,1.6E1,1.7391305E-1,5.5555556E-2,2.9411766E-1,-1.6618401E-1,2.2857143E-1,2.2222222E-1,2.5E1,5.6E1,4.442182E-1,6.1E1,6.1E1,1.0344828E-1,3.424782E-1,2.580645E-1,7.692308E-2,1.2E1,1.7E1,1.1764706E-1,2.857143E-1,2.1E1,2.580645E-1,5.9591446E-2,3.0769232E-1,-1.037082E-1,-4.8651133E-2,4.761905E-2,9.463014E-3,2.1052632E-1,2.6E1,4.7E1,-3.380412E-1,-1.24425285E-1,-3.164959E-1,2.852319E-2,2.1852626E-1,7.9E1,6.9E1,-2.1502914E-1,-4.300381E-1,1.08E2,9.9E1,4.1420157E-3,-1.5457093E-2,4.0900994E-2,1.0883467E-2,-3.5508733E-2,-2.0104183E-2,-6.4852916E-2,-5.4040868E-2,-2.4728518E-2,-1.9377178E-2,1.7030733E-2,2.3782351E-4,1.5142021E-2,3.6682058E-2,3.5266835E-2,1.1189073E-1,-6.590286E-2,-4.2362776E-2,2.5866488E-1,-9.616912E-3,1.0853383E-2,1.0348559E-1,-1.636508E-2,1.8760265E-1,3.698233E-1,2.0313399E-1,-1.2347734E-1,7.435996E-2,-4.906565E-3,2.558933E-1],"split_indices":[1,2,2,2,2,2,2,2,0,0,2,2,0,2,2,2,0,0,0,0,0,0,2,2,0,2,2,0,0,0,0,2,2,0,0,2,0,0,0,0,0,0,0,0,2,2,0,0,0,0,0,2,2,0,0,2,2,0,0,0,0,0,0,0,0,0,0,0,0,0,0,0,0,0,0,0,0,0,0,0,0,0,0,0,0,0,0],"split_type":[0,0,0,0,0,0,0,0,0,0,0,0,0,0,0,0,0,0,0,0,0,0,0,0,0,0,0,0,0,0,0,0,0,0,0,0,0,0,0,0,0,0,0,0,0,0,0,0,0,0,0,0,0,0,0,0,0,0,0,0,0,0,0,0,0,0,0,0,0,0,0,0,0,0,0,0,0,0,0,0,0,0,0,0,0,0,0],"sum_hessian":[8.615748E4,7.100883E4,1.5148648E4,5.4444348E4,1.6564479E4,1.43981455E4,7.505031E2,4.872629E4,5.718059E3,1.6106543E3,1.4953824E4,1.4342334E4,5.581139E1,1.9416618E2,5.563369E2,4.691966E4,1.8066304E3,4.4754365E3,1.2426224E3,3.9225284E2,1.2184015E3,7.312984E2,1.4222526E4,1.4315523E4,2.6810892E1,5.301639E1,2.794998E0,1.6314053E2,3.102565E1,5.072897E1,5.0560794E2,4.2394918E4,4.5247437E3,5.317876E2,1.2748428E3,1.6328867E2,4.312148E3,1.8849826E2,1.0541243E3,7.920691E2,4.2633234E2,5.832657E2,1.4803271E2,1.5141025E3,1.2708424E4,1.4283369E4,3.215446E1,2.698461E1,2.6031784E1,1.1019578E0,1.6930403E0,1.1378473E2,4.93558E1,4.8932964E1,1.7960048E0,4.0481073E2,1.0079721E2,3.2970625E4,9.42429E3,1.5702605E3,2.9544832E3,2.3994841E2,2.918392E2,8.688723E2,4.059705E2,1.38351E2,2.4937672E1,3.5067773E3,8.0537024E2,3.5996872E2,6.941555E2,2.8838894E1,5.544268E2,1.1565918E3,3.5751077E2,2.3227997E2,1.2476144E4,1.413454E4,1.4882854E2,5.432972E1,5.9455013E1,2.1511019E1,2.784478E1,1.0921033E2,2.956004E2,3.8982273E1,6.1814934E1],"tree_param":{"num_deleted":"0","num_feature":"3","num_nodes":"87","size_leaf_vector":"1"}},{"base_weights":[1.2527385E-3,-2.8276255E-2,1.3213249E-2,-2.3216566E-2,-4.0222913E-1,1.2555794E-2,8.0499184E-1,-2.7018446E-2,7.133693E-1,-6.131762E-1,-2.3673451E-1,1.3502943E-2,-6.0736215E-1,5.9891707E-1,2.88399E-1,-2.3766484E-2,-4.9108675E-1,1.2359948E0,2.149499E-1,5.567433E-1,-4.195201E-1,1.0550847E-2,2.3502095E-1,-9.005936E-1,-3.6817196E-1,3.8140392E-1,2.5989974E-1,-2.7474953E-2,5.7391423E-1,-1.1136931E0,2.6706634E-2,2.7415222E-1,3.9283368E-1,-9.721808E-2,3.357485E-1,-4.132604E-1,4.391172E-1,-5.6023216E-1,1.9319513E-1,1.4450235E-2,-2.9011312E0,1.2873993E0,-1.9086102E-2,-2.4147227E-1,-6.982188E-1,-1.3191359E-1,-1.7312264E-2,1.4445104E-1,7.0276156E-2,-7.546568E-3,-2.0469956E-1,6.4804065E-1,4.1654434E-2,-2.7944708E-1,-3.8287842E-1,-1.5101803E-2,3.686957E-2,7.343129E-2,1.18788905E-1,-2.3308903E-1,8.4868066E-2,-5.547707E-2,-2.2699493E-1,-1.5448394E-1,1.1680688E-1,3.0080613E-3,3.248247E-1,-8.7925863E-1,-3.0626604E-1,3.3984676E-1,4.2785877E-1,-2.5111777E-1,6.747851E-2,2.5563793E-2,-9.242658E-2],"categories":[],"categories_nodes":[],"categories_segments":[],"categories_sizes":[],"default_left":[0,0,0,0,0,0,0,0,0,0,0,0,0,0,0,0,0,0,0,0,0,0,0,0,0,0,0,0,0,0,0,0,0,0,0,0,0,0,0,0,0,0,0,0,0,0,0,0,0,0,0,0,0,0,0,0,0,0,0,0,0,0,0,0,0,0,0,0,0,0,0,0,0,0,0],"id":13,"left_children":[1,3,5,7,9,11,13,15,17,-1,19,21,23,25,-1,27,29,31,33,35,37,39,41,43,45,47,-1,49,51,53,55,-1,-1,-1,57,59,-1,61,63,65,67,69,71,-1,-1,-1,73,-1,-1,-1,-1,-1,-1,-1,-1,-1,-1,-1,-1,-1,-1,-1,-1,-1,-1,-1,-1,-1,-1,-1,-1,-1,-1,-1,-1],"loss_changes":[3.0331936E1,4.6834686E1,3.1808517E1,6.842895E1,8.929594E1,3.586827E1,1.0575485E0,3.666622E1,3.241919E1,0E0,4.3935616E1,3.9876305E1,6.204773E0,1.0959396E0,0E0,5.351247E1,5.453613E1,2.4773407E-1,4.369445E0,5.061605E1,2.1272E1,6.833252E2,2.1448022E2,3.748104E0,1.3231478E0,1.1270666E-1,0E0,3.6422764E1,1.0244357E2,1.0857391E0,6.9752854E-1,0E0,0E0,0E0,1.986103E-1,7.372051E0,0E0,1.4594959E1,6.672124E0,2.8399802E2,1.5076294E0,1.7311401E0,1.2931995E2,0E0,0E0,0E0,3.2497624E-1,0E0,0E0,0E0,0E0,0E0,0E0,0E0,0E0,0E0,0E0,0E0,0E0,0E0,0E0,0E0,0E0,0E0,0E0,0E0,0E0,0E0,0E0,0E0,0E0,0E0,0E0,0E0,0E0],"parents":[2147483647,0,0,1,1,2,2,3,3,4,4,5,5,6,6,7,7,8,8,10,10,11,11,12,12,13,13,15,15,16,16,17,17,18,18,19,19,20,20,21,21,22,22,23,23,24,24,25,25,27,27,28,28,29,29,30,30,34,34,35,35,37,37,38,38,39,39,40,40,41,41,42,42,46,46],"right_children":[2,4,6,8,10,12,14,16,18,-1,20,22,24,26,-1,28,30,32,34,36,38,40,42,44,46,48,-1,50,52,54,56,-1,-1,-1,58,60,-1,62,64,66,68,70,72,-1,-1,-1,74,-1,-1,-1,-1,-1,-1,-1,-1,-1,-1,-1,-1,-1,-1,-1,-1,-1,-1,-1,-1,-1,-1,-1,-1,-1,-1,-1,-1],"split_conditions":[4E0,1.05E2,2.13E2,9.9E1,1.08E2,1.6E2,2.4793388E-2,8.6E1,1E2,-6.131762E-1,1.22E2,1.08E2,1.96E2,2.34E2,2.88399E-1,7.9E1,9.8E1,1.8518519E-2,1.8518519E-2,1.21E2,2.13E2,1.05E2,1.22E2,3.529412E-1,3.846154E-2,5E0,2.5989974E-1,6.9E1,8E1,2.4793388E-2,2.4793388E-2,2.7415222E-1,3.9283368E-1,-9.721808E-2,2.4793388E-2,2.4793388E-2,4.391172E-1,1.3E2,2E0,9.9E1,1.25E-1,1.21E2,1.25E2,-2.4147227E-1,-6.982188E-1,-1.3191359E-1,4.347826E-2,1.4445104E-1,7.0276156E-2,-7.546568E-3,-2.0469956E-1,6.4804065E-1,4.1654434E-2,-2.7944708E-1,-3.8287842E-1,-1.5101803E-2,3.686957E-2,7.343129E-2,1.18788905E-1,-2.3308903E-1,8.4868066E-2,-5.547707E-2,-2.2699493E-1,-1.5448394E-1,1.1680688E-1,3.0080613E-3,3.248247E-1,-8.7925863E-1,-3.0626604E-1,3.3984676E-1,4.2785877E-1,-2.5111777E-1,6.747851E-2,2.5563793E-2,-9.242658E-2],"split_indices":[1,2,2,2,2,2,0,2,2,0,2,2,2,2,0,2,2,0,0,2,2,2,2,0,0,1,0,2,2,0,0,0,0,0,0,0,0,2,1,2,0,2,2,0,0,0,0,0,0,0,0,0,0,0,0,0,0,0,0,0,0,0,0,0,0,0,0,0,0,0,0,0,0,0,0],"split_type":[0,0,0,0,0,0,0,0,0,0,0,0,0,0,0,0,0,0,0,0,0,0,0,0,0,0,0,0,0,0,0,0,0,0,0,0,0,0,0,0,0,0,0,0,0,0,0,0,0,0,0,0,0,0,0,0,0,0,0,0,0,0,0,0,0,0,0,0,0,0,0,0,0,0,0],"sum_hessian":[8.5879875E4,2.4756885E4,6.1122992E4,2.4427436E4,3.2944803E2,6.1073297E4,4.969647E1,2.4302959E4,1.2447615E2,2.9130066E1,3.0031796E2,6.09811E4,9.219252E1,2.3522093E1,2.6174377E1,2.4134885E4,1.6807416E2,6.0040215E1,6.4435936E1,5.584542E1,2.4447255E2,6.018015E4,8.0095294E2,4.0175194E1,5.2017326E1,1.4309299E1,9.212792E0,2.3987006E4,1.4787968E2,7.579078E1,9.228339E1,1.3643126E1,4.639709E1,1.1488948E1,5.2946987E1,2.7248194E1,2.8597227E1,1.9888388E2,4.558868E1,6.0100656E4,7.9493065E1,1.5499179E2,6.459612E2,3.9116077E1,1.0591171E0,4.2997032E1,9.020294E0,7.163858E0,7.1454415E0,2.3903371E4,8.363551E1,3.0976482E1,1.169032E2,3.891054E1,3.688024E1,5.150587E1,4.077751E1,2.3104149E1,2.984284E1,1.7821394E1,9.4268E0,6.8993904E1,1.2988997E2,9.536565E0,3.6052116E1,5.9853836E4,2.4681958E2,7.77056E1,1.7874622E0,7.766196E1,7.7329834E1,1.4786504E2,4.9809616E2,7.1915665E0,1.8287282E0],"tree_param":{"num_deleted":"0","num_feature":"3","num_nodes":"75","size_leaf_vector":"1"}},{"base_weights":[1.0471537E-3,-8.041307E-2,4.2024073E-3,-2.7090209E-2,-2.6401624E-1,1.2411376E-3,2.4410258E-1,-2.578683E-1,2.2274395E-2,-2.978956E-1,8.8461536E-1,2.8051848E-3,-7.264965E-1,4.04393E-1,1.660465E-1,-7.62349E-2,-3.7682262E-1,-3.1832866E-2,3.5712132E-1,-1.314777E-1,-5.303894E-1,4.5692495E-1,-4.2690415E-2,1.0973826E-3,1.670792E0,-8.440583E-1,-3.2661623E-1,3.6960465E-1,-3.9221734E-2,-1.4334615E-1,1.0436977E-2,-3.0555767E-1,-6.029607E-1,3.9460382E-1,-4.6034288E-2,-3.4691334E-1,4.4927448E-1,-2.1190283E-1,2.984497E-1,-1.2724357E0,-2.2048084E-1,2.491212E-3,-1.2165694E0,5.3722984E-1,3.8636532E-1,-3.733197E-1,-7.718499E-1,-3.8381314E-1,1.9914164E-1,-1.8707664E-1,7.84127E-1,-8.3923894E-1,3.0501494E-1,-1.18763395E-1,-1.6416254E-2,-1.198474E-2,2.674875E-2,-1.0378102E-1,2.4777627E-1,-2.1352541E-1,-1.0793967E-1,1.0399201E-2,-6.7544974E-2,2.5999105E-1,-8.285864E-3,-5.0060857E-2,-4.0266004E-1,5.9705055E-1,-6.25816E-2,-4.1590264E-1,-2.7523023E-1,-2.0184897E-2,-3.229991E-1,2.041846E-3,-3.200775E-2,-4.4014114E-1,-2.2671597E-1,-1.9588082E-1,-2.6382706E-1,-1.00407206E-1,-2.6874754E-1,1.2969925E-1,-4.1574734E-1,1.527332E-1,3.8947845E-1,-4.0429756E-1,-1.2703966E-1,1.5766919E-1,-1.8437387E-2],"categories":[],"categories_nodes":[],"categories_segments":[],"categories_sizes":[],"default_left":[0,0,0,0,0,0,0,0,0,0,0,0,0,0,0,0,0,0,0,0,0,0,0,0,0,0,0,0,0,0,0,0,0,0,0,0,0,0,0,0,0,0,0,0,0,0,0,0,0,0,0,0,0,0,0,0,0,0,0,0,0,0,0,0,0,0,0,0,0,0,0,0,0,0,0,0,0,0,0,0,0,0,0,0,0,0,0,0,0],"id":14,"left_children":[1,3,5,7,9,11,13,15,17,19,21,23,25,-1,27,29,31,33,35,37,39,-1,-1,41,43,45,47,49,51,53,55,57,59,-1,61,-1,63,65,67,69,71,73,75,-1,-1,-1,77,79,-1,81,83,85,87,-1,-1,-1,-1,-1,-1,-1,-1,-1,-1,-1,-1,-1,-1,-1,-1,-1,-1,-1,-1,-1,-1,-1,-1,-1,-1,-1,-1,-1,-1,-1,-1,-1,-1,-1,-1],"loss_changes":[2.2017307E1,3.1265337E1,5.8584766E1,2.8218267E1,2.8235085E1,9.272355E1,8.6416855E1,9.401524E0,3.6989487E1,2.6973122E1,1.3884117E1,2.3155571E2,7.937355E0,0E0,3.930256E1,1.0134726E0,4.061989E0,3.3694256E1,4.0130688E1,1.4194405E1,6.669831E1,0E0,0E0,1.3782794E2,1.5131989E0,2.9242172E0,2.595746E0,1.09108925E2,1.294357E2,2.1743798E0,3.0842817E-1,9.531788E0,1.3869457E0,0E0,2.5167324E1,0E0,5.3450565E1,1.7330158E1,5.6016674E1,2.1893158E0,2.7034193E1,3.8215466E1,9.613052E0,0E0,0E0,0E0,9.1581726E-1,6.9872E-1,0E0,1.5084404E2,3.7635803E1,2.9315536E1,2.6598654E1,0E0,0E0,0E0,0E0,0E0,0E0,0E0,0E0,0E0,0E0,0E0,0E0,0E0,0E0,0E0,0E0,0E0,0E0,0E0,0E0,0E0,0E0,0E0,0E0,0E0,0E0,0E0,0E0,0E0,0E0,0E0,0E0,0E0,0E0,0E0,0E0],"parents":[2147483647,0,0,1,1,2,2,3,3,4,4,5,5,6,6,7,7,8,8,9,9,10,10,11,11,12,12,14,14,15,15,16,16,17,17,18,18,19,19,20,20,23,23,24,24,25,25,26,26,27,27,28,28,29,29,30,30,31,31,32,32,34,34,36,36,37,37,38,38,39,39,40,40,41,41,42,42,46,46,47,47,49,49,50,50,51,51,52,52],"right_children":[2,4,6,8,10,12,14,16,18,20,22,24,26,-1,28,30,32,34,36,38,40,-1,-1,42,44,46,48,50,52,54,56,58,60,-1,62,-1,64,66,68,70,72,74,76,-1,-1,-1,78,80,-1,82,84,86,88,-1,-1,-1,-1,-1,-1,-1,-1,-1,-1,-1,-1,-1,-1,-1,-1,-1,-1,-1,-1,-1,-1,-1,-1,-1,-1,-1,-1,-1,-1,-1,-1,-1,-1,-1,-1],"split_conditions":[6E-2,5.102041E-2,6.6E1,4.4E1,1.39E2,5.8E1,6.9E1,2.6E1,4.761905E-2,7.8E1,1.4E2,5.7E1,1.1764706E-1,4.04393E-1,8.6E1,2.3E1,4.2E1,4.5E1,4E0,5.7E1,9.8E1,4.5692495E-1,-4.2690415E-2,5.6E1,1.0909091E-1,6.666667E-2,4.375E-1,7.9E1,9.8E1,4.761905E-2,4.347826E-2,4.347826E-2,4.3E1,3.9460382E-1,1.3E2,-3.4691334E-1,1.05E2,5.6E1,5.8E1,9.6E1,1.35E2,3.2E1,1.0909091E-1,5.3722984E-1,3.8636532E-1,-3.733197E-1,6.1E1,2.5E-1,1.9914164E-1,7.8E1,8.2E1,7.1428575E-2,1.05E2,-1.18763395E-1,-1.6416254E-2,-1.198474E-2,2.674875E-2,-1.0378102E-1,2.4777627E-1,-2.1352541E-1,-1.0793967E-1,1.0399201E-2,-6.7544974E-2,2.5999105E-1,-8.285864E-3,-5.0060857E-2,-4.0266004E-1,5.9705055E-1,-6.25816E-2,-4.1590264E-1,-2.7523023E-1,-2.0184897E-2,-3.229991E-1,2.041846E-3,-3.200775E-2,-4.4014114E-1,-2.2671597E-1,-1.9588082E-1,-2.6382706E-1,-1.00407206E-1,-2.6874754E-1,1.2969925E-1,-4.1574734E-1,1.527332E-1,3.8947845E-1,-4.0429756E-1,-1.2703966E-1,1.5766919E-1,-1.8437387E-2],"split_indices":[0,0,2,2,2,2,2,2,0,2,2,2,0,0,2,2,2,2,1,2,2,0,0,2,0,0,0,2,2,0,0,0,2,0,2,0,2,2,2,2,2,2,0,0,0,0,2,0,0,2,2,0,2,0,0,0,0,0,0,0,0,0,0,0,0,0,0,0,0,0,0,0,0,0,0,0,0,0,0,0,0,0,0,0,0,0,0,0,0],"split_type":[0,0,0,0,0,0,0,0,0,0,0,0,0,0,0,0,0,0,0,0,0,0,0,0,0,0,0,0,0,0,0,0,0,0,0,0,0,0,0,0,0,0,0,0,0,0,0,0,0,0,0,0,0,0,0,0,0,0,0,0,0,0,0,0,0,0,0,0,0,0,0,0,0,0,0,0,0,0,0,0,0,0,0,0,0,0,0,0,0],"sum_hessian":[8.565892E4,3.1932498E3,8.246567E4,2.4754622E3,7.177875E2,8.146114E4,1.0045314E3,4.3546277E2,2.0399995E3,6.97942E2,1.9845442E1,8.128743E4,1.7370607E2,6.5266014E1,9.392654E2,1.7297903E2,2.6248373E2,1.756995E3,2.8300446E2,4.0768713E2,2.9025488E2,1.1939256E1,7.9061866E0,8.120529E4,8.2143036E1,1.33382E2,4.032406E1,4.7119513E2,4.6807022E2,9.712212E1,7.58569E1,2.0137407E2,6.1109665E1,1.7372576E1,1.7396224E3,1.5579668E1,2.674248E2,3.4386798E2,6.3819153E1,8.459484E1,2.0566005E2,8.111344E4,9.185035E1,5.9746338E1,2.2396694E1,1.7901012E1,1.15480995E2,3.870152E1,1.62254E0,2.0134639E2,2.6984875E2,1.4038136E2,3.2768884E2,2.4329628E1,7.2792496E1,4.6553905E1,2.9302998E1,1.951056E2,6.2684665E0,4.0888897E1,2.0220766E1,1.1998511E3,5.3977136E2,1.4217796E2,1.25246826E2,3.317962E2,1.2071791E1,1.4042695E1,4.977646E1,6.184575E1,2.2749088E1,1.7536105E2,3.029899E1,7.80306E4,3.0828325E3,5.808533E1,3.3765022E1,5.820726E1,5.7273735E1,3.682245E1,1.8790712E0,1.3317343E2,6.8172966E1,1.7710405E2,9.27447E1,6.214606E1,7.8235306E1,2.043024E2,1.23386444E2],"tree_param":{"num_deleted":"0","num_feature":"3","num_nodes":"89","size_leaf_vector":"1"}},{"base_weights":[7.994033E-4,3.0259314E-4,4.8395568E-1,1.2140904E-3,-3.9702734E-1,7.419549E-2,6.9586253E-1,3.5459833E-4,7.319431E-1,-6.166866E-1,-2.9036477E-1,-3.656067E-1,2.5343034E-1,5.3591496E-1,2.7692455E-1,1.454075E-3,-1.0215664E0,-2.2062562E-1,1.0390302E0,-6.813055E-1,-4.5431942E-1,-3.4867396E-4,-3.9973947E-1,-2.7911103E-1,3.2335013E-2,2.2454983E-2,1.2746857E-1,3.9576408E-1,7.019018E-1,-3.6649384E-5,1.1522121E0,-3.2035577E-1,-2.013363E-1,1.3742362E-1,1.1700131E0,-5.0840276E-1,-9.5779914E-1,-3.8315322E-2,-1.4038734E-1,-7.856454E-2,6.454481E-2,-4.9466804E-1,-1.5294735E-1,1.3761042E-1,6.969291E-2,1.4049585E-1,2.4673797E-1,5.271424E-4,-4.1993964E-1,-1.8470034E-2,3.8624942E-1,2.8530735E-1,4.225708E-1,-1.7603344E-1,-1.1966584E-1,-6.3013084E-2,-3.0590054E-1,-9.729729E-2,-2.445743E-1,-7.18639E-2,9.9917315E-3],"categories":[],"categories_nodes":[],"categories_segments":[],"categories_sizes":[],"default_left":[0,0,0,0,0,0,0,0,0,0,0,0,0,0,0,0,0,0,0,0,0,0,0,0,0,0,0,0,0,0,0,0,0,0,0,0,0,0,0,0,0,0,0,0,0,0,0,0,0,0,0,0,0,0,0,0,0,0,0,0,0],"id":15,"left_children":[1,3,5,7,9,11,13,15,17,19,21,23,25,27,-1,29,31,-1,33,35,37,39,41,-1,-1,-1,-1,43,45,47,49,-1,-1,-1,51,53,55,-1,-1,-1,-1,57,59,-1,-1,-1,-1,-1,-1,-1,-1,-1,-1,-1,-1,-1,-1,-1,-1,-1,-1],"loss_changes":[2.0508965E1,3.0912983E1,7.569107E0,5.3485188E1,4.3981857E0,2.5391378E0,1.6033764E0,9.557451E1,4.584672E1,3.511238E-1,4.231242E0,2.6121778E0,6.614492E-1,5.6583405E-1,0E0,1.4576443E2,7.6623535E-1,0E0,5.7912064E0,1.5706463E0,3.3448696E-2,2.1716378E0,2.1936417E0,0E0,0E0,0E0,0E0,1.1929989E-1,4.593563E-2,2.1308064E2,1.8130783E1,0E0,0E0,0E0,2.1713867E0,1.1530399E-2,4.9957848E-1,0E0,0E0,0E0,0E0,3.5313454E0,4.6534228E-1,0E0,0E0,0E0,0E0,0E0,0E0,0E0,0E0,0E0,0E0,0E0,0E0,0E0,0E0,0E0,0E0,0E0,0E0],"parents":[2147483647,0,0,1,1,2,2,3,3,4,4,5,5,6,6,7,7,8,8,9,9,10,10,11,11,12,12,13,13,15,15,16,16,18,18,19,19,20,20,21,21,22,22,27,27,28,28,29,29,30,30,34,34,35,35,36,36,41,41,42,42],"right_children":[2,4,6,8,10,12,14,16,18,20,22,24,26,28,-1,30,32,-1,34,36,38,40,42,-1,-1,-1,-1,44,46,48,50,-1,-1,-1,52,54,56,-1,-1,-1,-1,58,60,-1,-1,-1,-1,-1,-1,-1,-1,-1,-1,-1,-1,-1,-1,-1,-1,-1,-1],"split_conditions":[2.13E2,1.4E2,3E0,1.39E2,5E0,2E0,2.4793388E-2,1.35E2,2.4793388E-2,1.96E2,6E0,2.34E2,2.34E2,2.34E2,2.7692455E-1,1.31E2,5.5555556E-2,-2.2062562E-1,3.0612245E-2,1.6E2,2E0,3.5714287E-2,1.96E2,-2.7911103E-1,3.2335013E-2,2.2454983E-2,1.2746857E-1,5E0,4E0,1.3E2,1.8518519E-2,-3.2035577E-1,-2.013363E-1,1.3742362E-1,4.347826E-2,2.4793388E-2,2E0,-3.8315322E-2,-1.4038734E-1,-7.856454E-2,6.454481E-2,1.6E2,3.846154E-2,1.3761042E-1,6.969291E-2,1.4049585E-1,2.4673797E-1,5.271424E-4,-4.1993964E-1,-1.8470034E-2,3.8624942E-1,2.8530735E-1,4.225708E-1,-1.7603344E-1,-1.1966584E-1,-6.3013084E-2,-3.0590054E-1,-9.729729E-2,-2.445743E-1,-7.18639E-2,9.9917315E-3],"split_indices":[2,2,1,2,1,1,0,2,0,2,1,2,2,2,0,2,0,0,0,2,1,0,2,0,0,0,0,1,1,2,0,0,0,0,0,0,1,0,0,0,0,2,0,0,0,0,0,0,0,0,0,0,0,0,0,0,0,0,0,0,0],"split_type":[0,0,0,0,0,0,0,0,0,0,0,0,0,0,0,0,0,0,0,0,0,0,0,0,0,0,0,0,0,0,0,0,0,0,0,0,0,0,0,0,0,0,0,0,0,0,0,0,0,0,0,0,0,0,0,0,0,0,0,0,0],"sum_hessian":[8.544048E4,8.535371E4,8.676516E1,8.515934E4,1.9436339E2,3.0035748E1,