{"learner":{"attributes":{"scikit_learn":"{\"_estimator_type\": \"classifier\"}"},"feature_names":["Total NaN Count in all Attributes","Average NaN per Attribute","Highest NaN Count in an Attribute","Lowest NaN Count in an Attribute"],"feature_types":["float","float","float","float"],"gradient_booster":{"model":{"gbtree_model_param":{"num_parallel_tree":"1","num_trees":"100"},"iteration_indptr":[0,1,2,3,4,5,6,7,8,9,10,11,12,13,14,15,16,17,18,19,20,21,22,23,24,25,26,27,28,29,30,31,32,33,34,35,36,37,38,39,40,41,42,43,44,45,46,47,48,49,50,51,52,53,54,55,56,57,58,59,60,61,62,63,64,65,66,67,68,69,70,71,72,73,74,75,76,77,78,79,80,81,82,83,84,85,86,87,88,89,90,91,92,93,94,95,96,97,98,99,100],"tree_info":[0,0,0,0,0,0,0,0,0,0,0,0,0,0,0,0,0,0,0,0,0,0,0,0,0,0,0,0,0,0,0,0,0,0,0,0,0,0,0,0,0,0,0,0,0,0,0,0,0,0,0,0,0,0,0,0,0,0,0,0,0,0,0,0,0,0,0,0,0,0,0,0,0,0,0,0,0,0,0,0,0,0,0,0,0,0,0,0,0,0,0,0,0,0,0,0,0,0,0,0],"trees":[{"base_weights":[2.4542823E-2,1.6513276E-1,-2.4128277E0,2.08134E-1,-9.0147686E-1,-1.9639446E0,-2.6074643E0,7.775929E-2,7.654224E-1,-1.4834498E0,-4.3940827E-1,-8.5813814E-1,-1.7606767E0,-2.857905E0,-2.3953338E0,1.0519675E-1,-8.358998E-1,9.8636466E-1,2.1704337E-1,-1.2600117E0,-1.8998693E0,-1.4300227E0,-1.9069745E-1,-1.5541301E0,-2.3849034E0,-2.666649E0,-8.6966354E-1,-1.7823083E0,-2.79648E0,5.7917655E-2,4.927526E-1,-1.6204925E0,-6.8271583E-1,1.8398517E-1,1.0882028E0,-1.256828E0,3.0863324E-1,-1.8688736E0,-9.142625E-1,-1.7060964E0,-2.0539877E0,-1.1373117E0,-4.5425817E-1,1.0335886E-1,-7.426633E-1,-1.6967062E0,-7.458727E-1,-2.6691294E0,-1.9941596E0,-2.7318301E0,-3.4504804E-1,-2.247013E0,-1.5299563E0,-2.4376974E0,-8.723275E-1,2.7966669E-2,-7.923612E-2,2.5981796E-1,5.270832E-3,-3.288529E-1,-5.464046E-1,-5.4764414E-1,-1.9449899E-1,-1.3906334E-1,1.50871E-1,3.7673607E-1,1.02383845E-1,-2.3223858E-1,-6.70181E-1,1.6493867E-1,-3.819015E-2,-5.7711625E-1,-4.3855965E-1,-2.061946E-1,-4.2651019E-1,-5.838558E-1,-4.7372374E-1,-5.1264286E-1,-6.56966E-1,-4.0678853E-1,-2.630159E-1,-1.0504426E-1,1.3969871E-1,-3.007907E-1,-1.5419997E-1,-3.3203727E-1,-5.882801E-1,2.4681494E-2,-3.4784192E-1,-5.906403E-1,-8.190088E-1,-6.1882097E-1,-9.879203E-2,-8.211364E-1,-2.4804167E-1,-4.2560053E-1,1.8836863E-1,-5.3953034E-1,-8.0371493E-1,-4.0163177E-1,-7.453118E-1,1.7108399E-1,-7.3947895E-1],"categories":[],"categories_nodes":[],"categories_segments":[],"categories_sizes":[],"default_left":[0,0,0,0,0,0,0,0,0,0,0,0,0,0,0,0,0,0,0,0,0,0,0,0,0,0,0,0,0,0,0,0,0,0,0,0,0,0,0,0,0,0,0,0,0,0,0,0,0,0,0,0,0,0,0,0,0,0,0,0,0,0,0,0,0,0,0,0,0,0,0,0,0,0,0,0,0,0,0,0,0,0,0,0,0,0,0,0,0,0,0,0,0,0,0,0,0,0,0,0,0,0,0],"id":0,"left_children":[1,3,5,7,9,11,13,15,17,19,21,-1,23,25,27,29,31,33,35,37,39,41,43,45,47,49,-1,51,53,55,57,59,61,63,65,67,69,71,73,75,77,79,-1,81,83,85,87,89,91,93,95,97,99,101,-1,-1,-1,-1,-1,-1,-1,-1,-1,-1,-1,-1,-1,-1,-1,-1,-1,-1,-1,-1,-1,-1,-1,-1,-1,-1,-1,-1,-1,-1,-1,-1,-1,-1,-1,-1,-1,-1,-1,-1,-1,-1,-1,-1,-1,-1,-1,-1,-1],"loss_changes":[3.6715453E4,4.646454E3,5.0539844E2,7.07499E3,1.0550903E3,3.1776416E2,2.095293E2,1.9783994E3,2.2366045E3,1.5923535E2,5.392565E2,0E0,1.8280273E2,6.866211E0,5.38792E2,1.4038354E3,2.7543176E2,1.0750879E3,7.1629083E2,2.369071E2,1.4552734E1,9.10144E0,2.8436826E2,1.24321045E2,3.4411865E1,5.0675293E1,0E0,9.945386E1,4.620508E1,7.7640894E2,1.4776863E3,3.7507996E1,7.45293E1,3.0654507E2,1.4612207E3,1.4470657E2,5.2507574E2,6.3308105E0,8.2504944E1,5.2753296E0,1.1825806E1,4.630493E0,0E0,1.880692E2,3.5682312E1,1.4210425E2,5.6679146E1,3.3326416E0,1.697284E1,1.079834E0,1.1816963E1,5.461084E1,1.0100073E2,2.7797607E1,0E0,0E0,0E0,0E0,0E0,0E0,0E0,0E0,0E0,0E0,0E0,0E0,0E0,0E0,0E0,0E0,0E0,0E0,0E0,0E0,0E0,0E0,0E0,0E0,0E0,0E0,0E0,0E0,0E0,0E0,0E0,0E0,0E0,0E0,0E0,0E0,0E0,0E0,0E0,0E0,0E0,0E0,0E0,0E0,0E0,0E0,0E0,0E0,0E0],"parents":[2147483647,0,0,1,1,2,2,3,3,4,4,5,5,6,6,7,7,8,8,9,9,10,10,12,12,13,13,14,14,15,15,16,16,17,17,18,18,19,19,20,20,21,21,22,22,23,23,24,24,25,25,27,27,28,28,29,29,30,30,31,31,32,32,33,33,34,34,35,35,36,36,37,37,38,38,39,39,40,40,41,41,43,43,44,44,45,45,46,46,47,47,48,48,49,49,50,50,51,51,52,52,53,53],"right_children":[2,4,6,8,10,12,14,16,18,20,22,-1,24,26,28,30,32,34,36,38,40,42,44,46,48,50,-1,52,54,56,58,60,62,64,66,68,70,72,74,76,78,80,-1,82,84,86,88,90,92,94,96,98,100,102,-1,-1,-1,-1,-1,-1,-1,-1,-1,-1,-1,-1,-1,-1,-1,-1,-1,-1,-1,-1,-1,-1,-1,-1,-1,-1,-1,-1,-1,-1,-1,-1,-1,-1,-1,-1,-1,-1,-1,-1,-1,-1,-1,-1,-1,-1,-1,-1,-1],"split_conditions":[1E-3,4.022E-1,2.970297E-2,1.05E0,1E0,1.8484289E-3,5.4545456E-1,2.5742576E-1,2.9069766E-1,4.8062015E-1,2E0,-8.5813814E-1,2.6548672E-1,5.691057E-2,5.0980395E-1,9.240506E-1,8E-1,6.4705884E-1,5.4545456E-1,1.3846154E0,5.3333336E-1,4.955E-1,6.0099167E-1,8.2222223E-1,1.4285714E-2,5.5E-2,-8.6966354E-1,3.7254903E-1,2.857143E-1,9.4339624E-2,9.5238096E-1,2.7891156E-1,5.4545456E-1,1.2708334E0,9.5238096E-1,3.550481E-1,9.46E-1,9.29E-1,2.1984732E0,1.5675676E0,1.879E0,4.564904E-1,-4.5425817E-1,3E0,4E0,3.6968577E-3,1.7083333E-1,2.4271845E-3,6E0,6.2992126E-2,5.940594E-2,1.3589743E0,9.2378753E-1,7.355372E-1,-8.723275E-1,2.7966669E-2,-7.923612E-2,2.5981796E-1,5.270832E-3,-3.288529E-1,-5.464046E-1,-5.4764414E-1,-1.9449899E-1,-1.3906334E-1,1.50871E-1,3.7673607E-1,1.02383845E-1,-2.3223858E-1,-6.70181E-1,1.6493867E-1,-3.819015E-2,-5.7711625E-1,-4.3855965E-1,-2.061946E-1,-4.2651019E-1,-5.838558E-1,-4.7372374E-1,-5.1264286E-1,-6.56966E-1,-4.0678853E-1,-2.630159E-1,-1.0504426E-1,1.3969871E-1,-3.007907E-1,-1.5419997E-1,-3.3203727E-1,-5.882801E-1,2.4681494E-2,-3.4784192E-1,-5.906403E-1,-8.190088E-1,-6.1882097E-1,-9.879203E-2,-8.211364E-1,-2.4804167E-1,-4.2560053E-1,1.8836863E-1,-5.3953034E-1,-8.0371493E-1,-4.0163177E-1,-7.453118E-1,1.7108399E-1,-7.3947895E-1],"split_indices":[3,1,3,0,2,3,2,1,1,1,0,0,1,1,1,0,0,2,2,0,1,1,1,2,3,1,0,1,3,1,2,1,2,0,2,1,2,2,0,0,0,1,0,0,0,3,1,3,0,2,0,0,2,2,0,0,0,0,0,0,0,0,0,0,0,0,0,0,0,0,0,0,0,0,0,0,0,0,0,0,0,0,0,0,0,0,0,0,0,0,0,0,0,0,0,0,0,0,0,0,0,0,0],"split_type":[0,0,0,0,0,0,0,0,0,0,0,0,0,0,0,0,0,0,0,0,0,0,0,0,0,0,0,0,0,0,0,0,0,0,0,0,0,0,0,0,0,0,0,0,0,0,0,0,0,0,0,0,0,0,0,0,0,0,0,0,0,0,0,0,0,0,0,0,0,0,0,0,0,0,0,0,0,0,0,0,0,0,0,0,0,0,0,0,0,0,0,0,0,0,0,0,0,0,0,0,0,0,0],"sum_hessian":[1.07143125E5,1.0130092E5,5.842205E3,9.737594E4,3.924985E3,1.7703651E3,4.0718398E3,7.8915266E4,1.8460674E4,1.736129E3,2.188856E3,3.2479218E2,1.445573E3,1.8615863E3,2.2102537E3,7.661537E4,2.299898E3,1.3158362E4,5.302311E3,1.1324932E3,6.036359E2,4.3831177E2,1.7505443E3,1.0887971E3,3.5677588E2,3.401083E2,1.5214779E3,8.763983E2,1.3338552E3,6.828609E4,8.329275E3,3.7411914E2,1.9257789E3,1.4822866E3,1.1676076E4,3.0947604E2,4.992835E3,4.0858044E2,7.2391266E2,2.7276236E2,3.308736E2,1.01131546E2,3.3718024E2,1.1426288E3,6.0791547E2,9.245991E2,1.6419798E2,2.0316405E2,1.5361183E2,3.3064835E2,9.459967E0,3.05647E2,5.707513E2,3.211884E2,1.0126669E3,6.1540234E4,6.745857E3,4.664214E3,3.6650613E3,1.0541106E2,2.687081E2,5.4732662E1,1.8710463E3,4.8899017E2,9.9329645E2,9.535871E3,2.1402048E3,2.083445E2,1.01131546E2,3.2143613E3,1.7784736E3,3.5677588E2,5.1804577E1,5.018287E2,2.2208397E2,8.9419205E1,1.8334315E2,9.730251E1,2.3357108E2,5.270553E1,4.8426018E1,5.0745963E2,6.351692E2,2.8289804E2,3.2501743E2,2.8762802E2,6.3697107E2,5.49579E1,1.0924009E2,1.8919933E1,1.8424411E2,1.4730519E2,6.3066444E0,3.2929694E2,1.3514237E0,4.2795086E0,5.1804576E0,1.5248564E2,1.5316136E2,4.7750305E2,9.324824E1,2.7028475E0,3.1848553E2],"tree_param":{"num_deleted":"0","num_feature":"4","num_nodes":"103","size_leaf_vector":"1"}},{"base_weights":[2.43068E-2,1.2214943E-1,-1.4902997E0,2.6034696E-2,3.6735842E-1,-1.2182857E0,-1.6080974E0,4.7060337E-2,-7.6448697E-1,6.3855976E-1,-2.5825056E-1,-5.290678E-1,-1.0945104E0,-1.7533268E0,-1.4553281E0,1.9895175E-2,1.9521272E-1,-5.3958416E-1,-1.1255212E0,8.305203E-1,1.3908051E-1,-6.7993146E-1,-1.072506E-1,-9.417721E-1,-1.4235811E0,-1.5525621E0,-1.7769268E0,-9.82508E-1,-1.721801E0,4.9875155E-2,-9.516244E-1,5.806229E-1,1.2452784E-2,-1.1463876E0,-3.7604633E-1,-9.312478E-1,-1.1590874E0,8.303616E-2,9.482436E-1,5.2948274E-2,7.051847E-1,-4.5992494E-1,-9.340688E-1,2.2189113E-1,-4.3164763E-1,-1.5085108E0,-7.973928E-1,-1.6720012E0,-1.2038555E0,-1.7289389E0,-2.847315E-1,-1.7973197E0,-1.6070493E0,5.2625977E-2,-1.0782487E0,-1.4851325E0,-5.390943E-1,7.832226E-3,9.818858E-2,-4.7015485E-1,-1.349848E-1,2.4841478E-1,1.3195018E-1,-2.0686327E-1,4.1488003E-2,-5.890016E-1,-3.0650574E-1,-1.5872157E-1,-1.6437276E-3,-2.9334226E-1,-1.996544E-1,-3.8467818E-1,-3.325466E-1,-3.0418473E-1,7.30422E-2,3.6476976E-1,2.4162926E-1,1.02134876E-1,-5.809568E-2,1.74145E-1,3.8481718E-1,-6.054366E-1,-1.19397245E-1,-3.0281147E-1,-2.4479263E-1,-2.0685102E-1,9.2331246E-2,-2.4822393E-1,-5.3953715E-2,-6.721623E-1,-4.1256723E-1,-6.1567217E-2,-2.9138362E-1,-5.35766E-1,-3.5034457E-1,-2.6877764E-1,-4.20176E-1,-5.2077776E-1,-8.5467264E-2,-3.978592E-1,1.9139579E-1,-5.3462684E-1,-5.961672E-1,-4.063449E-1,-5.367303E-1,-2.1105163E-1,1.680774E-1,-2.9031932E-1,-5.0977093E-1,-5.237147E-1,-3.729373E-1],"categories":[],"categories_nodes":[],"categories_segments":[],"categories_sizes":[],"default_left":[0,0,0,0,0,0,0,0,0,0,0,0,0,0,0,0,0,0,0,0,0,0,0,0,0,0,0,0,0,0,0,0,0,0,0,0,0,0,0,0,0,0,0,0,0,0,0,0,0,0,0,0,0,0,0,0,0,0,0,0,0,0,0,0,0,0,0,0,0,0,0,0,0,0,0,0,0,0,0,0,0,0,0,0,0,0,0,0,0,0,0,0,0,0,0,0,0,0,0,0,0,0,0,0,0,0,0,0,0,0,0],"id":1,"left_children":[1,3,5,7,9,11,13,15,17,19,21,-1,23,25,27,29,31,33,35,37,39,41,43,45,47,49,51,53,55,57,59,61,63,65,67,69,71,73,75,77,79,81,83,85,87,89,91,93,95,97,99,101,103,105,107,109,-1,-1,-1,-1,-1,-1,-1,-1,-1,-1,-1,-1,-1,-1,-1,-1,-1,-1,-1,-1,-1,-1,-1,-1,-1,-1,-1,-1,-1,-1,-1,-1,-1,-1,-1,-1,-1,-1,-1,-1,-1,-1,-1,-1,-1,-1,-1,-1,-1,-1,-1,-1,-1,-1,-1],"loss_changes":[1.5663259E4,2.3398691E3,2.0354688E2,1.1855494E3,4.743503E3,1.2915405E2,9.667285E1,2.7961737E2,1.494425E2,1.8698237E3,5.3829333E2,0E0,7.835193E1,8.081055E0,2.7366016E2,1.7101558E3,7.5828357E2,1.1275375E2,3.540039E0,1.2396299E3,2.640296E2,1.24207886E2,6.649569E2,8.764899E1,2.5316528E1,5.5091675E1,4.180176E0,7.835504E1,2.2177246E1,3.7554724E2,5.4207666E2,1.2026318E2,6.452934E2,2.2611908E1,5.102838E1,7.034149E-1,2.317749E0,3.3780847E2,4.6426074E2,3.3339792E2,5.075641E1,1.1469389E2,8.366028E0,2.4218484E2,3.1240637E2,1.832022E1,8.912976E1,1.1260132E1,1.505658E1,1.7050781E0,3.1168947E1,1.7026367E0,8.065613E0,2.6433756E1,4.7990112E1,1.942279E1,0E0,0E0,0E0,0E0,0E0,0E0,0E0,0E0,0E0,0E0,0E0,0E0,0E0,0E0,0E0,0E0,0E0,0E0,0E0,0E0,0E0,0E0,0E0,0E0,0E0,0E0,0E0,0E0,0E0,0E0,0E0,0E0,0E0,0E0,0E0,0E0,0E0,0E0,0E0,0E0,0E0,0E0,0E0,0E0,0E0,0E0,0E0,0E0,0E0,0E0,0E0,0E0,0E0,0E0,0E0],"parents":[2147483647,0,0,1,1,2,2,3,3,4,4,5,5,6,6,7,7,8,8,9,9,10,10,12,12,13,13,14,14,15,15,16,16,17,17,18,18,19,19,20,20,21,21,22,22,23,23,24,24,25,25,26,26,27,27,28,28,29,29,30,30,31,31,32,32,33,33,34,34,35,35,36,36,37,37,38,38,39,39,40,40,41,41,42,42,43,43,44,44,45,45,46,46,47,47,48,48,49,49,50,50,51,51,52,52,53,53,54,54,55,55],"right_children":[2,4,6,8,10,12,14,16,18,20,22,-1,24,26,28,30,32,34,36,38,40,42,44,46,48,50,52,54,56,58,60,62,64,66,68,70,72,74,76,78,80,82,84,86,88,90,92,94,96,98,100,102,104,106,108,110,-1,-1,-1,-1,-1,-1,-1,-1,-1,-1,-1,-1,-1,-1,-1,-1,-1,-1,-1,-1,-1,-1,-1,-1,-1,-1,-1,-1,-1,-1,-1,-1,-1,-1,-1,-1,-1,-1,-1,-1,-1,-1,-1,-1,-1,-1,-1,-1,-1,-1,-1,-1,-1,-1,-1],"split_conditions":[1E-3,1E0,2.970297E-2,2.5E-1,3.172043E-1,1.8484289E-3,6.615385E-1,2.037037E-1,3.3186707E-1,9.5238096E-1,1.6764706E0,-5.290678E-1,2.0571429E-1,4.2944785E-2,5.0980395E-1,7.317073E-2,9.8684214E-2,6.785714E-1,7.523992E-1,6.4705884E-1,2E0,3.3465084E-1,4.022E-1,1.4492754E-2,1E0,4.1666668E-2,4.347826E-1,9.97E-1,2.51E-1,1E-1,1.625E-1,6.3725494E-2,5E-1,2.6E-1,3.0989584E-1,7.45283E-1,8.252427E-1,3.392857E-1,2E-1,1.9907407E-1,2.9166667E0,5.4545456E-1,1.3589743E0,6.4705884E-1,1E0,3.6630037E-3,3.6968577E-3,2.4390243E-2,3.49E-1,5.224359E-1,1.2751678E-1,5.625E-1,4.6E-1,4.68E-1,9.621514E-1,8.3333336E-2,-5.390943E-1,7.832226E-3,9.818858E-2,-4.7015485E-1,-1.349848E-1,2.4841478E-1,1.3195018E-1,-2.0686327E-1,4.1488003E-2,-5.890016E-1,-3.0650574E-1,-1.5872157E-1,-1.6437276E-3,-2.9334226E-1,-1.996544E-1,-3.8467818E-1,-3.325466E-1,-3.0418473E-1,7.30422E-2,3.6476976E-1,2.4162926E-1,1.02134876E-1,-5.809568E-2,1.74145E-1,3.8481718E-1,-6.054366E-1,-1.19397245E-1,-3.0281147E-1,-2.4479263E-1,-2.0685102E-1,9.2331246E-2,-2.4822393E-1,-5.3953715E-2,-6.721623E-1,-4.1256723E-1,-6.1567217E-2,-2.9138362E-1,-5.35766E-1,-3.5034457E-1,-2.6877764E-1,-4.20176E-1,-5.2077776E-1,-8.5467264E-2,-3.978592E-1,1.9139579E-1,-5.3462684E-1,-5.961672E-1,-4.063449E-1,-5.367303E-1,-2.1105163E-1,1.680774E-1,-2.9031932E-1,-5.0977093E-1,-5.237147E-1,-3.729373E-1],"split_indices":[3,0,3,1,1,3,2,2,1,2,0,0,1,3,1,1,1,2,0,2,0,1,1,0,2,3,1,0,3,2,2,1,0,1,1,2,2,2,1,1,0,2,0,2,2,0,3,3,1,2,0,2,3,1,2,3,0,0,0,0,0,0,0,0,0,0,0,0,0,0,0,0,0,0,0,0,0,0,0,0,0,0,0,0,0,0,0,0,0,0,0,0,0,0,0,0,0,0,0,0,0,0,0,0,0,0,0,0,0,0,0],"split_type":[0,0,0,0,0,0,0,0,0,0,0,0,0,0,0,0,0,0,0,0,0,0,0,0,0,0,0,0,0,0,0,0,0,0,0,0,0,0,0,0,0,0,0,0,0,0,0,0,0,0,0,0,0,0,0,0,0,0,0,0,0,0,0,0,0,0,0,0,0,0,0,0,0,0,0,0,0,0,0,0,0,0,0,0,0,0,0,0,0,0,0,0,0,0,0,0,0,0,0,0,0,0,0,0,0,0,0,0,0,0,0],"sum_hessian":[1.056927E5,9.928019E4,6.412518E3,7.1324266E4,2.7955916E4,1.9412349E3,4.471283E3,6.9477305E4,1.8469597E3,1.950185E4,8.454067E3,3.5668112E2,1.5845537E3,2.286838E3,2.1844456E3,5.871287E4,1.0764436E4,1.1395702E3,7.073896E2,1.4087183E4,5.414667E3,2.228178E3,6.2258896E3,1.084872E3,4.9968173E2,2.4756877E2,2.039269E3,7.8905725E2,1.3953884E3,5.695622E4,1.7566549E3,3.461832E3,7.3026035E3,2.4064658E2,8.989235E2,1.0844993E2,5.9893964E2,1.9169865E3,1.2170195E4,4.7005728E3,7.140943E2,1.1957917E3,1.0323862E3,3.0905015E3,3.1353882E3,2.1834485E2,8.6652716E2,2.3142487E2,2.6825687E2,2.1701463E2,3.0554132E1,1.8121504E3,2.2711864E2,6.684038E1,7.2221686E2,3.4140213E2,1.0539862E3,5.246262E4,4.493597E3,7.8784283E2,9.688121E2,1.2536874E3,2.2081448E3,1.1093964E3,6.193207E3,2.9915947E1,2.1073064E2,6.3590094E2,2.630226E2,9.000098E1,1.8448954E1,1.6731113E2,4.316285E2,2.4391443E2,1.673072E3,4.2317188E3,7.938477E3,2.1701292E3,2.5304438E3,5.88937E2,1.2515727E2,4.450513E1,1.1512866E3,6.2579706E2,4.0658914E2,2.655314E2,2.82497E3,1.2182842E3,1.9171039E3,3.1196947E1,1.871479E2,1.9718694E2,6.693402E2,1.86709E2,4.4715866E1,1.0673918E2,1.6151768E2,2.1576855E2,1.2460862E0,1.4148044E1,1.6406088E1,1.6872195E3,1.2493094E2,9.8670166E1,1.2844847E2,2.6693634E1,4.014674E1,6.1527423E2,1.0694264E2,1.6140036E2,1.8000179E2],"tree_param":{"num_deleted":"0","num_feature":"4","num_nodes":"111","size_leaf_vector":"1"}},{"base_weights":[1.9628366E-2,9.081322E-2,-1.1446884E0,3.1445436E-2,3.3600292E-1,-8.911681E-1,-1.2614127E0,6.1753254E-2,-3.461915E-1,5.887441E-1,-2.3035087E-1,-4.272069E-1,-7.824114E-1,-1.4234158E0,-1.130717E0,2.45749E-2,4.010779E-1,-7.7841794E-1,-2.571135E-1,7.1064144E-1,1.0971441E-1,-9.284684E-1,-1.8747409E-1,-6.822898E-1,-1.1478188E0,-1.2055392E0,-1.4455416E0,-7.885226E-1,-1.3771874E0,4.522593E-2,-4.134883E-1,6.1109906E-1,8.0692515E-2,-1.1291007E0,-5.769965E-1,-1.6050956E-1,-6.9052154E-1,7.3370345E-2,8.3852094E-1,7.497742E-1,2.2093913E-2,-6.065683E-1,-1.1750164E0,-6.2183373E-2,-5.038005E-1,-7.7363163E-1,-2.1167102E-1,-1.2860992E0,-6.885811E-1,-1.3843963E0,-6.1051957E-2,-7.797865E-1,-1.4481659E0,-1.2318797E0,-6.877678E-1,-1.1308734E0,-1.4578706E0,4.5744427E-3,1.0218028E-1,-3.0424717E-1,-7.774349E-2,9.80807E-2,2.588453E-1,2.3923494E-1,1.4148596E-2,-4.1370586E-1,-2.5146583E-1,-1.2605464E-1,-2.483903E-1,-8.687102E-3,-1.203309E-1,-2.4013412E-1,-1.7989191E-1,-3.3402707E-2,2.1610974E-1,3.1265885E-1,2.0492809E-1,3.8532907E-1,1.5556405E-1,-5.2409355E-2,1.1247777E-1,-2.9172784E-1,3.2877073E-2,-4.0873295E-1,-2.7759084E-1,-2.8316755E-2,3.0027658E-1,-3.1418723E-1,-9.160012E-2,-1.9720437E-1,-4.200571E-1,3.5806808E-1,-1.0519052E-1,-3.095363E-1,-4.069427E-1,-2.336767E-1,8.5903056E-2,-3.296754E-1,-4.4621378E-1,-3.0713913E-1,3.3319062E-1,-3.77951E-1,8.291899E-2,-4.177961E-1,-4.4142914E-1,-2.273011E-1,-4.547246E-1,-1.8398084E-1,-4.49995E-1,1.1108643E-1,-3.495685E-1,-2.3140378E-1,-4.3795183E-1],"categories":[],"categories_nodes":[],"categories_segments":[],"categories_sizes":[],"default_left":[0,0,0,0,0,0,0,0,0,0,0,0,0,0,0,0,0,0,0,0,0,0,0,0,0,0,0,0,0,0,0,0,0,0,0,0,0,0,0,0,0,0,0,0,0,0,0,0,0,0,0,0,0,0,0,0,0,0,0,0,0,0,0,0,0,0,0,0,0,0,0,0,0,0,0,0,0,0,0,0,0,0,0,0,0,0,0,0,0,0,0,0,0,0,0,0,0,0,0,0,0,0,0,0,0,0,0,0,0,0,0,0,0],"id":2,"left_children":[1,3,5,7,9,11,13,15,17,19,21,-1,23,25,27,29,31,33,35,37,39,41,43,45,47,49,51,53,55,57,59,61,63,65,67,69,71,73,75,77,79,81,83,85,87,89,91,93,95,97,99,101,103,105,107,109,111,-1,-1,-1,-1,-1,-1,-1,-1,-1,-1,-1,-1,-1,-1,-1,-1,-1,-1,-1,-1,-1,-1,-1,-1,-1,-1,-1,-1,-1,-1,-1,-1,-1,-1,-1,-1,-1,-1,-1,-1,-1,-1,-1,-1,-1,-1,-1,-1,-1,-1,-1,-1,-1,-1,-1,-1],"loss_changes":[8.545483E3,1.4143418E3,1.746665E2,8.9533E2,2.7112488E3,1.0761572E2,8.446533E1,9.1352985E2,2.2356384E2,7.6464307E2,1.7478226E2,0E0,5.630475E1,6.989258E0,1.8909497E2,5.9042957E2,4.8109497E2,6.946045E1,2.0170468E2,8.506948E2,1.4903574E2,2.6108795E1,2.1826465E2,5.2593445E1,2.03331E1,3.533101E1,1.7348633E0,4.1431213E1,2.4374512E1,5.5188165E2,2.7214084E2,3.0865613E2,6.803665E1,2.50932E1,2.4545303E1,1.24784386E2,8.294006E0,2.0872348E2,2.7453174E2,3.8893387E1,1.6245523E2,3.905366E1,7.646454E0,1.3521364E2,1.6822095E2,7.393591E1,3.96418E1,3.1759949E0,7.223221E0,2.7631226E0,2.8694576E1,4.7103043E0,5.810547E-2,2.2273468E1,4.5881317E1,1.7324066E1,2.0214844E-1,0E0,0E0,0E0,0E0,0E0,0E0,0E0,0E0,0E0,0E0,0E0,0E0,0E0,0E0,0E0,0E0,0E0,0E0,0E0,0E0,0E0,0E0,0E0,0E0,0E0,0E0,0E0,0E0,0E0,0E0,0E0,0E0,0E0,0E0,0E0,0E0,0E0,0E0,0E0,0E0,0E0,0E0,0E0,0E0,0E0,0E0,0E0,0E0,0E0,0E0,0E0,0E0,0E0,0E0,0E0,0E0],"parents":[2147483647,0,0,1,1,2,2,3,3,4,4,5,5,6,6,7,7,8,8,9,9,10,10,12,12,13,13,14,14,15,15,16,16,17,17,18,18,19,19,20,20,21,21,22,22,23,23,24,24,25,25,26,26,27,27,28,28,29,29,30,30,31,31,32,32,33,33,34,34,35,35,36,36,37,37,38,38,39,39,40,40,41,41,42,42,43,43,44,44,45,45,46,46,47,47,48,48,49,49,50,50,51,51,52,52,53,53,54,54,55,55,56,56],"right_children":[2,4,6,8,10,12,14,16,18,20,22,-1,24,26,28,30,32,34,36,38,40,42,44,46,48,50,52,54,56,58,60,62,64,66,68,70,72,74,76,78,80,82,84,86,88,90,92,94,96,98,100,102,104,106,108,110,112,-1,-1,-1,-1,-1,-1,-1,-1,-1,-1,-1,-1,-1,-1,-1,-1,-1,-1,-1,-1,-1,-1,-1,-1,-1,-1,-1,-1,-1,-1,-1,-1,-1,-1,-1,-1,-1,-1,-1,-1,-1,-1,-1,-1,-1,-1,-1,-1,-1,-1,-1,-1,-1,-1,-1,-1],"split_conditions":[1E-3,1.05E0,2.970297E-2,2.1052632E-1,3.3465084E-1,1.8484289E-3,5.4545456E-1,6.785714E-1,8.2857144E-1,9.589041E-1,6.4705884E-1,-4.272069E-1,3E-1,4.2857144E-2,5.0980395E-1,1.16504855E-1,9.5238096E-1,6.785714E-1,3.3465084E-1,6.4705884E-1,1.6190477E-1,3.6666667E-1,5.0980395E-1,8.214286E-1,2.8571429E-2,4.1666668E-2,3.5714287E-2,3.2051283E-1,2.72E-1,1.7307693E-1,2.4590164E-1,9.361702E-1,1.2133333E-1,2.5525E-1,3.550481E-1,9.5238096E-1,1E0,1.7833333E0,2.25E-1,1.02564104E-1,2E0,2.2467532E0,5.4545456E-1,4E0,9.987547E-1,9.615385E-2,2.4271845E-3,3.49E-1,6E0,3.875969E-2,1.2751678E-1,3.2258064E-2,1.0169491E-1,1.09E-1,2.3111112E0,7.7165353E-1,5.625E-1,4.5744427E-3,1.0218028E-1,-3.0424717E-1,-7.774349E-2,9.80807E-2,2.588453E-1,2.3923494E-1,1.4148596E-2,-4.1370586E-1,-2.5146583E-1,-1.2605464E-1,-2.483903E-1,-8.687102E-3,-1.203309E-1,-2.4013412E-1,-1.7989191E-1,-3.3402707E-2,2.1610974E-1,3.1265885E-1,2.0492809E-1,3.8532907E-1,1.5556405E-1,-5.2409355E-2,1.1247777E-1,-2.9172784E-1,3.2877073E-2,-4.0873295E-1,-2.7759084E-1,-2.8316755E-2,3.0027658E-1,-3.1418723E-1,-9.160012E-2,-1.9720437E-1,-4.200571E-1,3.5806808E-1,-1.0519052E-1,-3.095363E-1,-4.069427E-1,-2.336767E-1,8.5903056E-2,-3.296754E-1,-4.4621378E-1,-3.0713913E-1,3.3319062E-1,-3.77951E-1,8.291899E-2,-4.177961E-1,-4.4142914E-1,-2.273011E-1,-4.547246E-1,-1.8398084E-1,-4.49995E-1,1.1108643E-1,-3.495685E-1,-2.3140378E-1,-4.3795183E-1],"split_indices":[3,0,3,1,1,3,2,2,0,2,2,0,1,2,1,1,2,2,1,2,1,1,1,2,3,3,3,1,3,2,2,0,1,1,1,2,0,0,1,1,0,0,2,0,2,1,3,1,0,1,0,3,3,3,0,2,2,0,0,0,0,0,0,0,0,0,0,0,0,0,0,0,0,0,0,0,0,0,0,0,0,0,0,0,0,0,0,0,0,0,0,0,0,0,0,0,0,0,0,0,0,0,0,0,0,0,0,0,0,0,0,0,0],"split_type":[0,0,0,0,0,0,0,0,0,0,0,0,0,0,0,0,0,0,0,0,0,0,0,0,0,0,0,0,0,0,0,0,0,0,0,0,0,0,0,0,0,0,0,0,0,0,0,0,0,0,0,0,0,0,0,0,0,0,0,0,0,0,0,0,0,0,0,0,0,0,0,0,0,0,0,0,0,0,0,0,0,0,0,0,0,0,0,0,0,0,0,0,0,0,0,0,0,0,0,0,0,0,0,0,0,0,0,0,0,0,0,0,0],"sum_hessian":[1.03102305E5,9.716282E4,5.9394893E3,7.822366E4,1.8939166E4,1.8752222E3,4.0642673E3,7.241288E4,5.8107686E3,1.309524E4,5.8439253E3,3.1581067E2,1.5594115E3,1.8103585E3,2.2539087E3,6.5263332E4,7.1495522E3,9.915938E2,4.819175E3,1.0438501E4,2.6567393E3,3.3695682E2,5.5069683E3,1.2262786E3,3.33133E2,1.7201204E2,1.6383464E3,9.45456E2,1.3084526E3,6.2326074E4,2.937258E3,4.318049E3,2.8315037E3,3.6007794E2,6.3151587E2,3.9419167E3,8.7725806E2,1.744848E3,8.693652E3,3.1898987E2,2.3377493E3,1.4764609E2,1.8931075E2,3.9454495E3,1.5615189E3,1.0264183E3,1.9986021E2,2.5465402E2,7.8478966E1,1.485824E2,2.3429634E1,7.603376E0,1.6307432E3,1.7299403E2,7.72462E2,3.265528E2,9.818999E2,5.6584348E4,5.7417275E3,5.9931006E2,2.337948E3,2.0293865E3,2.288662E3,1.25522354E2,2.7059814E3,1.9166382E2,1.6841414E2,3.9031152E2,2.4120438E2,2.5491846E3,1.3927322E3,3.934979E2,4.8376016E2,1.3579816E3,3.8686642E2,3.7603318E3,4.933321E3,9.49309E1,2.2405898E2,1.5010466E3,8.367027E2,9.748627E1,5.015982E1,1.0559707E2,8.371367E1,3.8303245E3,1.1512499E2,4.1654816E2,1.1449708E3,8.674722E2,1.589461E2,1.7302721E1,1.825575E2,5.859105E1,1.9606297E2,7.2007454E1,6.471515E0,4.248389E1,1.0609851E2,1.2930883E1,1.0498751E1,5.094867E0,2.5085087E0,4.9956732E2,1.1311758E3,6.615303E1,1.06841E2,7.091702E2,6.3291744E1,7.087347E0,3.1946545E2,3.9308136E0,9.779691E2],"tree_param":{"num_deleted":"0","num_feature":"4","num_nodes":"113","size_leaf_vector":"1"}},{"base_weights":[1.5012641E-2,6.7277126E-2,-9.332726E-1,2.3442753E-2,2.6626533E-1,-6.673404E-1,-1.0525427E0,4.153884E-2,-3.5311115E-1,5.821123E-1,-6.5405145E-2,-3.7400165E-1,-5.555856E-1,-1.2325343E0,-8.845387E-1,1.391014E-2,2.4145976E-1,-2.8205642E-1,-5.6199664E-1,6.8846714E-1,1.8841048E-1,-5.149412E-1,1.7177423E-2,-4.572905E-1,-1.0589157E0,-1.2520815E0,-1.0449045E0,-5.771959E-1,-1.2922512E0,3.9813627E-2,-2.4097691E-1,4.0963832E-1,-2.3783187E-3,-5.635193E-1,-2.3321648E-1,-6.107985E-1,-1.3662356E-1,2.068614E-1,8.263746E-1,6.244844E-2,5.2957976E-1,-1.1306899E0,-4.6008995E-1,3.8153237E-1,-1.3386384E-1,-7.207729E-1,-2.5040418E-1,-8.8858753E-1,-1.1839728E0,-1.1602476E0,-3.9013955E-1,-3.917276E-1,-7.5914854E-1,-9.320339E-1,-3.781308E-1,-9.0874755E-1,-3.9211205E-1,5.653457E-3,1.1521336E-1,-2.8583097E-1,-4.1005086E-2,5.1844627E-2,1.8260191E-1,-1.2030421E-1,2.271642E-2,-1.5158623E-1,-3.433499E-1,-9.923947E-2,-5.1565815E-2,-1.7396376E-1,-2.5829646E-1,-1.6863072E-1,9.4899185E-2,2.1915E-1,3.142576E-1,9.245583E-2,-5.6335546E-2,1.2941462E-1,3.1758058E-1,-6.212928E-1,-3.103687E-1,-6.645957E-2,-2.0676118E-1,1.6846667E-1,6.5611117E-3,-2.2616012E-1,-3.0326337E-2,-1.519959E-1,-3.4330612E-1,2.563969E-1,-1.4671242E-1,-3.2426357E-1,-1.1936892E-1,2.2511828E-1,-3.6394063E-1,-3.5449064E-1,-1.3510384E-1,-6.263763E-2,-3.8322052E-1,5.163234E-1,-3.0896044E-1,-1.6609507E-2,-2.1215256E-1,1.8426041E-1,-3.7210256E-1],"categories":[],"categories_nodes":[],"categories_segments":[],"categories_sizes":[],"default_left":[0,0,0,0,0,0,0,0,0,0,0,0,0,0,0,0,0,0,0,0,0,0,0,0,0,0,0,0,0,0,0,0,0,0,0,0,0,0,0,0,0,0,0,0,0,0,0,0,0,0,0,0,0,0,0,0,0,0,0,0,0,0,0,0,0,0,0,0,0,0,0,0,0,0,0,0,0,0,0,0,0,0,0,0,0,0,0,0,0,0,0,0,0,0,0,0,0,0,0,0,0,0,0,0,0],"id":3,"left_children":[1,3,5,7,9,11,13,15,17,19,21,-1,23,25,27,29,31,33,35,37,39,41,43,45,47,49,51,53,55,57,59,61,63,65,67,69,-1,71,73,75,77,79,81,83,85,87,89,91,93,95,-1,-1,97,99,101,103,-1,-1,-1,-1,-1,-1,-1,-1,-1,-1,-1,-1,-1,-1,-1,-1,-1,-1,-1,-1,-1,-1,-1,-1,-1,-1,-1,-1,-1,-1,-1,-1,-1,-1,-1,-1,-1,-1,-1,-1,-1,-1,-1,-1,-1,-1,-1,-1,-1],"loss_changes":[4.9835728E3,8.312526E2,1.6589404E2,5.3218475E2,1.8022305E3,1.047771E2,1.0850952E2,4.1159872E2,5.299417E1,3.6884985E2,3.1156918E2,0E0,6.7168915E1,5.1000977E0,2.3460352E2,4.3227856E2,3.710338E2,3.662973E1,4.4446716E0,4.6059595E2,8.056865E1,4.3471405E1,3.9028488E2,6.2276505E1,3.6905975E0,5.499756E0,1.1747437E1,7.541943E1,3.3862305E0,4.289781E2,4.482476E2,2.5228943E2,1.1504118E2,1.27754135E1,1.3591202E1,4.295868E0,0E0,1.302883E2,1.13578125E2,8.436072E1,2.5809433E1,7.4250946E0,6.5307526E1,1.3455402E2,1.01807045E2,4.507907E1,1.7007446E2,8.842499E0,7.9832E0,7.8726196E0,0E0,0E0,2.367617E1,1.0166214E2,7.312244E1,1.754101E1,0E0,0E0,0E0,0E0,0E0,0E0,0E0,0E0,0E0,0E0,0E0,0E0,0E0,0E0,0E0,0E0,0E0,0E0,0E0,0E0,0E0,0E0,0E0,0E0,0E0,0E0,0E0,0E0,0E0,0E0,0E0,0E0,0E0,0E0,0E0,0E0,0E0,0E0,0E0,0E0,0E0,0E0,0E0,0E0,0E0,0E0,0E0,0E0,0E0],"parents":[2147483647,0,0,1,1,2,2,3,3,4,4,5,5,6,6,7,7,8,8,9,9,10,10,12,12,13,13,14,14,15,15,16,16,17,17,18,18,19,19,20,20,21,21,22,22,23,23,24,24,25,25,26,26,27,27,28,28,29,29,30,30,31,31,32,32,33,33,34,34,35,35,37,37,38,38,39,39,40,40,41,41,42,42,43,43,44,44,45,45,46,46,47,47,48,48,49,49,52,52,53,53,54,54,55,55],"right_children":[2,4,6,8,10,12,14,16,18,20,22,-1,24,26,28,30,32,34,36,38,40,42,44,46,48,50,52,54,56,58,60,62,64,66,68,70,-1,72,74,76,78,80,82,84,86,88,90,92,94,96,-1,-1,98,100,102,104,-1,-1,-1,-1,-1,-1,-1,-1,-1,-1,-1,-1,-1,-1,-1,-1,-1,-1,-1,-1,-1,-1,-1,-1,-1,-1,-1,-1,-1,-1,-1,-1,-1,-1,-1,-1,-1,-1,-1,-1,-1,-1,-1,-1,-1,-1,-1,-1,-1],"split_conditions":[1E-3,1.0909091E0,2.8E-2,2.514535E-1,2.8801844E-1,1.8484289E-3,6.51E-1,6.785714E-1,3.550481E-1,9.46E-1,1.6764706E0,-3.7400165E-1,3E-1,4.347826E-1,2.8E-1,8.467742E-2,9.5238096E-1,7.154471E-1,5E-1,6.8715084E-1,2E0,5.4545456E-1,3.4285715E-1,7E-2,4.178E-1,9.235669E-2,5.4545456E-1,8.3333336E-2,7.1428573E-1,1.7307693E-1,1.8390805E-1,9.361702E-1,1E0,1.0206186E0,3.0689102E-1,9.716981E-1,-1.3662356E-1,3.392857E-1,1.8414634E0,2.2666667E-1,2.9166667E0,1.2571429E0,8.1666666E-1,9.46E-1,7.1428573E-1,1.0810811E-2,2.7272727E-2,2.007752E0,7.1900827E-1,8.3333336E-2,-3.9013955E-1,-3.917276E-1,4.6E-1,7.2727275E-1,5E-1,4.955E-1,-3.9211205E-1,5.653457E-3,1.1521336E-1,-2.8583097E-1,-4.1005086E-2,5.1844627E-2,1.8260191E-1,-1.2030421E-1,2.271642E-2,-1.5158623E-1,-3.433499E-1,-9.923947E-2,-5.1565815E-2,-1.7396376E-1,-2.5829646E-1,-1.6863072E-1,9.4899185E-2,2.1915E-1,3.142576E-1,9.245583E-2,-5.6335546E-2,1.2941462E-1,3.1758058E-1,-6.212928E-1,-3.103687E-1,-6.645957E-2,-2.0676118E-1,1.6846667E-1,6.5611117E-3,-2.2616012E-1,-3.0326337E-2,-1.519959E-1,-3.4330612E-1,2.563969E-1,-1.4671242E-1,-3.2426357E-1,-1.1936892E-1,2.2511828E-1,-3.6394063E-1,-3.5449064E-1,-1.3510384E-1,-6.263763E-2,-3.8322052E-1,5.163234E-1,-3.0896044E-1,-1.6609507E-2,-2.1215256E-1,1.8426041E-1,-3.7210256E-1],"split_indices":[3,0,3,1,1,3,2,2,1,2,0,0,1,1,3,1,2,2,1,2,0,2,1,0,1,3,2,3,2,2,2,0,0,0,1,0,0,2,0,1,0,0,2,2,2,1,1,0,2,3,0,0,3,2,1,1,0,0,0,0,0,0,0,0,0,0,0,0,0,0,0,0,0,0,0,0,0,0,0,0,0,0,0,0,0,0,0,0,0,0,0,0,0,0,0,0,0,0,0,0,0,0,0,0,0],"split_type":[0,0,0,0,0,0,0,0,0,0,0,0,0,0,0,0,0,0,0,0,0,0,0,0,0,0,0,0,0,0,0,0,0,0,0,0,0,0,0,0,0,0,0,0,0,0,0,0,0,0,0,0,0,0,0,0,0,0,0,0,0,0,0,0,0,0,0,0,0,0,0,0,0,0,0,0,0,0,0,0,0,0,0,0,0,0,0,0,0,0,0,0,0,0,0,0,0,0,0,0,0,0,0,0,0],"sum_hessian":[1.0055076E5,9.529929E4,5.2514653E3,7.8096766E4,1.7202527E4,1.6280513E3,3.6234143E3,7.45166E4,3.5801616E3,8.811067E3,8.39146E3,2.61628E2,1.3664233E3,1.7462389E3,1.8771753E3,6.546986E4,9.046743E3,2.6731948E3,9.069668E2,6.936491E3,1.8745762E3,1.3015067E3,7.089953E3,1.1447701E3,2.2165318E2,1.5763428E3,1.6989607E2,1.0717112E3,8.054641E2,5.9430902E4,6.0389595E3,5.353606E3,3.6931372E3,3.937115E2,2.2794834E3,6.1887335E2,2.8809344E2,1.5446619E3,5.3918296E3,1.3699604E3,5.0461572E2,1.0485151E2,1.1966552E3,2.0773242E3,5.012629E3,5.0242148E2,6.4234863E2,9.72728E1,1.24380394E2,5.525543E2,1.02378845E3,8.695196E1,8.2944115E1,3.838349E2,6.8787634E2,3.2226055E1,7.7323804E2,5.6019535E4,3.411367E3,7.707206E2,5.268239E3,2.4455818E3,2.9080242E3,6.043395E2,3.0887979E3,3.5954398E2,3.416751E1,8.780463E2,1.4014371E3,5.5375604E2,6.5117325E1,1.9197853E2,1.3526833E3,3.7642368E3,1.6275924E3,6.910727E2,6.788878E2,4.271442E2,7.747154E1,7.819538E0,9.7031975E1,5.872086E2,6.0944653E2,1.3840154E3,6.933088E2,2.5057951E2,4.7620493E3,3.351828E2,1.6723868E2,1.1362099E2,5.2872766E2,6.902188E1,2.825091E1,1.4799991E0,1.2290039E2,5.357488E2,1.680552E1,4.0906517E1,4.2037598E1,1.3060575E1,3.7077432E2,3.478409E2,3.400354E2,5.6096654E0,2.6616388E1],"tree_param":{"num_deleted":"0","num_feature":"4","num_nodes":"105","size_leaf_vector":"1"}},{"base_weights":[1.1212294E-2,4.971697E-2,-7.763613E-1,1.7063288E-2,2.0603205E-1,-6.5203035E-1,-1.0696182E0,3.7172124E-2,-2.0786904E-1,5.22748E-1,-4.941502E-3,-7.707605E-1,-4.757073E-1,-9.440963E-1,-1.2216804E0,4.194135E-3,2.0536661E-1,-7.4982595E-1,-1.7608294E-1,8.918534E-2,5.989388E-1,-3.722213E-1,7.550784E-2,-4.726896E-1,-1.1052312E0,-6.6620463E-1,-1.3308646E-1,-3.6119476E-1,-6.312715E-1,-4.334232E-1,-1.2068369E0,3.421858E-2,-4.0765077E-1,5.8729154E-1,1.7478108E-1,-5.355725E-1,-9.816726E-1,-1.2798443E-1,-3.919019E-1,-3.8432857E-1,2.0979887E-1,7.3451996E-1,1.968201E-1,-9.042385E-1,-3.2716092E-1,3.910993E-1,-8.517248E-2,-9.163048E-1,-3.1990847E-1,-9.716858E-1,-1.1830646E0,1.4293301E0,-7.074962E-1,1.5385486E-1,-4.2634225E-1,-4.1835532E-1,-3.5811764E-1,-2.3162855E-1,-1.218549E0,9.3660306E-4,8.903644E-2,-7.2410613E-1,-8.8204384E-2,8.770617E-2,2.2592248E-1,8.9242775E-3,8.828316E-2,-1.8488659E-1,4.3502188E-1,-4.3871608E-1,-2.4712154E-1,-1.6703609E-1,-2.9708313E-2,-1.3429129E-1,-9.298011E-2,1.23697996E-1,-1.9502209E-1,1.3789795E-1,-7.315736E-2,2.7714187E-1,1.7552039E-1,3.3126113E-1,4.3466084E-2,-5.866405E-1,-2.030194E-1,2.845453E-1,-1.0750921E-1,1.7424494E-1,1.04198E-3,1.876051E-2,-6.805381E-2,-2.2962674E-1,-4.176492E-1,2.2964527E-1,-1.4713529E-1,-3.0883455E-1,2.8931135E-1,-3.3161885E-1,-3.6599356E-1,1.7223737E-1,4.821891E-1,-1.1929026E-3,-2.5143558E-1,-4.057566E-1,8.559753E-2,-2.2722833E-1,-8.142882E-3,4.0660256E-1,-1.4859653E-1,1.3458753E-1,-3.148514E-1,-4.3501446E-1,-3.614364E-1],"categories":[],"categories_nodes":[],"categories_segments":[],"categories_sizes":[],"default_left":[0,0,0,0,0,0,0,0,0,0,0,0,0,0,0,0,0,0,0,0,0,0,0,0,0,0,0,0,0,0,0,0,0,0,0,0,0,0,0,0,0,0,0,0,0,0,0,0,0,0,0,0,0,0,0,0,0,0,0,0,0,0,0,0,0,0,0,0,0,0,0,0,0,0,0,0,0,0,0,0,0,0,0,0,0,0,0,0,0,0,0,0,0,0,0,0,0,0,0,0,0,0,0,0,0,0,0,0,0,0,0,0,0],"id":4,"left_children":[1,3,5,7,9,11,13,15,17,19,21,23,25,27,29,31,33,35,37,39,41,43,45,47,49,51,53,-1,55,-1,57,59,61,63,65,67,69,71,73,75,77,79,81,83,85,87,89,91,93,95,97,99,101,103,105,107,-1,109,111,-1,-1,-1,-1,-1,-1,-1,-1,-1,-1,-1,-1,-1,-1,-1,-1,-1,-1,-1,-1,-1,-1,-1,-1,-1,-1,-1,-1,-1,-1,-1,-1,-1,-1,-1,-1,-1,-1,-1,-1,-1,-1,-1,-1,-1,-1,-1,-1,-1,-1,-1,-1,-1,-1],"loss_changes":[2.9806094E3,4.782985E2,1.6634229E2,3.506181E2,1.0819514E3,6.704089E1,2.4852173E1,3.9467447E2,1.0945175E2,2.1379883E2,2.8721466E2,1.9115076E2,8.464902E1,6.0276672E1,2.850952E-1,7.3565063E2,1.361525E2,1.6965225E1,6.233873E1,5.5410213E1,3.000415E2,4.157521E1,4.0438522E2,6.872679E1,8.2595215E0,7.318698E1,3.9208004E1,0E0,4.0551407E1,0E0,6.3485107E0,4.527492E2,9.20799E2,4.204657E1,1.8718063E2,3.0576622E1,1.154361E1,6.0989212E1,4.8631744E0,4.197991E1,8.770546E1,1.1593457E2,6.532761E1,3.1158302E1,6.449556E1,1.9784424E2,1.1060035E2,1.7626434E1,1.4087314E2,3.889438E1,2.7801514E-1,1.5808258E0,7.522977E1,4.709432E1,3.0420204E1,3.4827194E1,0E0,4.9908323E0,7.977295E-2,0E0,0E0,0E0,0E0,0E0,0E0,0E0,0E0,0E0,0E0,0E0,0E0,0E0,0E0,0E0,0E0,0E0,0E0,0E0,0E0,0E0,0E0,0E0,0E0,0E0,0E0,0E0,0E0,0E0,0E0,0E0,0E0,0E0,0E0,0E0,0E0,0E0,0E0,0E0,0E0,0E0,0E0,0E0,0E0,0E0,0E0,0E0,0E0,0E0,0E0,0E0,0E0,0E0,0E0],"parents":[2147483647,0,0,1,1,2,2,3,3,4,4,5,5,6,6,7,7,8,8,9,9,10,10,11,11,12,12,13,13,14,14,15,15,16,16,17,17,18,18,19,19,20,20,21,21,22,22,23,23,24,24,25,25,26,26,28,28,30,30,31,31,32,32,33,33,34,34,35,35,36,36,37,37,38,38,39,39,40,40,41,41,42,42,43,43,44,44,45,45,46,46,47,47,48,48,49,49,50,50,51,51,52,52,53,53,54,54,55,55,57,57,58,58],"right_children":[2,4,6,8,10,12,14,16,18,20,22,24,26,28,30,32,34,36,38,40,42,44,46,48,50,52,54,-1,56,-1,58,60,62,64,66,68,70,72,74,76,78,80,82,84,86,88,90,92,94,96,98,100,102,104,106,108,-1,110,112,-1,-1,-1,-1,-1,-1,-1,-1,-1,-1,-1,-1,-1,-1,-1,-1,-1,-1,-1,-1,-1,-1,-1,-1,-1,-1,-1,-1,-1,-1,-1,-1,-1,-1,-1,-1,-1,-1,-1,-1,-1,-1,-1,-1,-1,-1,-1,-1,-1,-1,-1,-1,-1,-1],"split_conditions":[1E-3,1.0909091E0,1.92E-1,2.0238096E-1,2.6785713E-1,7.1428573E-1,7.966102E-1,2.4590164E-1,5.4545456E-1,6.16E-1,1.6764706E0,2.8E-2,8.3333336E-2,5.4545456E-1,8.0487806E-1,5.5E-2,6.923077E-2,4.7058824E-1,3.3465084E-1,3.392857E-1,9.405941E-1,5.4545456E-1,3.3465084E-1,3.0959751E-3,5.7142857E-2,7.2727275E-1,5E-1,-3.6119476E-1,4.6E-1,-4.334232E-1,8.064516E-1,5.3E-2,1E-1,3.1111112E-1,8.2857144E-1,2.8801844E-1,4.9166667E-1,7.407407E-1,9.266055E-1,1.605E-1,5.8912385E-1,2.0238096E-1,1.02564104E-1,1.2571429E0,5.833333E-1,9.589041E-1,4.347826E-1,2.4271845E-3,3.6101083E-3,5.5555556E-2,1.0169491E-1,7.8899086E-1,1.976E-1,2.9354838E-1,1.70073E0,5.833333E-1,-3.5811764E-1,1.9753087E-1,2.1333334E-1,9.3660306E-4,8.903644E-2,-7.2410613E-1,-8.8204384E-2,8.770617E-2,2.2592248E-1,8.9242775E-3,8.828316E-2,-1.8488659E-1,4.3502188E-1,-4.3871608E-1,-2.4712154E-1,-1.6703609E-1,-2.9708313E-2,-1.3429129E-1,-9.298011E-2,1.23697996E-1,-1.9502209E-1,1.3789795E-1,-7.315736E-2,2.7714187E-1,1.7552039E-1,3.3126113E-1,4.3466084E-2,-5.866405E-1,-2.030194E-1,2.845453E-1,-1.0750921E-1,1.7424494E-1,1.04198E-3,1.876051E-2,-6.805381E-2,-2.2962674E-1,-4.176492E-1,2.2964527E-1,-1.4713529E-1,-3.0883455E-1,2.8931135E-1,-3.3161885E-1,-3.6599356E-1,1.7223737E-1,4.821891E-1,-1.1929026E-3,-2.5143558E-1,-4.057566E-1,8.559753E-2,-2.2722833E-1,-8.142882E-3,4.0660256E-1,-1.4859653E-1,1.3458753E-1,-3.148514E-1,-4.3501446E-1,-3.614364E-1],"split_indices":[3,0,3,1,1,2,2,2,2,2,0,3,3,2,2,1,1,2,1,2,2,2,1,3,3,2,1,0,3,0,2,2,2,0,0,1,2,0,2,1,2,1,1,0,2,2,1,3,3,3,3,0,1,1,0,2,0,3,3,0,0,0,0,0,0,0,0,0,0,0,0,0,0,0,0,0,0,0,0,0,0,0,0,0,0,0,0,0,0,0,0,0,0,0,0,0,0,0,0,0,0,0,0,0,0,0,0,0,0,0,0,0,0],"split_type":[0,0,0,0,0,0,0,0,0,0,0,0,0,0,0,0,0,0,0,0,0,0,0,0,0,0,0,0,0,0,0,0,0,0,0,0,0,0,0,0,0,0,0,0,0,0,0,0,0,0,0,0,0,0,0,0,0,0,0,0,0,0,0,0,0,0,0,0,0,0,0,0,0,0,0,0,0,0,0,0,0,0,0,0,0,0,0,0,0,0,0,0,0,0,0,0,0,0,0,0,0,0,0,0,0,0,0,0,0,0,0,0,0],"sum_hessian":[9.82857E4,9.370536E4,4.580343E3,7.751405E4,1.6191311E4,3.2188733E3,1.3614692E3,7.115377E4,6.360276E3,6.4727964E3,9.718515E3,1.9215763E3,1.2972971E3,7.497699E2,6.116994E2,5.949047E4,1.1663304E4,3.51116E2,6.00916E3,9.677877E2,5.5050083E3,1.7456008E3,7.972914E3,1.01735315E3,9.042231E2,8.331313E2,4.6416586E2,4.079816E2,3.417883E2,3.2154537E1,5.7954486E2,5.5449023E4,4.0414448E3,8.634246E2,1.079988E4,1.8420192E2,1.6691408E2,4.9153037E3,1.0938562E3,1.9602626E2,7.717615E2,4.1163013E3,1.3887073E3,1.3481412E2,1.6107867E3,2.6893467E3,5.2835674E3,2.5933905E2,7.580141E2,3.3791592E2,5.663072E2,1.5449684E1,8.176816E2,2.3484901E2,2.2931685E2,2.4919841E2,9.2589905E1,7.1241865E0,5.7242065E2,4.957838E4,5.870642E3,2.1557779E2,3.825867E3,3.1168448E2,5.517401E2,4.8791997E3,5.9206797E3,1.7766933E2,6.5325923E0,3.923439E1,1.2767969E2,3.0977698E2,4.605527E3,6.484622E2,4.4539404E2,4.8895336E1,1.4713092E2,4.9765457E2,2.7410693E2,1.8138352E3,2.302466E3,7.408156E1,1.3146256E3,2.2634232E1,1.1217988E2,3.775819E1,1.5730286E3,1.8052826E3,8.84064E2,2.5869724E3,2.696595E3,1.9888605E2,6.045299E1,1.0245644E2,6.555577E2,3.2858093E2,9.335011E0,1.9241095E2,3.7389624E2,3.389195E0,1.206049E1,1.2820602E2,6.894756E2,1.8105844E1,2.1674318E2,1.2486211E2,1.0445474E2,9.673036E0,2.3952538E2,4.1357923E0,2.9883943E0,2.6261196E1,5.461594E2],"tree_param":{"num_deleted":"0","num_feature":"4","num_nodes":"113","size_leaf_vector":"1"}},{"base_weights":[8.392863E-3,3.6751598E-2,-6.463388E-1,1.2488019E-2,1.5840368E-1,-5.57797E-1,-1.0934029E0,5.5804048E-2,-4.231062E-2,4.5536238E-1,1.1106913E-2,-6.834178E-1,-3.8190368E-1,-9.2807525E-1,-3.4325516E-1,5.1909577E-2,5.543352E-1,-3.5148177E-1,3.105635E-2,1.17155515E-1,5.470341E-1,-3.3927202E-1,6.767875E-2,-3.5615212E-1,-1.0022123E0,-3.4871927E-1,-3.2464406E-1,-3.4112313E-1,-1.5687193E-1,5.3127185E-2,-2.0659813E-1,3.8171488E-1,3.9535704E-1,-2.6289696E-1,-1.33144E0,5.107468E-1,-2.4495411E-3,-1.848958E-1,3.5103673E-1,6.9917613E-1,1.6004552E-1,-3.8375968E-1,-7.196114E-2,2.5072315E-1,-9.382834E-2,-2.581821E-1,-9.019685E-1,-1.0328026E0,-2.4523802E-1,2.8166926E-1,-3.851974E-1,6.337316E-1,-3.2391375E-1,1.5908763E-2,3.3353406E-1,-1.3351928E-1,2.463212E-2,-1.5252191E-2,2.5442815E-1,-1.4203075E-1,1.654239E-2,-2.3089077E-1,-5.920868E-1,2.8557172E-1,1.315653E-1,-7.5303815E-2,1.5031814E-2,-1.086775E-2,-2.912592E-1,-2.7553817E-2,1.6659367E-1,2.7978212E-1,1.6990183E-1,3.1984776E-1,3.475489E-2,-7.889764E-2,-2.3950966E-1,1.577647E-3,-2.007138E-1,1.3239634E-1,1.2814556E-2,-1.6504678E-1,1.730338E-2,-1.4957382E-1,7.4526295E-2,-3.0305538E-1,2.0988367E-1,-2.2806057E-1,-3.2791945E-1,-3.2504857E-1,2.3520277E-1,4.355724E-2,4.981802E-1,-1.7822224E-1,-6.26305E-2,-1.8968228E-1,4.058358E-1],"categories":[],"categories_nodes":[],"categories_segments":[],"categories_sizes":[],"default_left":[0,0,0,0,0,0,0,0,0,0,0,0,0,0,0,0,0,0,0,0,0,0,0,0,0,0,0,0,0,0,0,0,0,0,0,0,0,0,0,0,0,0,0,0,0,0,0,0,0,0,0,0,0,0,0,0,0,0,0,0,0,0,0,0,0,0,0,0,0,0,0,0,0,0,0,0,0,0,0,0,0,0,0,0,0,0,0,0,0,0,0,0,0,0,0,0,0],"id":5,"left_children":[1,3,5,7,9,11,13,15,17,19,21,23,25,27,-1,29,31,33,35,37,39,41,43,45,47,-1,49,-1,51,53,55,-1,57,59,61,63,65,67,69,71,73,75,77,79,81,83,85,87,89,91,93,95,-1,-1,-1,-1,-1,-1,-1,-1,-1,-1,-1,-1,-1,-1,-1,-1,-1,-1,-1,-1,-1,-1,-1,-1,-1,-1,-1,-1,-1,-1,-1,-1,-1,-1,-1,-1,-1,-1,-1,-1,-1,-1,-1,-1,-1],"loss_changes":[1.7904917E3,2.7282065E2,1.5786084E2,1.8291687E2,6.7226794E2,7.361963E1,4.4855957E0,8.35336E1,7.717157E2,1.5792712E2,2.036809E2,2.030152E2,6.1981506E1,2.57014E1,0E0,1.3453575E1,3.756871E1,5.6608466E2,4.419507E2,7.692286E1,2.3591907E2,1.6959839E1,2.6156955E2,5.1284935E1,2.2598938E1,0E0,4.7886963E1,0E0,2.6508743E1,4.3502274E0,1.3834659E1,0E0,5.5496452E1,4.008011E2,1.9355347E2,5.6761536E1,3.3578146E2,5.552005E1,5.5556084E1,8.869104E1,4.523295E1,6.1098206E1,9.457569E0,1.6440482E2,3.2502692E2,9.977084E1,2.6047516E1,1.4746216E1,3.5052837E1,2.210596E1,4.3494415E1,1.8783003E1,0E0,0E0,0E0,0E0,0E0,0E0,0E0,0E0,0E0,0E0,0E0,0E0,0E0,0E0,0E0,0E0,0E0,0E0,0E0,0E0,0E0,0E0,0E0,0E0,0E0,0E0,0E0,0E0,0E0,0E0,0E0,0E0,0E0,0E0,0E0,0E0,0E0,0E0,0E0,0E0,0E0,0E0,0E0,0E0,0E0],"parents":[2147483647,0,0,1,1,2,2,3,3,4,4,5,5,6,6,7,7,8,8,9,9,10,10,11,11,12,12,13,13,15,15,16,16,17,17,18,18,19,19,20,20,21,21,22,22,23,23,24,24,26,26,28,28,29,29,30,30,32,32,33,33,34,34,35,35,36,36,37,37,38,38,39,39,40,40,41,41,42,42,43,43,44,44,45,45,46,46,47,47,48,48,49,49,50,50,51,51],"right_children":[2,4,6,8,10,12,14,16,18,20,22,24,26,28,-1,30,32,34,36,38,40,42,44,46,48,-1,50,-1,52,54,56,-1,58,60,62,64,66,68,70,72,74,76,78,80,82,84,86,88,90,92,94,96,-1,-1,-1,-1,-1,-1,-1,-1,-1,-1,-1,-1,-1,-1,-1,-1,-1,-1,-1,-1,-1,-1,-1,-1,-1,-1,-1,-1,-1,-1,-1,-1,-1,-1,-1,-1,-1,-1,-1,-1,-1,-1,-1,-1,-1],"split_conditions":[1E-3,1.0909091E0,3.1932774E-1,5E-4,2.514535E-1,7.1428573E-1,6.111111E-1,1.0764262E-3,5.3E-2,6.8715084E-1,1.5405406E0,2.8E-2,2.3094688E-3,5.4545456E-1,-3.4325516E-1,2.5E-4,2.5E-4,2.1E-2,2.3622047E-2,1.3076923E0,9.5238096E-1,1E0,9.405941E-1,8.3333336E-2,4.178E-1,-3.4871927E-1,2.1052632E-1,-3.4112313E-1,4.6E-1,1.992032E-3,1.992032E-3,3.8171488E-1,2.1528525E-3,1.724138E-2,4.2857144E-2,1.0810811E-2,2.4657534E-1,2.2666667E-1,5.0641024E-1,1.9E-1,9.22619E-2,8.6538464E-1,1.4545455E0,3.3465084E-1,1E0,7.692308E-2,2.4390243E-2,4.2944785E-2,2.51E-1,1.9090909E0,8.3333336E-2,4E-1,-3.2391375E-1,1.5908763E-2,3.3353406E-1,-1.3351928E-1,2.463212E-2,-1.5252191E-2,2.5442815E-1,-1.4203075E-1,1.654239E-2,-2.3089077E-1,-5.920868E-1,2.8557172E-1,1.315653E-1,-7.5303815E-2,1.5031814E-2,-1.086775E-2,-2.912592E-1,-2.7553817E-2,1.6659367E-1,2.7978212E-1,1.6990183E-1,3.1984776E-1,3.475489E-2,-7.889764E-2,-2.3950966E-1,1.577647E-3,-2.007138E-1,1.3239634E-1,1.2814556E-2,-1.6504678E-1,1.730338E-2,-1.4957382E-1,7.4526295E-2,-3.0305538E-1,2.0988367E-1,-2.2806057E-1,-3.2791945E-1,-3.2504857E-1,2.3520277E-1,4.355724E-2,4.981802E-1,-1.7822224E-1,-6.26305E-2,-1.8968228E-1,4.058358E-1],"split_indices":[3,0,3,1,1,2,2,2,2,2,0,3,3,2,0,1,1,1,1,0,2,2,2,1,1,0,1,0,3,0,0,0,0,2,2,1,0,1,2,1,1,2,0,1,2,0,3,3,3,0,3,3,0,0,0,0,0,0,0,0,0,0,0,0,0,0,0,0,0,0,0,0,0,0,0,0,0,0,0,0,0,0,0,0,0,0,0,0,0,0,0,0,0,0,0,0,0],"split_type":[0,0,0,0,0,0,0,0,0,0,0,0,0,0,0,0,0,0,0,0,0,0,0,0,0,0,0,0,0,0,0,0,0,0,0,0,0,0,0,0,0,0,0,0,0,0,0,0,0,0,0,0,0,0,0,0,0,0,0,0,0,0,0,0,0,0,0,0,0,0,0,0,0,0,0,0,0,0,0,0,0,0,0,0,0,0,0,0,0,0,0,0,0,0,0,0,0],"sum_hessian":[9.642993E4,9.242751E4,4.002417E3,7.7059125E4,1.5368384E4,3.3426475E3,6.597695E2,4.3038766E4,3.402036E4,5.0948286E3,1.0273556E4,1.9483064E3,1.3943411E3,1.5956146E2,5.0020798E2,4.2706254E4,3.325127E2,6.5240366E3,2.7496322E4,1.0869595E3,4.007869E3,1.4274729E3,8.846083E3,9.6242474E2,9.8588165E2,9.39827E1,1.3003584E3,1.2516609E2,3.4395367E1,4.2506832E4,1.9941888E2,5.900492E1,2.7350778E2,5.9843413E3,5.396954E2,1.7942678E3,2.5702055E4,4.7444104E2,6.1251843E2,2.876274E3,1.131595E3,1.2234265E3,2.0404646E2,4.1463057E3,4.699777E3,8.172139E2,1.4521085E2,9.472382E2,3.864349E1,1.1774458E2,1.1826138E3,1.8693665E1,1.5701704E1,4.250395E4,2.8836992E0,1.089151E2,9.0503784E1,1.3819574E2,1.3531203E2,3.6004092E3,2.383932E3,2.8903537E2,2.5066E2,2.5062366E2,1.5436442E3,4.485234E3,2.1216822E4,3.9985287E2,7.4588165E1,1.9351515E2,4.1900327E2,1.0409739E3,1.8353E3,5.1551495E1,1.0800435E3,9.4871606E2,2.7471042E2,1.8155717E2,2.2489288E1,2.1631172E3,1.9831886E3,1.1707921E3,3.5289849E3,5.542315E2,2.6298242E2,1.3636609E2,8.844766E0,1.7395488E2,7.732833E2,2.1268736E1,1.7374754E1,1.081462E2,9.598377E0,5.404274E2,6.421864E2,6.8151793E0,1.1878486E1],"tree_param":{"num_deleted":"0","num_feature":"4","num_nodes":"97","size_leaf_vector":"1"}},{"base_weights":[6.432798E-3,2.7242484E-2,-5.3370714E-1,2.0148293E-3,9.711895E-2,-4.47698E-1,-1.0393292E0,2.0958724E-2,-2.124897E-1,2.3321639E-1,-7.176039E-2,-1.6977641E-1,-5.190046E-1,-8.648379E-1,-3.2835197E-1,4.8495372E-4,2.0583634E-1,-3.5219425E-1,-3.0854965E-2,4.447295E-1,8.9488246E-2,-3.339723E-1,1.7682796E-2,-3.4468946E-1,8.432664E-1,-8.083752E-1,-2.9700315E-1,-3.277636E-1,-1.480286E-1,1.7816447E-2,-7.6797694E-1,-9.385764E-1,2.7324852E-1,-9.285617E-1,-3.121836E-1,4.7430998E-1,-2.086359E-1,1.4813404E-1,6.446125E-1,-1.1832142E-1,3.8927525E-1,-2.7561143E-1,-1.0815233E0,-3.181645E-2,2.715057E-1,-9.538007E-1,-2.315503E-1,7.159818E-1,6.0560256E-1,-3.9835238E-1,-9.526297E-1,-3.3144376E-1,-2.478913E-1,4.4437072E-1,-3.0708998E-1,1.0029075E-3,4.875708E-2,-4.1943118E-1,-1.9230075E-1,-1.1232365E-2,-5.100673E-1,1.4850219E-1,2.8550198E-2,-2.3535198E-1,-4.12774E-1,-2.7708815E-2,-1.3362132E-1,-2.710758E-2,2.0506978E-1,-4.42379E-1,-2.593447E-2,1.2601401E-1,1.3869621E-2,2.4012375E-1,1.326816E-1,-7.810819E-2,-1.717843E-2,2.2839601E-1,6.5958954E-2,-2.94328E-2,-1.5130857E-1,-4.9630514E-1,-1.2447705E-1,4.5739086E-3,-8.6829245E-2,1.6924591E-1,-5.6185815E-2,-3.4408125E-1,-2.0989212E-1,5.859802E-1,-8.061905E-2,2.77121E-1,9.978395E-2,-1.6976818E-1,3.5526922E-1,-2.2958274E-1,-3.12642E-1,3.4458312E-1,-8.197536E-2,-1.4886783E-1,2.8018132E-1],"categories":[],"categories_nodes":[],"categories_segments":[],"categories_sizes":[],"default_left":[0,0,0,0,0,0,0,0,0,0,0,0,0,0,0,0,0,0,0,0,0,0,0,0,0,0,0,0,0,0,0,0,0,0,0,0,0,0,0,0,0,0,0,0,0,0,0,0,0,0,0,0,0,0,0,0,0,0,0,0,0,0,0,0,0,0,0,0,0,0,0,0,0,0,0,0,0,0,0,0,0,0,0,0,0,0,0,0,0,0,0,0,0,0,0,0,0,0,0,0,0],"id":6,"left_children":[1,3,5,7,9,11,13,15,17,19,21,23,25,27,-1,29,31,33,35,37,39,41,43,45,47,49,51,-1,53,55,57,59,61,63,65,67,69,71,73,75,77,79,81,83,85,87,89,91,-1,93,95,-1,97,99,-1,-1,-1,-1,-1,-1,-1,-1,-1,-1,-1,-1,-1,-1,-1,-1,-1,-1,-1,-1,-1,-1,-1,-1,-1,-1,-1,-1,-1,-1,-1,-1,-1,-1,-1,-1,-1,-1,-1,-1,-1,-1,-1,-1,-1,-1,-1],"loss_changes":[1.0700259E3,1.6158865E2,1.5311475E2,2.7368723E2,5.588821E2,5.9759033E1,3.9891968E0,2.3424785E2,1.386764E2,4.0929352E2,2.5450964E2,1.09814255E2,1.5411725E2,2.0718948E1,0E0,7.4208636E2,4.762649E2,7.0950134E1,2.1359634E2,3.228556E2,4.995723E2,1.20121E2,1.0168273E2,3.615215E1,1.2213913E1,6.1284485E1,5.3731163E1,0E0,1.7052437E1,1.1412191E2,9.742981E1,2.3566995E2,2.3009335E2,1.1810699E1,8.459738E1,7.321925E1,2.7197986E2,6.0785767E1,1.02227905E2,4.1063072E1,2.0675012E2,1.0396144E2,7.550604E1,8.21176E1,1.7743065E2,3.2403412E0,3.6789936E1,6.3772736E0,0E0,7.3068344E1,1.2123779E1,0E0,4.580555E1,9.573109E0,0E0,0E0,0E0,0E0,0E0,0E0,0E0,0E0,0E0,0E0,0E0,0E0,0E0,0E0,0E0,0E0,0E0,0E0,0E0,0E0,0E0,0E0,0E0,0E0,0E0,0E0,0E0,0E0,0E0,0E0,0E0,0E0,0E0,0E0,0E0,0E0,0E0,0E0,0E0,0E0,0E0,0E0,0E0,0E0,0E0,0E0,0E0],"parents":[2147483647,0,0,1,1,2,2,3,3,4,4,5,5,6,6,7,7,8,8,9,9,10,10,11,11,12,12,13,13,15,15,16,16,17,17,18,18,19,19,20,20,21,21,22,22,23,23,24,24,25,25,26,26,28,28,29,29,30,30,31,31,32,32,33,33,34,34,35,35,36,36,37,37,38,38,39,39,40,40,41,41,42,42,43,43,44,44,45,45,46,46,47,47,49,49,50,50,52,52,53,53],"right_children":[2,4,6,8,10,12,14,16,18,20,22,24,26,28,-1,30,32,34,36,38,40,42,44,46,48,50,52,-1,54,56,58,60,62,64,66,68,70,72,74,76,78,80,82,84,86,88,90,92,-1,94,96,-1,98,100,-1,-1,-1,-1,-1,-1,-1,-1,-1,-1,-1,-1,-1,-1,-1,-1,-1,-1,-1,-1,-1,-1,-1,-1,-1,-1,-1,-1,-1,-1,-1,-1,-1,-1,-1,-1,-1,-1,-1,-1,-1,-1,-1,-1,-1,-1,-1],"split_conditions":[1E-3,6.785714E-1,3.1932774E-1,1.2133333E-1,9.46E-1,2.8301887E-2,6.111111E-1,2.4657534E-1,5.4545456E-1,2.25E-1,1E0,8.5E-2,6.3E-1,5.4545456E-1,-3.2835197E-1,5.5E-2,1E-1,3.6942676E-1,5.8912385E-1,9.5652175E-1,1.7256637E0,9.987547E-1,3E0,6E-3,1.9417476E-2,2.4752475E-2,2.3094688E-3,-3.277636E-1,4.6E-1,5.479452E-2,1.4705883E-1,5.2E-2,7.8947365E-2,1.605E-1,1.5306123E-1,8.076923E-1,5.93E-1,7.5206614E-1,1.9444445E-1,9.361702E-1,2.8801844E-1,3.0320513E-1,1.8E0,4.2708334E-1,6.0099167E-1,3.6630037E-3,3E-3,1.6E-2,6.0560256E-1,2.2727273E-2,5.7142857E-2,-3.3144376E-1,2.4271845E-3,4E-1,-3.0708998E-1,1.0029075E-3,4.875708E-2,-4.1943118E-1,-1.9230075E-1,-1.1232365E-2,-5.100673E-1,1.4850219E-1,2.8550198E-2,-2.3535198E-1,-4.12774E-1,-2.7708815E-2,-1.3362132E-1,-2.710758E-2,2.0506978E-1,-4.42379E-1,-2.593447E-2,1.2601401E-1,1.3869621E-2,2.4012375E-1,1.326816E-1,-7.810819E-2,-1.717843E-2,2.2839601E-1,6.5958954E-2,-2.94328E-2,-1.5130857E-1,-4.9630514E-1,-1.2447705E-1,4.5739086E-3,-8.6829245E-2,1.6924591E-1,-5.6185815E-2,-3.4408125E-1,-2.0989212E-1,5.859802E-1,-8.061905E-2,2.77121E-1,9.978395E-2,-1.6976818E-1,3.5526922E-1,-2.2958274E-1,-3.12642E-1,3.4458312E-1,-8.197536E-2,-1.4886783E-1,2.8018132E-1],"split_indices":[3,2,3,1,2,1,2,0,2,1,2,0,2,2,0,1,2,0,2,0,0,2,0,0,3,3,3,0,3,2,0,1,1,1,1,0,2,2,1,0,1,1,0,1,1,0,2,3,0,3,3,0,3,3,0,0,0,0,0,0,0,0,0,0,0,0,0,0,0,0,0,0,0,0,0,0,0,0,0,0,0,0,0,0,0,0,0,0,0,0,0,0,0,0,0,0,0,0,0,0,0],"split_type":[0,0,0,0,0,0,0,0,0,0,0,0,0,0,0,0,0,0,0,0,0,0,0,0,0,0,0,0,0,0,0,0,0,0,0,0,0,0,0,0,0,0,0,0,0,0,0,0,0,0,0,0,0,0,0,0,0,0,0,0,0,0,0,0,0,0,0,0,0,0,0,0,0,0,0,0,0,0,0,0,0,0,0,0,0,0,0,0,0,0,0,0,0,0,0,0,0,0,0,0,0],"sum_hessian":[9.519454E4,9.1664E4,3.530541E3,6.734964E4,2.431436E4,3.0188955E3,5.116455E2,6.1885176E4,5.4644653E3,1.3463742E4,1.0850617E4,6.1709845E2,2.401797E3,1.2692742E2,3.8471808E2,5.5716055E4,6.16912E3,3.0882192E3,2.3762463E3,5.446489E3,8.017253E3,2.7591501E3,8.091467E3,5.2680035E2,9.029815E1,1.0415431E3,1.3602539E3,9.5929504E1,3.099792E1,5.4488133E4,1.2279204E3,3.424609E2,5.826659E3,1.9902257E2,2.8891965E3,6.1813794E2,1.7581084E3,2.1934656E3,3.2530234E3,4.7353535E3,3.2818994E3,2.5606133E3,1.9853696E2,6.7717495E3,1.3197172E3,8.135832E1,4.4544202E2,8.292713E1,7.3710184E0,2.7204782E2,7.6949524E2,7.6726875E1,1.2835271E3,1.8782753E1,1.2215166E1,4.9534754E4,4.953379E3,2.0425723E2,1.02366315E3,1.5734686E2,1.8511403E2,2.5942917E3,3.2323674E3,1.526275E2,4.6395065E1,1.0908815E3,1.7983152E3,1.6728754E2,4.508504E2,1.5377805E2,1.6043304E3,5.970883E2,1.5963772E3,1.8362076E3,1.4168158E3,1.4226611E3,3.3126924E3,1.025754E3,2.2561453E3,1.4426206E3,1.1179927E3,1.05981995E2,9.2554955E1,5.726528E3,1.0452217E3,8.0561426E2,5.1410297E2,4.4232967E1,3.7125355E1,6.5910916E0,4.3885092E2,5.2867626E1,3.0059504E1,2.4658528E2,2.5462543E1,2.5186543E2,5.176298E2,2.2102612E1,1.2614244E3,6.424968E0,1.2357784E1],"tree_param":{"num_deleted":"0","num_feature":"4","num_nodes":"101","size_leaf_vector":"1"}},{"base_weights":[5.1285196E-3,1.6844932E-2,-5.8496773E-1,2.4791151E-2,-1.5035154E-1,-9.061577E-1,-4.3098894E-1,1.13376295E-2,3.183982E-1,-1.7535809E-1,5.8472294E-1,-5.469301E-1,-1.0157939E0,-2.2406216E-1,-9.922306E-1,2.4071319E-2,-1.0709585E-1,6.03071E-1,1.3892277E-1,-3.1824622E-1,-8.0751896E-2,8.776147E-1,-5.640385E-1,-6.7618763E-1,1.3812186E0,1.1158351E-1,-1.0220234E0,-1.3966614E-1,-7.1409935E-1,-5.843874E-1,-3.2550758E-1,1.0205437E-3,1.7328894E-1,-6.021644E-1,-8.6476125E-2,7.576333E-1,3.36861E-1,9.746089E-2,6.69682E-1,-2.1959613E-1,-6.5921193E-1,-3.3004146E-2,-4.433867E-1,-1.6951132E-1,9.999979E-1,-1.3460699E-1,-2.7247193E-1,-3.9123714E-1,-1.0303422E0,7.929811E-2,5.736946E-1,-8.7229013E-1,-3.206972E-1,-9.49855E-2,-1.1386236E0,-1.0056226E0,-4.315293E-1,-8.9303076E-1,3.8318723E-1,2.5683946E-3,-1.2254707E-1,8.342366E-2,-1.0762227E-2,-1.5372647E-1,-2.8188643E-1,-6.8602487E-3,-6.6966325E-2,2.6594135E-1,1.8149337E-1,8.291474E-2,2.6266524E-1,6.0767494E-2,-5.9348095E-2,2.5324297E-1,8.3661355E-2,-5.187766E-2,-1.9199839E-1,-1.2002342E-1,-2.4019362E-1,-5.9185952E-2,5.4984342E-2,-1.05764344E-1,-2.049274E-1,1.3224122E-1,-3.544032E-1,3.6882156E-1,1.3396814E-1,-2.4683861E-1,3.744637E-1,-3.1821072E-1,-1.75077E-2,-2.7928254E-1,3.925061E-1,-1.7052893E-1,-5.900061E-3,-1.8005104E-1,-3.565016E-1,-1.7474474E-2,-3.0955476E-1,-4.8757546E-2,-3.020048E-1,3.429506E-1,-3.132953E-1,2.7212726E-2,4.4269165E-1],"categories":[],"categories_nodes":[],"categories_segments":[],"categories_sizes":[],"default_left":[0,0,0,0,0,0,0,0,0,0,0,0,0,0,0,0,0,0,0,0,0,0,0,0,0,0,0,0,0,0,0,0,0,0,0,0,0,0,0,0,0,0,0,0,0,0,0,0,0,0,0,0,0,0,0,0,0,0,0,0,0,0,0,0,0,0,0,0,0,0,0,0,0,0,0,0,0,0,0,0,0,0,0,0,0,0,0,0,0,0,0,0,0,0,0,0,0,0,0,0,0,0,0,0,0],"id":7,"left_children":[1,3,5,7,9,11,13,15,17,19,21,23,25,27,29,31,33,35,37,39,41,43,45,47,49,-1,51,53,55,57,-1,59,61,63,65,67,69,71,73,75,77,79,81,83,85,-1,-1,87,89,-1,-1,91,-1,93,95,97,99,101,103,-1,-1,-1,-1,-1,-1,-1,-1,-1,-1,-1,-1,-1,-1,-1,-1,-1,-1,-1,-1,-1,-1,-1,-1,-1,-1,-1,-1,-1,-1,-1,-1,-1,-1,-1,-1,-1,-1,-1,-1,-1,-1,-1,-1,-1,-1],"loss_changes":[6.485864E2,1.222111E2,8.993414E1,3.468543E2,7.681714E1,2.271756E1,1.4337117E2,1.2662941E2,1.9648196E2,5.454544E1,4.6770714E1,3.591168E1,4.2839355E0,3.7314175E1,1.195993E1,2.607692E2,8.31596E1,6.094403E1,5.189025E1,5.3934387E1,4.2063084E1,1.426413E1,7.260494E-1,1.2937897E1,4.9196434E0,0E0,2.2309875E0,3.439327E1,1.0494743E1,1.9409382E1,0E0,2.0279663E2,2.2235895E2,9.384186E0,6.807277E1,1.7955566E1,1.7616455E1,6.803689E1,1.14166565E1,2.4384789E1,1.288414E1,7.63752E1,5.9140396E0,8.156223E0,1.1972099E1,0E0,0E0,5.3998028E1,1.659378E0,0E0,0E0,1.5650314E1,0E0,2.6411623E1,1.702385E-1,1.5436859E0,1.0530645E1,1.6197987E1,5.023428E0,0E0,0E0,0E0,0E0,0E0,0E0,0E0,0E0,0E0,0E0,0E0,0E0,0E0,0E0,0E0,0E0,0E0,0E0,0E0,0E0,0E0,0E0,0E0,0E0,0E0,0E0,0E0,0E0,0E0,0E0,0E0,0E0,0E0,0E0,0E0,0E0,0E0,0E0,0E0,0E0,0E0,0E0,0E0,0E0,0E0,0E0],"parents":[2147483647,0,0,1,1,2,2,3,3,4,4,5,5,6,6,7,7,8,8,9,9,10,10,11,11,12,12,13,13,14,14,15,15,16,16,17,17,18,18,19,19,20,20,21,21,22,22,23,23,24,24,26,26,27,27,28,28,29,29,31,31,32,32,33,33,34,34,35,35,36,36,37,37,38,38,39,39,40,40,41,41,42,42,43,43,44,44,47,47,48,48,51,51,53,53,54,54,55,55,56,56,57,57,58,58],"right_children":[2,4,6,8,10,12,14,16,18,20,22,24,26,28,30,32,34,36,38,40,42,44,46,48,50,-1,52,54,56,58,-1,60,62,64,66,68,70,72,74,76,78,80,82,84,86,-1,-1,88,90,-1,-1,92,-1,94,96,98,100,102,104,-1,-1,-1,-1,-1,-1,-1,-1,-1,-1,-1,-1,-1,-1,-1,-1,-1,-1,-1,-1,-1,-1,-1,-1,-1,-1,-1,-1,-1,-1,-1,-1,-1,-1,-1,-1,-1,-1,-1,-1,-1,-1,-1,-1,-1,-1],"split_conditions":[2.970297E-2,4.022E-1,5.4545456E-1,1.9278351E0,6E0,5.691057E-2,6.333333E-1,2.4324325E-1,2.8801844E-1,9.9485594E-1,8E-1,5.5E-2,3.5714287E-2,9.621514E-1,1.0169491E-1,8.2857144E-1,5.35E-1,9.73E-1,3E0,5E-1,7E-1,1E0,8.6516666E-1,4.2857144E-2,5.940594E-2,1.1158351E-1,1.0169491E-1,2.3111112E0,2.1E0,1E-1,-3.2550758E-1,1.6369048E-1,9.677419E-1,1.5405406E0,9.405941E-1,2.5525E-1,2.9166667E0,2.2467532E0,3.7623763E-1,9.85E-1,1.879E0,2.9166667E0,8E-1,9.868421E-1,7E-1,-1.3460699E-1,-2.7247193E-1,4.1666668E-2,5.882353E-2,7.929811E-2,5.736946E-1,4.99E-1,-3.206972E-1,6.51E-1,6.785714E-1,3.5714287E-2,1.0169491E-1,9.2378753E-1,5E0,2.5683946E-3,-1.2254707E-1,8.342366E-2,-1.0762227E-2,-1.5372647E-1,-2.8188643E-1,-6.8602487E-3,-6.6966325E-2,2.6594135E-1,1.8149337E-1,8.291474E-2,2.6266524E-1,6.0767494E-2,-5.9348095E-2,2.5324297E-1,8.3661355E-2,-5.187766E-2,-1.9199839E-1,-1.2002342E-1,-2.4019362E-1,-5.9185952E-2,5.4984342E-2,-1.05764344E-1,-2.049274E-1,1.3224122E-1,-3.544032E-1,3.6882156E-1,1.3396814E-1,-2.4683861E-1,3.744637E-1,-3.1821072E-1,-1.75077E-2,-2.7928254E-1,3.925061E-1,-1.7052893E-1,-5.900061E-3,-1.8005104E-1,-3.565016E-1,-1.7474474E-2,-3.0955476E-1,-4.8757546E-2,-3.020048E-1,3.429506E-1,-3.132953E-1,2.7212726E-2,4.4269165E-1],"split_indices":[3,1,2,0,0,1,1,1,1,2,1,1,3,2,3,0,2,2,0,1,1,2,1,2,0,0,3,0,0,3,0,1,2,0,2,1,0,0,1,2,0,0,1,2,1,0,0,3,2,0,0,2,0,2,2,3,3,2,0,0,0,0,0,0,0,0,0,0,0,0,0,0,0,0,0,0,0,0,0,0,0,0,0,0,0,0,0,0,0,0,0,0,0,0,0,0,0,0,0,0,0,0,0,0,0],"split_type":[0,0,0,0,0,0,0,0,0,0,0,0,0,0,0,0,0,0,0,0,0,0,0,0,0,0,0,0,0,0,0,0,0,0,0,0,0,0,0,0,0,0,0,0,0,0,0,0,0,0,0,0,0,0,0,0,0,0,0,0,0,0,0,0,0,0,0,0,0,0,0,0,0,0,0,0,0,0,0,0,0,0,0,0,0,0,0,0,0,0,0,0,0,0,0,0,0,0,0,0,0,0,0,0,0],"sum_hessian":[9.380783E4,9.1982484E4,1.8253486E3,8.7810055E4,4.172429E3,5.899228E2,1.2354259E3,8.396374E4,3.8463076E3,4.035893E3,1.3653587E2,1.393443E2,4.5057846E2,9.0365314E2,3.317728E2,7.581327E4,8.1504683E3,1.4863662E3,2.3599414E3,1.6067618E3,2.4291313E3,1.089848E2,2.7551065E1,1.3119844E2,8.145864E0,1.7512103E0,4.4882727E2,7.7198413E2,1.3166896E2,6.284767E1,2.6892514E2,6.566977E4,1.01435E4,3.247678E2,7.8257E3,9.392111E2,5.47155E2,2.1900432E3,1.6989825E2,1.2474784E3,3.5928336E2,2.1474675E3,2.8166385E2,1.1364412E1,9.762039E1,2.2361017E1,5.190048E0,7.386879E1,5.732965E1,3.1078281E0,5.0380354E0,1.1184212E2,3.3698514E2,7.399819E2,3.2002285E1,6.3548294E1,6.8120674E1,4.7706863E1,1.5140809E1,6.448335E4,1.1864237E3,6.7576255E3,3.3858748E3,2.585325E2,6.62353E1,5.3419795E3,2.4837212E3,5.0673294E2,4.324782E2,4.932869E2,5.386812E1,1.6154088E3,5.746344E2,1.1666021E2,5.3238045E1,1.1240979E3,1.2338059E2,1.2820865E2,2.3107469E2,1.2205048E3,9.2696277E2,2.0604965E2,7.56142E1,7.4406967E0,3.9237154E0,6.8149925E1,2.9470465E1,5.887028E1,1.4998508E1,5.5504677E1,1.8249745E0,1.09470825E2,2.3712904E0,1.0066517E2,6.393167E2,3.8099296E0,2.8192356E1,1.7986084E0,6.1749687E1,4.72868E1,2.083387E1,2.8459787E0,4.4860886E1,1.2797588E1,2.3432205E0],"tree_param":{"num_deleted":"0","num_feature":"4","num_nodes":"105","size_leaf_vector":"1"}},{"base_weights":[3.58378E-3,1.5743542E-2,-3.7123594E-1,-1.563193E-3,6.4164855E-2,-3.0343348E-1,-9.457447E-1,3.5908215E-2,-6.941326E-2,1.4756048E-1,-4.0473778E-2,-9.808986E-1,-2.686229E-1,-6.9782513E-1,-3.0940083E-1,3.305823E-2,4.229993E-1,-1.0235344E0,-5.3935036E-2,3.2593238E-1,6.360107E-2,-2.4331257E-1,2.3452386E-2,-8.8745594E-1,-3.1845456E-1,9.56234E-2,-3.2323718E-1,-3.1065643E-1,2.4688309E-2,3.3599928E-2,-4.6865734E-1,1.0780119E0,2.9330143E-1,-8.903097E-1,-2.0654843E0,-2.0102881E-1,-2.975663E-3,7.869744E-2,5.5754656E-1,-6.933881E-2,2.7381355E-1,-1.7351991E-1,-5.724351E-1,3.8457814E-1,2.4590062E-3,-9.886459E-1,1.3089681E0,-9.5456116E-2,2.1786423E0,-5.396026E-1,-1.3758752E-1,4.940705E-1,-2.850505E-1,9.884262E-3,1.8054204E-1,-1.64051E-1,9.760919E-2,3.3455148E-1,1.8131074E-1,-1.172095E-2,2.0025896E-1,-3.4417075E-1,-1.3630779E-1,-2.8659916E-1,-6.9362587E-1,-3.4657117E-2,-4.591351E-1,7.439421E-2,-2.207639E-2,1.4841648E-2,2.1272384E-1,2.1112026E-1,1.11922465E-1,-3.2178236E-3,-5.348098E-2,1.0080298E-1,-1.162715E-1,-8.177352E-2,1.00522734E-1,-2.763455E-1,-7.282107E-2,2.9250512E-1,9.170028E-2,-2.7209246E-3,1.8211153E-1,-3.1455636E-1,-1.8945731E-1,6.0449964E-1,-3.1206945E-2,7.742496E-3,-4.254425E-1,7.0938945E-1,-2.4663652E-1,-8.555663E-2,-2.7223283E-1,-2.925074E-3,-1.0217427E-1,-2.3123302E-1,2.2421733E-1],"categories":[],"categories_nodes":[],"categories_segments":[],"categories_sizes":[],"default_left":[0,0,0,0,0,0,0,0,0,0,0,0,0,0,0,0,0,0,0,0,0,0,0,0,0,0,0,0,0,0,0,0,0,0,0,0,0,0,0,0,0,0,0,0,0,0,0,0,0,0,0,0,0,0,0,0,0,0,0,0,0,0,0,0,0,0,0,0,0,0,0,0,0,0,0,0,0,0,0,0,0,0,0,0,0,0,0,0,0,0,0,0,0,0,0,0,0,0,0],"id":8,"left_children":[1,3,5,7,9,11,13,15,17,19,21,23,25,27,-1,29,31,33,35,37,39,41,43,45,-1,47,49,-1,51,53,55,57,59,61,63,65,67,69,71,73,75,77,79,81,83,85,87,89,91,93,95,97,-1,-1,-1,-1,-1,-1,-1,-1,-1,-1,-1,-1,-1,-1,-1,-1,-1,-1,-1,-1,-1,-1,-1,-1,-1,-1,-1,-1,-1,-1,-1,-1,-1,-1,-1,-1,-1,-1,-1,-1,-1,-1,-1,-1,-1,-1,-1],"loss_changes":[4.237679E2,7.546855E1,1.1351776E2,1.6867963E2,2.0693146E2,6.1397644E1,5.8144836E0,4.7138165E1,3.4853885E2,1.9760184E2,1.3638454E2,1.7707825E-2,4.9529633E1,2.0061726E1,0E0,1.1547279E1,2.6214836E1,5.045993E1,1.7411777E2,2.4178601E2,2.507979E2,5.7796814E1,6.063497E1,1.5764725E1,0E0,1.2964801E2,8.685109E1,0E0,1.2884996E1,1.5691971E1,3.0227842E0,2.2792816E-1,3.262134E1,3.7090942E1,9.276672E0,6.792179E2,3.057517E2,3.7618954E1,5.85343E1,3.5102013E1,1.431481E2,1.0493042E2,5.042552E1,2.0174728E1,5.269722E1,6.808853E-1,3.4994707E0,4.796907E1,1.7218002E1,9.323166E1,3.025531E1,6.655121E0,0E0,0E0,0E0,0E0,0E0,0E0,0E0,0E0,0E0,0E0,0E0,0E0,0E0,0E0,0E0,0E0,0E0,0E0,0E0,0E0,0E0,0E0,0E0,0E0,0E0,0E0,0E0,0E0,0E0,0E0,0E0,0E0,0E0,0E0,0E0,0E0,0E0,0E0,0E0,0E0,0E0,0E0,0E0,0E0,0E0,0E0,0E0],"parents":[2147483647,0,0,1,1,2,2,3,3,4,4,5,5,6,6,7,7,8,8,9,9,10,10,11,11,12,12,13,13,15,15,16,16,17,17,18,18,19,19,20,20,21,21,22,22,23,23,25,25,26,26,28,28,29,29,30,30,31,31,32,32,33,33,34,34,35,35,36,36,37,37,38,38,39,39,40,40,41,41,42,42,43,43,44,44,45,45,46,46,47,47,48,48,49,49,50,50,51,51],"right_children":[2,4,6,8,10,12,14,16,18,20,22,24,26,28,-1,30,32,34,36,38,40,42,44,46,-1,48,50,-1,52,54,56,58,60,62,64,66,68,70,72,74,76,78,80,82,84,86,88,90,92,94,96,98,-1,-1,-1,-1,-1,-1,-1,-1,-1,-1,-1,-1,-1,-1,-1,-1,-1,-1,-1,-1,-1,-1,-1,-1,-1,-1,-1,-1,-1,-1,-1,-1,-1,-1,-1,-1,-1,-1,-1,-1,-1,-1,-1,-1,-1,-1,-1],"split_conditions":[1E-3,6.4705884E-1,3.1932774E-1,5E-4,9.5238096E-1,1.8484289E-3,6.111111E-1,1.0764262E-3,2.2573364E-3,2.0238096E-1,1E0,4.242857E-2,3.6968577E-3,5.4545456E-1,-3.0940083E-1,3.4293553E-4,2.5E-4,9.881423E-4,4.5454547E-2,9.5652175E-1,1.6502101E0,9.96E-1,1.4285715E-1,1.9354838E-1,-3.1845456E-1,3.6630037E-3,6.16E-1,-3.1065643E-1,4.6E-1,1.992032E-3,3.6630037E-3,1.992032E-3,2.1528525E-3,1.0764262E-3,2E-3,4.2857144E-2,3.6144577E-2,9.266055E-1,1.8055555E-1,8.56E-1,2.3111112E0,9.92E-1,1.9278351E0,6.5972224E-2,6E0,1.2931035E-2,9.546539E-2,3.6101083E-3,5.8139535E-3,1.04377106E-1,5E-1,9.6428573E-1,-2.850505E-1,9.884262E-3,1.8054204E-1,-1.64051E-1,9.760919E-2,3.3455148E-1,1.8131074E-1,-1.172095E-2,2.0025896E-1,-3.4417075E-1,-1.3630779E-1,-2.8659916E-1,-6.9362587E-1,-3.4657117E-2,-4.591351E-1,7.439421E-2,-2.207639E-2,1.4841648E-2,2.1272384E-1,2.1112026E-1,1.11922465E-1,-3.2178236E-3,-5.348098E-2,1.0080298E-1,-1.162715E-1,-8.177352E-2,1.00522734E-1,-2.763455E-1,-7.282107E-2,2.9250512E-1,9.170028E-2,-2.7209246E-3,1.8211153E-1,-3.1455636E-1,-1.8945731E-1,6.0449964E-1,-3.1206945E-2,7.742496E-3,-4.254425E-1,7.0938945E-1,-2.4663652E-1,-8.555663E-2,-2.7223283E-1,-2.925074E-3,-1.0217427E-1,-2.3123302E-1,2.2421733E-1],"split_indices":[3,2,3,1,2,3,2,2,2,1,2,1,3,2,0,1,1,1,2,0,0,2,1,0,0,3,2,0,3,0,0,0,0,2,2,2,1,2,1,2,0,2,0,1,0,1,2,3,1,2,1,0,0,0,0,0,0,0,0,0,0,0,0,0,0,0,0,0,0,0,0,0,0,0,0,0,0,0,0,0,0,0,0,0,0,0,0,0,0,0,0,0,0,0,0,0,0,0,0],"split_type":[0,0,0,0,0,0,0,0,0,0,0,0,0,0,0,0,0,0,0,0,0,0,0,0,0,0,0,0,0,0,0,0,0,0,0,0,0,0,0,0,0,0,0,0,0,0,0,0,0,0,0,0,0,0,0,0,0,0,0,0,0,0,0,0,0,0,0,0,0,0,0,0,0,0,0,0,0,0,0,0,0,0,0,0,0,0,0,0,0,0,0,0,0,0,0,0,0,0,0],"sum_hessian":[9.2975805E4,9.005523E4,2.92058E3,6.634366E4,2.3711568E4,2.61365E3,3.0693005E2,4.2740133E4,2.3603527E4,1.3194952E4,1.0516615E4,1.2640685E2,2.4872432E3,8.111874E1,2.2581133E2,4.2428832E4,3.1129956E2,3.7575583E2,2.3227771E4,4.222136E3,8.972816E3,2.5194746E3,7.997141E3,6.4107834E1,6.2299023E1,3.2420807E2,2.1630352E3,5.49857E1,2.613304E1,4.2384004E4,4.4828705E1,5.024347E1,2.610561E2,3.3480212E2,4.0953682E1,5.9757827E3,1.7251988E4,2.0428499E3,2.1792864E3,5.4970884E3,3.475728E3,2.079937E3,4.395375E2,4.384063E2,7.558735E3,6.1810104E1,2.2977288E0,2.9784073E2,2.6367355E1,9.980044E2,1.1650306E3,1.7972618E1,8.160421E0,4.2336453E4,4.7550854E1,4.109391E1,3.734797E0,4.5332455E1,4.911016E0,1.3873453E2,1.2232158E2,2.0962732E2,1.2517481E2,8.329562E0,3.262412E1,5.6156826E3,3.600999E2,3.7877612E3,1.3464228E4,1.9533678E3,8.9482056E1,1.2142327E3,9.650536E2,3.5747275E3,1.9223608E3,3.177417E3,2.9831094E2,1.7412587E3,3.3867847E2,2.1273605E2,2.2680145E2,5.034558E1,3.8806073E2,7.4182607E3,1.4047417E2,5.127694E1,1.0533163E1,1.2480584E0,1.0496703E0,2.737259E2,2.4114834E1,2.502809E1,1.3392663E0,5.910113E2,4.069931E2,7.154907E2,4.4953995E2,2.6580575E0,1.5314562E1],"tree_param":{"num_deleted":"0","num_feature":"4","num_nodes":"99","size_leaf_vector":"1"}},{"base_weights":[2.8375008E-3,9.406097E-3,-4.1375846E-1,1.5992109E-2,-1.00653015E-1,-7.961992E-1,-2.7086595E-1,7.020271E-3,2.77863E-1,-1.934667E-1,-1.9274395E-2,-5.493322E-1,-3.0928078E-1,-1.2555008E-1,-9.4638425E-1,-9.258397E-3,4.1270997E-2,6.093306E-1,1.7423157E-1,-8.199754E-1,-1.7602892E-1,-2.793401E-1,5.041489E-2,-5.7807267E-1,1.0037109E0,-4.674746E-2,-5.1792675E-1,-5.7425165E-1,-3.126986E-1,5.5998E-3,-5.8643013E-1,1.2364072E-1,-4.0907416E-2,7.668893E-1,3.7105754E-1,3.182124E-1,6.877821E-2,5.091468E-2,-1.2627995E0,-1.3341746E-1,-4.5902643E-1,-1.20391786E-1,-5.762654E-1,1.4615561E-1,-1.9176075E-1,-4.1652715E-1,-9.043098E-1,-2.0988551E-1,8.338961E-1,-1.0456074E-2,-1.0501695E0,-3.3960202E-1,-3.179928E-1,-2.811724E-1,2.8082007E-1,-2.3863088E-4,1.303656E-1,-1.4966986E-1,-3.9664403E-1,-4.17772E-2,5.4842226E-2,-1.1031097E-1,-4.9846107E-3,2.4683353E-1,8.299182E-2,9.630575E-2,3.9098617E-1,1.7724869E-1,1.2752569E-2,-9.794687E-4,1.7321354E-1,1.228034E-1,-3.869076E-2,-4.0554184E-1,-8.747985E-3,-8.963764E-2,-1.9143227E-2,-2.0060718E-1,-1.0411925E-1,-2.6875705E-2,-8.759755E-2,-2.2773568E-1,-1.3354284E-1,3.0319745E-2,2.9497072E-1,-3.7781257E-2,-1.5352418E-1,-2.0861034E-1,-6.48738E-2,-1.9804664E-1,-2.9065543E-1,-1.6978703E-1,1.840277E-2,-1.4737968E-1,-3.3230934E-1,-2.0575432E-1,2.6004508E-1,-2.2149652E-2,2.9026446E-1],"categories":[],"categories_nodes":[],"categories_segments":[],"categories_sizes":[],"default_left":[0,0,0,0,0,0,0,0,0,0,0,0,0,0,0,0,0,0,0,0,0,0,0,0,0,0,0,0,0,0,0,0,0,0,0,0,0,0,0,0,0,0,0,0,0,0,0,0,0,0,0,0,0,0,0,0,0,0,0,0,0,0,0,0,0,0,0,0,0,0,0,0,0,0,0,0,0,0,0,0,0,0,0,0,0,0,0,0,0,0,0,0,0,0,0,0,0,0,0],"id":9,"left_children":[1,3,5,7,9,11,13,15,17,19,21,23,-1,25,27,29,31,33,35,37,39,41,43,45,47,49,51,53,-1,55,57,59,61,63,65,67,69,71,73,75,77,79,81,83,85,87,89,-1,-1,91,93,95,-1,-1,97,-1,-1,-1,-1,-1,-1,-1,-1,-1,-1,-1,-1,-1,-1,-1,-1,-1,-1,-1,-1,-1,-1,-1,-1,-1,-1,-1,-1,-1,-1,-1,-1,-1,-1,-1,-1,-1,-1,-1,-1,-1,-1,-1,-1],"loss_changes":[2.5226721E2,6.578639E1,7.798494E1,2.0118944E2,3.870125E1,2.1959442E1,1.0229236E2,4.6164524E1,9.733298E1,2.600879E1,4.9519547E1,9.132542E0,0E0,2.6558876E1,5.990341E0,4.8130713E2,1.805641E2,2.5064667E1,3.281034E1,2.4958961E1,2.804026E1,2.718253E1,4.9996223E1,9.571266E0,1.3581477E1,2.6100536E1,1.3528889E1,1.2695071E1,0E0,1.501011E2,9.0048035E1,2.0724535E2,1.06000656E2,1.0883377E1,1.2209316E1,6.8666504E1,4.5784084E1,1.5177081E0,4.6636047E0,2.3311691E1,6.917206E0,1.9686813E0,4.482849E0,5.8217278E1,1.28053665E1,7.0034714E0,3.320427E-1,0E0,0E0,2.7675425E1,2.6023865E-1,4.6371803E1,0E0,0E0,3.1658854E0,0E0,0E0,0E0,0E0,0E0,0E0,0E0,0E0,0E0,0E0,0E0,0E0,0E0,0E0,0E0,0E0,0E0,0E0,0E0,0E0,0E0,0E0,0E0,0E0,0E0,0E0,0E0,0E0,0E0,0E0,0E0,0E0,0E0,0E0,0E0,0E0,0E0,0E0,0E0,0E0,0E0,0E0,0E0,0E0],"parents":[2147483647,0,0,1,1,2,2,3,3,4,4,5,5,6,6,7,7,8,8,9,9,10,10,11,11,13,13,14,14,15,15,16,16,17,17,18,18,19,19,20,20,21,21,22,22,23,23,24,24,25,25,26,26,27,27,29,29,30,30,31,31,32,32,33,33,34,34,35,35,36,36,37,37,38,38,39,39,40,40,41,41,42,42,43,43,44,44,45,45,46,46,49,49,50,50,51,51,54,54],"right_children":[2,4,6,8,10,12,14,16,18,20,22,24,-1,26,28,30,32,34,36,38,40,42,44,46,48,50,52,54,-1,56,58,60,62,64,66,68,70,72,74,76,78,80,82,84,86,88,90,-1,-1,92,94,96,-1,-1,98,-1,-1,-1,-1,-1,-1,-1,-1,-1,-1,-1,-1,-1,-1,-1,-1,-1,-1,-1,-1,-1,-1,-1,-1,-1,-1,-1,-1,-1,-1,-1,-1,-1,-1,-1,-1,-1,-1,-1,-1,-1,-1,-1,-1],"split_conditions":[2.970297E-2,3.7623763E-1,5.4545456E-1,1.9278351E0,1E0,1.0169491E-1,6.666667E-1,1.625E-1,2.6E-1,5.4545456E-1,2E0,4.99E-1,-3.0928078E-1,9.361702E-1,1.0169491E-1,6.04E-2,1.82E-1,9.7959185E-1,2.007752E0,5.0641024E-1,5.3333336E-1,1.7669903E0,6.333333E-1,2.5274727E-1,8.108108E-2,2.3111112E0,1.0169491E-1,1E-1,-3.126986E-1,2.2857143E-1,1.085E-1,3.1111112E-1,5.35E-1,2.5352564E0,1.8484289E-3,9.73E-1,2.9166667E0,3.8285714E-1,3.1E0,1.5405406E0,9.203187E-1,1.5675676E0,1.9278351E0,5E0,8E-1,1.1E-1,3E-1,-2.0988551E-1,8.338961E-1,3.2051283E-1,6.785714E-1,1E-1,-3.179928E-1,-2.811724E-1,4.254202E0,-2.3863088E-4,1.303656E-1,-1.4966986E-1,-3.9664403E-1,-4.17772E-2,5.4842226E-2,-1.1031097E-1,-4.9846107E-3,2.4683353E-1,8.299182E-2,9.630575E-2,3.9098617E-1,1.7724869E-1,1.2752569E-2,-9.794687E-4,1.7321354E-1,1.228034E-1,-3.869076E-2,-4.0554184E-1,-8.747985E-3,-8.963764E-2,-1.9143227E-2,-2.0060718E-1,-1.0411925E-1,-2.6875705E-2,-8.759755E-2,-2.2773568E-1,-1.3354284E-1,3.0319745E-2,2.9497072E-1,-3.7781257E-2,-1.5352418E-1,-2.0861034E-1,-6.48738E-2,-1.9804664E-1,-2.9065543E-1,-1.6978703E-1,1.840277E-2,-1.4737968E-1,-3.3230934E-1,-2.0575432E-1,2.6004508E-1,-2.2149652E-2,2.9026446E-1],"split_indices":[3,1,2,0,2,3,1,2,1,2,0,2,0,2,3,1,1,2,0,2,1,0,1,0,3,0,3,3,0,0,1,0,2,0,3,2,0,1,0,0,2,0,0,0,1,0,0,0,0,1,2,3,0,0,0,0,0,0,0,0,0,0,0,0,0,0,0,0,0,0,0,0,0,0,0,0,0,0,0,0,0,0,0,0,0,0,0,0,0,0,0,0,0,0,0,0,0,0,0],"split_type":[0,0,0,0,0,0,0,0,0,0,0,0,0,0,0,0,0,0,0,0,0,0,0,0,0,0,0,0,0,0,0,0,0,0,0,0,0,0,0,0,0,0,0,0,0,0,0,0,0,0,0,0,0,0,0,0,0,0,0,0,0,0,0,0,0,0,0,0,0,0,0,0,0,0,0,0,0,0,0,0,0,0,0,0,0,0,0,0,0,0,0,0,0,0,0,0,0,0,0],"sum_hessian":[9.218532E4,9.075533E4,1.4299897E3,8.5631914E4,5.1234165E3,3.877187E2,1.042271E3,8.27963E4,2.835619E3,2.3928984E3,2.730518E3,1.9060457E2,1.9711412E2,8.587291E2,1.835419E2,5.612294E4,2.6673354E4,6.742225E2,2.1613965E3,6.35523E1,2.3293462E3,5.764226E2,2.1540955E3,1.877577E2,2.8468516E0,7.1604254E2,1.426866E2,3.9053436E1,1.4448846E2,5.4715387E4,1.4075541E3,1.3320919E4,1.3352435E4,4.045164E2,2.6970605E2,9.1292126E2,1.2484752E3,2.17204E1,4.1831898E1,2.0257906E3,3.0355563E2,3.7635822E2,2.0006438E2,1.544067E3,6.1002856E2,1.270982E2,6.065951E1,1.7624863E0,1.0843651E0,6.920241E2,2.4018448E1,1.0858917E2,3.4097427E1,2.7347816E1,1.1705621E1,5.39126E4,8.027834E2,1.2593976E3,1.4815652E2,2.4469446E3,1.0873975E4,9.2288745E2,1.2429547E4,3.6251138E2,4.200503E1,2.5724265E2,1.2463409E1,4.58456E2,4.5446527E2,1.0944414E3,1.540338E2,6.8318677E0,1.4888532E1,3.892751E1,2.9043891E0,5.991088E2,1.4266818E3,1.03940636E2,1.99615E2,3.203671E2,5.599111E1,8.15507E1,1.1851368E2,1.4662095E3,7.7857475E1,5.071071E2,1.0292152E2,5.2095917E1,7.500228E1,1.5030186E1,4.5629326E1,7.841907E1,6.1360504E2,3.131788E0,2.088666E1,8.470896E1,2.3880213E1,8.307699E0,3.3979218E0],"tree_param":{"num_deleted":"0","num_feature":"4","num_nodes":"99","size_leaf_vector":"1"}},{"base_weights":[1.9544181E-3,9.229931E-3,-2.5210682E-1,1.1828914E-2,-1.4666201E-1,-2.0227893E-1,-8.691264E-1,5.2463766E-3,1.469077E-1,-2.4306417E-1,3.0763865E-2,-9.2171985E-1,-1.7016841E-1,-6.217203E-1,-3.0634168E-1,1.2201378E-2,-8.314664E-2,5.664741E-1,8.990375E-2,-4.2870602E-1,-2.1285357E-1,-9.5243746E-1,8.38991E-2,-8.0655146E-1,-1.027824E0,-9.8198694E-1,-1.5777433E-1,-2.9913694E-1,-3.3364877E-1,-7.7865945E-5,1.00247934E-1,-1.2016602E0,-6.4241596E-2,7.442463E-1,2.867025E-1,-2.0838527E-1,1.3296792E-1,-2.3597972E-1,-9.1430384E-1,4.2901266E-1,-2.3377907E-1,-1.1551936E0,-9.928364E-2,3.0162227E-1,-2.0081556E-1,-9.194194E-1,8.35183E-1,-3.14377E-1,-4.4837782E-1,-1.1034173E0,-6.350136E-1,1.542237E-1,-2.0556419E-1,1.625222E-1,-7.747986E-1,3.5038188E-3,-3.2254975E-2,1.1043442E-1,7.1422323E-3,-3.8036752E-1,-1.3010463E-1,-8.591397E-3,-7.502037E-2,2.5109375E-1,8.603569E-2,6.677044E-2,2.5298217E-1,-1.4795579E-1,-1.2488107E-3,1.1091525E-1,1.6039437E-2,-7.658316E-2,2.3558527E-1,-3.4595963E-1,-2.0363417E-1,-1.5823567E-1,-6.2452458E-2,-6.6705053E-3,-3.7098086E-1,1.2638038E-1,-2.1408416E-1,6.86208E-2,2.5703794E-1,-1.1842205E-1,-2.78608E-2,-2.9787362E-1,-1.6004601E-1,3.731304E-1,-3.726884E-2,-1.2410575E-2,-1.8195242E-1,-6.987938E-2,-3.415572E-1,-2.8718183E-2,-2.8420058E-1,-7.766164E-2,2.3263705E-1,-2.6349434E-1,-4.6614386E-2,-2.3588404E-1,1.2610029E-1,-1.6696043E-1,-2.901937E-1],"categories":[],"categories_nodes":[],"categories_segments":[],"categories_sizes":[],"default_left":[0,0,0,0,0,0,0,0,0,0,0,0,0,0,0,0,0,0,0,0,0,0,0,0,0,0,0,0,0,0,0,0,0,0,0,0,0,0,0,0,0,0,0,0,0,0,0,0,0,0,0,0,0,0,0,0,0,0,0,0,0,0,0,0,0,0,0,0,0,0,0,0,0,0,0,0,0,0,0,0,0,0,0,0,0,0,0,0,0,0,0,0,0,0,0,0,0,0,0,0,0,0,0],"id":10,"left_children":[1,3,5,7,9,11,13,15,17,19,21,23,25,27,-1,29,31,33,35,37,39,41,43,45,47,49,51,-1,53,55,57,59,61,63,65,67,69,71,73,-1,75,77,79,81,83,85,87,-1,89,91,93,95,97,99,101,-1,-1,-1,-1,-1,-1,-1,-1,-1,-1,-1,-1,-1,-1,-1,-1,-1,-1,-1,-1,-1,-1,-1,-1,-1,-1,-1,-1,-1,-1,-1,-1,-1,-1,-1,-1,-1,-1,-1,-1,-1,-1,-1,-1,-1,-1,-1,-1],"loss_changes":[1.6930553E2,3.6078934E1,7.822197E1,7.787639E1,2.4983921E1,5.4379616E1,6.5195923E0,5.1344585E1,9.728505E1,5.2157974E0,2.698349E1,4.007721E-1,2.2595528E1,7.773308E0,0E0,8.3707825E1,1.2874316E2,2.398825E1,4.6068077E1,1.20867E1,2.8380966E1,4.4666996E0,3.0403488E1,1.05706215E1,9.77211E-2,7.238159E-1,3.3256023E1,0E0,9.738119E0,8.583442E1,1.9402774E2,4.5976257E0,3.963564E1,1.2355606E1,6.6190815E0,2.6319796E1,5.894285E1,2.0816345E0,1.2991047E0,0E0,5.9538918E0,1.9375496E0,2.276813E0,1.1044067E1,4.4161386E0,8.8775253E-1,1.6939156E0,0E0,1.9255447E-1,4.587307E-1,1.7823629E0,7.630357E1,6.511346E1,5.5884085E0,4.4571018E-1,0E0,0E0,0E0,0E0,0E0,0E0,0E0,0E0,0E0,0E0,0E0,0E0,0E0,0E0,0E0,0E0,0E0,0E0,0E0,0E0,0E0,0E0,0E0,0E0,0E0,0E0,0E0,0E0,0E0,0E0,0E0,0E0,0E0,0E0,0E0,0E0,0E0,0E0,0E0,0E0,0E0,0E0,0E0,0E0,0E0,0E0,0E0,0E0],"parents":[2147483647,0,0,1,1,2,2,3,3,4,4,5,5,6,6,7,7,8,8,9,9,10,10,11,11,12,12,13,13,15,15,16,16,17,17,18,18,19,19,20,20,21,21,22,22,23,23,24,24,25,25,26,26,28,28,29,29,30,30,31,31,32,32,33,33,34,34,35,35,36,36,37,37,38,38,40,40,41,41,42,42,43,43,44,44,45,45,46,46,48,48,49,49,50,50,51,51,52,52,53,53,54,54],"right_children":[2,4,6,8,10,12,14,16,18,20,22,24,26,28,-1,30,32,34,36,38,40,42,44,46,48,50,52,-1,54,56,58,60,62,64,66,68,70,72,74,-1,76,78,80,82,84,86,88,-1,90,92,94,96,98,100,102,-1,-1,-1,-1,-1,-1,-1,-1,-1,-1,-1,-1,-1,-1,-1,-1,-1,-1,-1,-1,-1,-1,-1,-1,-1,-1,-1,-1,-1,-1,-1,-1,-1,-1,-1,-1,-1,-1,-1,-1,-1,-1,-1,-1,-1,-1,-1,-1],"split_conditions":[1E-3,5.0980395E-1,3.1932774E-1,1.9803921E0,4E0,1.8484289E-3,5.833333E-1,9.677419E-1,2.5525E-1,9.29E-1,9.589041E-1,4.242857E-2,4.305705E-3,5.4545456E-1,-3.0634168E-1,9.6428573E-1,9.7959185E-1,9.96E-1,7.61E-1,2.3111112E0,9.405941E-1,6E0,7E-1,1.9354838E-1,3E0,3.6630037E-3,3.6968577E-3,-2.9913694E-1,6.111111E-1,1.16504855E-1,1.976E-1,3.2853225E-1,1.5675676E0,2.3111112E0,3.3984063E0,2.1984732E0,9.266055E-1,2.1333334E0,8.695652E-1,4.2901266E-1,9.868421E-1,5.3333336E-1,6.333333E-1,6E0,5E0,1.2931035E-2,9.546539E-2,-3.14377E-1,5.3333336E-1,2E-3,3.6968577E-3,3.3670033E-3,5.5555557E-3,9.6428573E-1,7.282609E-1,3.5038188E-3,-3.2254975E-2,1.1043442E-1,7.1422323E-3,-3.8036752E-1,-1.3010463E-1,-8.591397E-3,-7.502037E-2,2.5109375E-1,8.603569E-2,6.677044E-2,2.5298217E-1,-1.4795579E-1,-1.2488107E-3,1.1091525E-1,1.6039437E-2,-7.658316E-2,2.3558527E-1,-3.4595963E-1,-2.0363417E-1,-1.5823567E-1,-6.2452458E-2,-6.6705053E-3,-3.7098086E-1,1.2638038E-1,-2.1408416E-1,6.86208E-2,2.5703794E-1,-1.1842205E-1,-2.78608E-2,-2.9787362E-1,-1.6004601E-1,3.731304E-1,-3.726884E-2,-1.2410575E-2,-1.8195242E-1,-6.987938E-2,-3.415572E-1,-2.8718183E-2,-2.8420058E-1,-7.766164E-2,2.3263705E-1,-2.6349434E-1,-4.6614386E-2,-2.3588404E-1,1.2610029E-1,-1.6696043E-1,-2.901937E-1],"split_indices":[3,1,3,0,0,3,1,2,1,2,2,1,0,2,0,0,0,2,2,0,2,0,1,0,0,2,3,0,2,1,1,1,0,0,0,0,2,0,2,0,2,1,1,0,0,1,2,0,1,2,3,3,3,0,2,0,0,0,0,0,0,0,0,0,0,0,0,0,0,0,0,0,0,0,0,0,0,0,0,0,0,0,0,0,0,0,0,0,0,0,0,0,0,0,0,0,0,0,0,0,0,0,0],"split_type":[0,0,0,0,0,0,0,0,0,0,0,0,0,0,0,0,0,0,0,0,0,0,0,0,0,0,0,0,0,0,0,0,0,0,0,0,0,0,0,0,0,0,0,0,0,0,0,0,0,0,0,0,0,0,0,0,0,0,0,0,0,0,0,0,0,0,0,0,0,0,0,0,0,0,0,0,0,0,0,0,0,0,0,0,0,0,0,0,0,0,0,0,0,0,0,0,0,0,0,0,0,0,0],"sum_hessian":[9.159218E4,8.904323E4,2.5489539E3,8.758398E4,1.4592491E3,2.3597207E3,1.8923322E2,8.351523E4,4.0687498E3,9.4527545E2,5.1397363E2,9.963683E1,2.2600837E3,7.395638E1,1.15276825E2,7.742415E4,6.0910796E3,4.856059E2,3.5831438E3,1.3045412E2,8.1482135E2,2.548478E1,4.884889E2,5.190221E1,4.7734623E1,3.2809586E1,2.2272742E3,3.1042164E1,4.291422E1,6.79488E4,9.475351E3,1.00200035E2,5.99088E3,2.959154E2,1.896905E2,4.5155515E2,3.1315886E3,9.4453094E1,3.600102E1,9.400909E0,8.054204E2,2.030514E1,5.1796403E0,2.767766E2,2.1171228E2,4.8975178E1,2.9270349E0,4.5352966E1,2.3816543E0,2.2688995E1,1.012059E1,2.9554825E2,1.931726E3,2.0494827E1,2.2419392E1,6.124726E4,6.701535E3,2.1027983E3,7.372552E3,9.164545E1,8.554586E0,5.0285776E3,9.623022E2,2.4535028E2,5.056511E1,1.71346E2,1.8344513E1,1.8798448E2,2.6357065E2,7.8633606E2,2.3452527E3,9.343757E1,1.0155258E0,1.5938267E1,2.0062754E1,6.3018295E1,7.4240216E2,1.4465724E0,1.8858566E1,2.973941E0,2.205699E0,2.459047E2,3.0871902E1,7.475632E1,1.3695596E2,3.9819626E1,9.155549E0,1.8449439E0,1.082091E0,1.0194126E0,1.3622415E0,1.1755558E0,2.1513441E1,4.190811E0,5.9297795E0,1.7786095E2,1.1768731E2,1.3294661E2,1.7987794E3,3.9410655E0,1.6553762E1,1.2330492E1,1.0088901E1],"tree_param":{"num_deleted":"0","num_feature":"4","num_nodes":"103","size_leaf_vector":"1"}},{"base_weights":[1.3997783E-3,3.7285003E-3,-5.231136E-1,6.7007737E-3,-1.2698728E-1,-2.898338E-1,-1.0271535E0,-8.385559E-3,3.163438E-2,-8.645058E-1,-9.6600704E-2,-3.1566918E-1,-4.540223E-2,-6.771994E-1,-3.1941292E-1,6.934546E-3,-3.5681728E-1,2.383227E-1,1.0468594E-2,-7.293106E-1,-9.9724054E-1,-4.7573575E-1,-6.828249E-2,2.949386E-1,-4.7937405E-1,4.2886153E-1,-3.5035005E-1,-1.1202879E-3,2.657029E-1,-1.0608343E0,-2.2793165E-1,7.19347E-2,4.6377882E-1,-5.616514E-1,2.2551306E-2,-8.3889556E-1,2.3223315E-1,-3.0665708E-1,-4.0319315E-1,1.7031781E-1,-5.951231E-1,6.550421E-1,-1.0781181E-1,-1.17465094E-1,6.1185676E-1,-3.0375248E-1,-2.953863E-1,2.659492E-1,8.335245E-2,7.461406E-5,-9.175163E-1,2.6334375E-1,3.0618135E-2,1.9432858E-2,-3.6988366E-1,-1.8235104E-1,-7.179971E-3,7.192281E-2,-1.3704329E-2,2.4191038E-1,8.8318996E-2,-1.9738033E-1,-1.3088563E-1,5.4712694E-2,1.4530665E-3,-2.8251177E-1,-1.262307E-1,-1.059964E-2,-1.6768776E-1,-2.921917E-1,3.2655853E-1,-2.5722846E-1,-1.2627749E-1,1.4214966E-1,5.0670666E-1,-2.3357056E-1,-2.5046514E-2,2.2269122E-1,-1.434076E-1,3.164532E-1,8.635214E-2,-2.884495E-1,-2.8443484E-2,-1.7241687E-1,2.5379768E-1],"categories":[],"categories_nodes":[],"categories_segments":[],"categories_sizes":[],"default_left":[0,0,0,0,0,0,0,0,0,0,0,0,0,0,0,0,0,0,0,0,0,0,0,0,0,0,0,0,0,0,0,0,0,0,0,0,0,0,0,0,0,0,0,0,0,0,0,0,0,0,0,0,0,0,0,0,0,0,0,0,0,0,0,0,0,0,0,0,0,0,0,0,0,0,0,0,0,0,0,0,0,0,0,0,0],"id":11,"left_children":[1,3,5,7,9,11,13,15,17,19,21,-1,23,25,-1,27,29,31,33,35,37,39,41,43,45,47,-1,49,51,53,55,57,59,61,63,65,-1,-1,67,69,71,73,75,77,79,81,-1,-1,83,-1,-1,-1,-1,-1,-1,-1,-1,-1,-1,-1,-1,-1,-1,-1,-1,-1,-1,-1,-1,-1,-1,-1,-1,-1,-1,-1,-1,-1,-1,-1,-1,-1,-1,-1,-1],"loss_changes":[1.1132439E2,3.5254665E1,4.7071404E1,3.337349E1,4.5128197E1,5.15335E1,9.490204E-1,2.9507156E2,1.463128E2,7.0301056E-1,2.0782387E1,0E0,3.1252459E1,8.674818E0,0E0,1.10365616E2,2.1100589E2,1.1651189E2,2.0974481E2,7.7681046E0,1.4361191E-1,1.0481144E1,5.168416E1,1.5582371E1,7.9499283E0,7.735892E-1,0E0,2.1493132E2,1.6002249E2,6.9819824E1,1.5259308E2,3.5315037E1,7.630463E1,7.287735E0,8.4091644E1,1.3556328E0,0E0,0E0,1.6147554E-1,2.3931067E1,4.8392715E0,1.6752178E1,2.787398E1,1.660105E1,9.351515E0,9.588314E0,0E0,0E0,2.5729227E0,0E0,0E0,0E0,0E0,0E0,0E0,0E0,0E0,0E0,0E0,0E0,0E0,0E0,0E0,0E0,0E0,0E0,0E0,0E0,0E0,0E0,0E0,0E0,0E0,0E0,0E0,0E0,0E0,0E0,0E0,0E0,0E0,0E0,0E0,0E0,0E0],"parents":[2147483647,0,0,1,1,2,2,3,3,4,4,5,5,6,6,7,7,8,8,9,9,10,10,12,12,13,13,15,15,16,16,17,17,18,18,19,19,20,20,21,21,22,22,23,23,24,24,25,25,27,27,28,28,29,29,30,30,31,31,32,32,33,33,34,34,35,35,38,38,39,39,40,40,41,41,42,42,43,43,44,44,45,45,48,48],"right_children":[2,4,6,8,10,12,14,16,18,20,22,-1,24,26,-1,28,30,32,34,36,38,40,42,44,46,48,-1,50,52,54,56,58,60,62,64,66,-1,-1,68,70,72,74,76,78,80,82,-1,-1,84,-1,-1,-1,-1,-1,-1,-1,-1,-1,-1,-1,-1,-1,-1,-1,-1,-1,-1,-1,-1,-1,-1,-1,-1,-1,-1,-1,-1,-1,-1,-1,-1,-1,-1,-1,-1],"split_conditions":[1.92E-1,1E-3,7.966102E-1,1.625E-1,1.8484289E-3,3.49E-1,1.9753087E-1,4.3983404E-2,7.8947365E-2,4.242857E-2,1.2E-2,-3.1566918E-1,2.8E-1,8.064516E-1,-3.1941292E-1,1E-1,1E-1,3.1111112E-1,3E-1,2E-1,3E0,3E-3,8E-3,1.1818181E0,4.6E-1,4.4444445E-1,-3.5035005E-1,9.89011E-2,1.1E-1,7.852194E-2,2.2857143E-1,1.97E-1,2.0833333E-1,2.4E-1,1.2133333E-1,1.2931035E-2,2.3223315E-1,-3.0665708E-1,5.3333336E-1,4.305705E-3,3.6630037E-3,6E-3,2.8571429E-2,9.97E-1,2.3076923E-1,5.4545456E-1,-2.953863E-1,2.659492E-1,8.055556E-1,7.461406E-5,-9.175163E-1,2.6334375E-1,3.0618135E-2,1.9432858E-2,-3.6988366E-1,-1.8235104E-1,-7.179971E-3,7.192281E-2,-1.3704329E-2,2.4191038E-1,8.8318996E-2,-1.9738033E-1,-1.3088563E-1,5.4712694E-2,1.4530665E-3,-2.8251177E-1,-1.262307E-1,-1.059964E-2,-1.6768776E-1,-2.921917E-1,3.2655853E-1,-2.5722846E-1,-1.2627749E-1,1.4214966E-1,5.0670666E-1,-2.3357056E-1,-2.5046514E-2,2.2269122E-1,-1.434076E-1,3.164532E-1,8.635214E-2,-2.884495E-1,-2.8443484E-2,-1.7241687E-1,2.5379768E-1],"split_indices":[3,3,2,2,3,1,3,1,1,1,0,0,3,2,0,2,2,0,0,0,0,2,2,0,3,1,0,2,2,2,0,2,2,2,1,1,0,0,1,0,3,2,0,0,3,2,0,0,2,0,0,0,0,0,0,0,0,0,0,0,0,0,0,0,0,0,0,0,0,0,0,0,0,0,0,0,0,0,0,0,0,0,0,0,0],"split_type":[0,0,0,0,0,0,0,0,0,0,0,0,0,0,0,0,0,0,0,0,0,0,0,0,0,0,0,0,0,0,0,0,0,0,0,0,0,0,0,0,0,0,0,0,0,0,0,0,0,0,0,0,0,0,0,0,0,0,0,0,0,0,0,0,0,0,0,0,0,0,0,0,0,0,0,0,0,0,0,0,0,0,0,0,0],"sum_hessian":[9.113888E4,9.073702E4,4.0185916E2,8.872061E4,2.01642E3,2.7579208E2,1.260671E2,5.5275977E4,3.344463E4,7.870499E1,1.9377151E3,6.615278E1,2.096393E2,1.406249E1,1.1200461E2,5.2948863E4,2.3271147E3,3.1057798E3,3.033885E4,4.220853E1,3.649646E1,1.335741E2,1.804141E3,1.1767415E2,9.196515E1,4.359824E0,9.702666E0,5.1351414E4,1.5974498E3,3.589852E2,1.9681296E3,1.7877375E3,1.3180422E3,6.265394E2,2.971231E4,3.9752934E1,2.4555976E0,3.4333736E1,2.1627216E0,2.0767286E1,1.12806816E2,9.267952E1,1.7114614E3,5.140738E1,6.626677E1,6.943207E1,2.2533081E1,1.2019881E0,3.157836E0,5.1329426E4,2.1984678E1,3.360564E2,1.2613934E3,4.7693356E1,3.1129184E2,6.8691394E2,1.2812157E3,7.3625275E2,1.0514849E3,4.348211E2,8.832212E2,3.519716E2,2.7456784E2,2.9626956E3,2.6749615E4,3.090236E1,8.850573E0,1.008307E0,1.1544145E0,9.218411E0,1.1548875E1,4.345332E1,6.935349E1,8.009989E1,1.257963E1,5.8805256E1,1.6526561E3,1.4876076E1,3.6531303E1,2.7041185E1,3.9225582E1,1.5870371E1,5.3561695E1,1.8273954E0,1.3304405E0],"tree_param":{"num_deleted":"0","num_feature":"4","num_nodes":"85","size_leaf_vector":"1"}},{"base_weights":[1.0047227E-3,2.7557483E-3,-4.5242897E-1,2.2414485E-2,-1.4536952E-2,-2.4335493E-1,-9.874714E-1,2.0316383E-2,6.255652E-1,-2.3098096E-1,6.855254E-3,-3.0034122E-1,-3.4304813E-2,-5.695054E-1,-3.120749E-1,1.9844774E-2,4.593241E-1,2.893112E-1,1.2301827E-1,-1.02197215E-1,-5.8898383E-1,6.30604E-1,-3.2485542E-3,-3.1785607E-1,4.5673516E-2,3.5986665E-1,-3.2071704E-1,2.0738453E-2,-9.321456E-2,2.7043465E-1,1.24430254E-1,-4.9475712E-1,8.136514E-1,-2.886821E-1,2.2490235E-1,-7.849795E-1,-1.6208902E-3,3.5321742E-1,8.9091915E-1,-2.5504094E-1,1.3343061E-2,1.2510152E-1,-2.84681E-1,2.1794502E-1,7.300786E-2,6.124062E-3,3.0807447E-2,-2.3493572E-1,-1.2036348E-1,3.5386807E-1,6.1806127E-2,-4.507197E-2,-4.4216815E-1,1.3225669E-1,-1.7901314E-2,-3.1836936E-1,-1.3583577E-1,-1.0191497E-1,1.2630537E-1,2.532733E-1,-1.0723403E-1,3.3385497E-1,1.8347146E-1,-2.1808388E-2,-1.8535891E-1,1.6656524E-1,8.7014795E-4,-5.0127555E-2,1.0426199E-1,-1.4706609E-1,2.0095272E-1],"categories":[],"categories_nodes":[],"categories_segments":[],"categories_sizes":[],"default_left":[0,0,0,0,0,0,0,0,0,0,0,0,0,0,0,0,0,0,0,0,0,0,0,0,0,0,0,0,0,0,0,0,0,0,0,0,0,0,0,0,0,0,0,0,0,0,0,0,0,0,0,0,0,0,0,0,0,0,0,0,0,0,0,0,0,0,0,0,0,0,0],"id":12,"left_children":[1,3,5,7,9,11,13,15,17,19,21,-1,23,25,-1,27,29,-1,31,33,35,37,39,-1,41,43,-1,45,-1,-1,-1,47,49,51,53,55,57,59,61,63,65,67,-1,-1,69,-1,-1,-1,-1,-1,-1,-1,-1,-1,-1,-1,-1,-1,-1,-1,-1,-1,-1,-1,-1,-1,-1,-1,-1,-1,-1],"loss_changes":[7.209944E1,3.07519E1,3.883648E1,5.3559166E1,2.2283476E2,3.9965767E1,1.5654907E0,8.725431E0,2.4862072E1,1.9951514E2,2.7602853E2,0E0,1.6360622E1,6.502548E0,0E0,1.2456255E1,5.170584E-1,0E0,2.6099009E1,1.9433046E2,1.3181067E2,5.0098114E1,1.8006401E2,0E0,1.4773496E1,5.101263E-1,0E0,1.1170902E0,0E0,0E0,0E0,5.6012917E-1,6.1636543E0,3.326668E2,7.1126205E1,7.830444E1,4.12214E1,1.1882608E2,2.160736E1,1.7624127E2,2.2881604E2,1.1280686E1,0E0,0E0,1.7119763E0,0E0,0E0,0E0,0E0,0E0,0E0,0E0,0E0,0E0,0E0,0E0,0E0,0E0,0E0,0E0,0E0,0E0,0E0,0E0,0E0,0E0,0E0,0E0,0E0,0E0,0E0],"parents":[2147483647,0,0,1,1,2,2,3,3,4,4,5,5,6,6,7,7,8,8,9,9,10,10,12,12,13,13,15,15,16,16,18,18,19,19,20,20,21,21,22,22,24,24,25,25,27,27,31,31,32,32,33,33,34,34,35,35,36,36,37,37,38,38,39,39,40,40,41,41,44,44],"right_children":[2,4,6,8,10,12,14,16,18,20,22,-1,24,26,-1,28,30,-1,32,34,36,38,40,-1,42,44,-1,46,-1,-1,-1,48,50,52,54,56,58,60,62,64,66,68,-1,-1,70,-1,-1,-1,-1,-1,-1,-1,-1,-1,-1,-1,-1,-1,-1,-1,-1,-1,-1,-1,-1,-1,-1,-1,-1,-1,-1],"split_conditions":[1.92E-1,3.4293553E-4,7.966102E-1,1.0764262E-3,1.724138E-2,5.4545456E-1,1.9753087E-1,1.992032E-3,1.992032E-3,3E-3,5.8139535E-3,-3.0034122E-1,3.49E-1,8.064516E-1,-3.120749E-1,2.5E-4,2.5E-4,2.893112E-1,2.1528525E-3,5.5555557E-3,1.8484289E-3,2.247191E-2,5.479452E-2,-3.1785607E-1,4.6E-1,4.4444445E-1,-3.2071704E-1,1E-3,-9.321456E-2,2.7043465E-1,1.24430254E-1,2E-3,2.2573364E-3,5E-3,1.8939395E-3,1.8050542E-2,1.8050542E-2,2E-2,4.784689E-3,1.8867925E-2,6.2992126E-2,1.1666666E0,-2.84681E-1,2.1794502E-1,8.055556E-1,6.124062E-3,3.0807447E-2,-2.3493572E-1,-1.2036348E-1,3.5386807E-1,6.1806127E-2,-4.507197E-2,-4.4216815E-1,1.3225669E-1,-1.7901314E-2,-3.1836936E-1,-1.3583577E-1,-1.0191497E-1,1.2630537E-1,2.532733E-1,-1.0723403E-1,3.3385497E-1,1.8347146E-1,-2.1808388E-2,-1.8535891E-1,1.6656524E-1,8.7014795E-4,-5.0127555E-2,1.0426199E-1,-1.4706609E-1,2.0095272E-1],"split_indices":[3,1,2,2,2,2,3,0,0,1,1,0,1,2,0,1,1,0,0,2,3,2,2,0,3,1,0,0,0,0,0,2,2,2,1,0,0,2,1,1,2,0,0,0,2,0,0,0,0,0,0,0,0,0,0,0,0,0,0,0,0,0,0,0,0,0,0,0,0,0,0],"split_type":[0,0,0,0,0,0,0,0,0,0,0,0,0,0,0,0,0,0,0,0,0,0,0,0,0,0,0,0,0,0,0,0,0,0,0,0,0,0,0,0,0,0,0,0,0,0,0,0,0,0,0,0,0,0,0,0,0,0,0,0,0,0,0,0,0,0,0,0,0,0,0],"sum_hessian":[9.080574E4,9.0457414E4,3.4832562E2,4.233253E4,4.8124887E4,2.5150282E2,9.682281E1,4.2186816E4,1.4571608E2,4.3277173E3,4.3797168E4,5.3561092E1,1.9794173E2,1.2177338E1,8.464547E1,4.214259E4,4.4226852E1,8.648854E1,5.9227543E1,3.1837263E3,1.1439907E3,6.971616E2,4.3100008E4,1.3437922E1,1.845038E2,4.3549504E0,7.8223877E0,4.20299E4,1.1269171E2,2.2883694E0,4.1938484E1,3.1412495E1,2.7815046E1,2.0277754E3,1.155951E3,8.57513E2,2.8647778E2,3.3865475E2,3.5850687E2,2.6635725E3,4.0436434E4,1.7166882E2,1.2834982E1,1.2389618E0,3.1159887E0,4.1865168E4,1.6473108E2,5.8886657E0,2.552383E1,1.6773174E1,1.1041871E1,1.8166973E3,2.1107805E2,6.5690137E2,4.990497E2,4.669793E2,3.905337E2,1.5926654E2,1.2721125E2,2.0016478E2,1.3848997E2,1.981226E2,1.6038425E2,1.7734674E3,8.901051E2,7.635388E2,3.9672895E4,7.430766E1,9.736115E1,1.6950324E0,1.4209564E0],"tree_param":{"num_deleted":"0","num_feature":"4","num_nodes":"71","size_leaf_vector":"1"}},{"base_weights":[9.0451527E-4,1.6597069E-3,-7.1019953E-1,3.9984267E-3,-1.23959295E-1,-4.147916E-1,-2.9740098E-1,-2.8329182E-3,9.5741004E-2,-1.9742548E-1,2.2758491E-2,-2.8215328E-1,-1.9300409E-1,5.4023867E-3,-6.7282505E-2,3.8275266E-1,4.6217594E-2,-9.037355E-1,-1.782984E-1,1.4451793E-1,-2.9873797E-1,5.7808733E-1,-4.3594524E-1,7.058316E-3,-7.375257E-1,-7.132028E-1,-6.0357656E-2,4.9324128E-1,1.7598248E-1,3.4750402E-2,6.0288894E-1,1.4718874E-1,-2.995928E-1,8.7229395E-1,-1.837313E-1,-8.593514E-1,2.1119606E-1,1.98265E-2,-4.1550624E-1,-2.1479163E-1,9.337375E-1,-3.5772938E-1,-2.4935576E-1,2.1810606E-4,5.95828E-2,-2.3405373E-1,1.9008403E-1,-9.748651E-2,-2.599622E-1,-6.4601037E-3,-3.1151842E-2,8.335988E-2,1.8555805E-1,-2.3406795E-1,7.255918E-2,2.998464E-2,-1.4620036E-2,3.772866E-2,2.0858978E-1,3.526605E-1,-5.760811E-2,-1.4468287E-2,-6.468135E-2,-3.155526E-1,-2.7160402E-2,4.6771597E-2,1.9652502E-1,2.714149E-2,-1.9127296E-1,-2.6003453E-1,-9.084983E-2,3.225874E-1,5.550924E-2,1.6699338E-1,-1.8549474E-1],"categories":[],"categories_nodes":[],"categories_segments":[],"categories_sizes":[],"default_left":[0,0,0,0,0,0,0,0,0,0,0,0,0,0,0,0,0,0,0,0,0,0,0,0,0,0,0,0,0,0,0,0,0,0,0,0,0,0,0,0,0,0,0,0,0,0,0,0,0,0,0,0,0,0,0,0,0,0,0,0,0,0,0,0,0,0,0,0,0,0,0,0,0,0,0],"id":13,"left_children":[1,3,5,7,9,11,-1,13,15,17,19,-1,21,23,25,27,29,31,33,35,37,39,41,43,45,47,49,51,53,55,57,-1,-1,59,61,63,65,67,69,-1,71,-1,73,-1,-1,-1,-1,-1,-1,-1,-1,-1,-1,-1,-1,-1,-1,-1,-1,-1,-1,-1,-1,-1,-1,-1,-1,-1,-1,-1,-1,-1,-1,-1,-1],"loss_changes":[4.8655243E1,2.6589748E1,7.571369E0,5.5685932E1,1.783496E1,5.4838133E0,0E0,4.3891815E1,8.7505356E1,1.4731598E1,2.1684212E1,0E0,6.88919E0,9.0214264E1,4.186604E1,2.061139E1,3.3508896E1,4.303833E0,6.293602E0,2.706654E1,5.669342E0,4.7730236E0,3.58606E0,8.873132E1,1.0032173E1,5.629589E0,1.5648933E1,1.5746155E1,2.016345E1,2.8023645E1,4.5843277E0,0E0,0E0,2.0661092E0,4.610237E0,3.6361675E0,9.161289E0,1.9978257E0,5.4024544E0,0E0,5.8845043E-1,0E0,7.2830515E0,0E0,0E0,0E0,0E0,0E0,0E0,0E0,0E0,0E0,0E0,0E0,0E0,0E0,0E0,0E0,0E0,0E0,0E0,0E0,0E0,0E0,0E0,0E0,0E0,0E0,0E0,0E0,0E0,0E0,0E0,0E0,0E0],"parents":[2147483647,0,0,1,1,2,2,3,3,4,4,5,5,7,7,8,8,9,9,10,10,12,12,13,13,14,14,15,15,16,16,17,17,18,18,19,19,20,20,21,21,22,22,23,23,24,24,25,25,26,26,27,27,28,28,29,29,30,30,33,33,34,34,35,35,36,36,37,37,38,38,40,40,42,42],"right_children":[2,4,6,8,10,12,-1,14,16,18,20,-1,22,24,26,28,30,32,34,36,38,40,42,44,46,48,50,52,54,56,58,-1,-1,60,62,64,66,68,70,-1,72,-1,74,-1,-1,-1,-1,-1,-1,-1,-1,-1,-1,-1,-1,-1,-1,-1,-1,-1,-1,-1,-1,-1,-1,-1,-1,-1,-1,-1,-1,-1,-1,-1,-1],"split_conditions":[3.1932774E-1,5.0980395E-1,5.833333E-1,1.7833333E0,4E0,5.4545456E-1,-2.9740098E-1,2.2916667E-1,2.6785713E-1,1.3076923E0,7.5E-1,-2.8215328E-1,5.833333E-1,4.2944785E-2,4.117647E-1,9.96E-1,4E0,2.970297E-2,7.355372E-1,9.589041E-1,4.254202E0,9.4736844E-1,6E-1,1.0909091E0,2.2120658E-1,8.2857144E-1,1.002E0,8.0851066E-1,1.8E0,2.007752E0,9.868421E-1,1.4718874E-1,-2.995928E-1,2.8E-1,1.9482071E0,6E0,6E0,1E-3,5E0,-2.1479163E-1,5.0980395E-1,-3.5772938E-1,6.111111E-1,2.1810606E-4,5.95828E-2,-2.3405373E-1,1.9008403E-1,-9.748651E-2,-2.599622E-1,-6.4601037E-3,-3.1151842E-2,8.335988E-2,1.8555805E-1,-2.3406795E-1,7.255918E-2,2.998464E-2,-1.4620036E-2,3.772866E-2,2.0858978E-1,3.526605E-1,-5.760811E-2,-1.4468287E-2,-6.468135E-2,-3.155526E-1,-2.7160402E-2,4.6771597E-2,1.9652502E-1,2.714149E-2,-1.9127296E-1,-2.6003453E-1,-9.084983E-2,3.225874E-1,5.550924E-2,1.6699338E-1,-1.8549474E-1],"split_indices":[3,1,1,0,0,2,0,1,1,0,1,0,2,3,2,2,0,3,2,2,0,0,2,0,1,0,0,2,0,0,2,0,0,3,0,0,0,3,0,0,1,0,2,0,0,0,0,0,0,0,0,0,0,0,0,0,0,0,0,0,0,0,0,0,0,0,0,0,0,0,0,0,0,0,0],"split_type":[0,0,0,0,0,0,0,0,0,0,0,0,0,0,0,0,0,0,0,0,0,0,0,0,0,0,0,0,0,0,0,0,0,0,0,0,0,0,0,0,0,0,0,0,0,0,0,0,0,0,0,0,0,0,0,0,0,0,0,0,0,0,0,0,0,0,0,0,0,0,0,0,0,0,0],"sum_hessian":[9.0599125E4,9.050401E4,9.511748E1,8.885079E4,1.653217E3,4.7588615E1,4.7528866E1,8.269418E4,6.156613E3,1.1013773E3,5.518397E2,1.3158191E1,3.4430424E1,7.332562E4,9.36856E3,9.04997E2,5.2516157E3,2.7819817E1,1.0735575E3,4.0065228E2,1.5118742E2,7.918307E0,2.6512117E1,7.316353E4,1.6208534E2,9.8292145E1,9.270268E3,5.889196E2,3.1607742E2,5.146659E3,1.0495656E2,1.5071619E0,2.6312654E1,4.702242E0,1.0688553E3,2.4213848E1,3.7643845E2,4.077533E1,1.10412094E2,1.4886409E0,6.429666E0,4.1789236E0,2.2333193E1,7.082362E4,2.3399146E3,1.5761331E2,4.4720387E0,2.8712362E1,6.957978E1,4.898235E3,4.372033E3,2.177718E2,3.711478E2,1.967467E1,2.9640274E2,2.889696E3,2.2569634E3,1.7412807E1,8.7543755E1,3.5782514E0,1.1239905E0,2.0401813E2,8.6483716E2,1.907089E1,5.142957E0,3.3594434E2,4.0494114E1,3.7597454E1,3.1778762E0,2.0722454E1,8.968964E1,5.04049E0,1.3891759E0,6.8533134E0,1.547988E1],"tree_param":{"num_deleted":"0","num_feature":"4","num_nodes":"75","size_leaf_vector":"1"}},{"base_weights":[6.4861367E-4,1.1165629E-3,-8.47193E-1,-7.920741E-3,2.7524289E-2,-2.1651141E-1,-3.0041885E-1,3.7321588E-3,-1.6958417E-1,1.1550782E-1,-1.5535879E-2,-2.6178628E-1,2.6094335E-1,-7.463664E-3,1.03709035E-1,-5.136668E-1,-9.1719985E-2,1.3099033E-1,-9.1833687E-1,-3.6569326E0,-4.1792253E-3,-1.3049986E-3,-5.552484E-1,-6.268422E-2,1.7562295E-1,-4.2889425E-1,-9.565941E-1,-1.696376E-1,5.6299414E-2,-7.0330635E-2,1.8768065E-1,-1.1380302E0,4.0217575E-1,-2.9874558E0,-5.783269E0,1.6467395E-1,-2.5124842E-2,1.9397654E-3,-3.794658E-2,-1.1147588E-1,-2.552549E-1,4.075992E-2,-1.0236424E-1,1.1140353E-1,-1.1669836E-2,-2.1438362E-1,-9.058784E-2,-2.5014898E-1,-4.018344E-1,2.9819353E-2,-7.913178E-2,6.342655E-2,-5.7528894E-2,1.4918397E-2,-2.5777665E-1,1.498318E-1,3.595825E-2,-3.7348703E-1,-8.021427E-2,3.480543E-1,-4.5741018E-2,-9.683257E-1,-3.1553772E-1,-4.0569642E-1,-1.9855512E0,2.494917E-1,2.9903343E-2,-1.6349489E-2,1.2689338E-2],"categories":[],"categories_nodes":[],"categories_segments":[],"categories_sizes":[],"default_left":[0,0,0,0,0,0,0,0,0,0,0,0,0,0,0,0,0,0,0,0,0,0,0,0,0,0,0,0,0,0,0,0,0,0,0,0,0,0,0,0,0,0,0,0,0,0,0,0,0,0,0,0,0,0,0,0,0,0,0,0,0,0,0,0,0,0,0,0,0],"id":14,"left_children":[1,3,5,7,9,11,-1,13,15,17,19,-1,-1,21,23,25,27,29,31,33,35,37,39,41,43,45,47,49,51,53,55,57,59,61,63,65,67,-1,-1,-1,-1,-1,-1,-1,-1,-1,-1,-1,-1,-1,-1,-1,-1,-1,-1,-1,-1,-1,-1,-1,-1,-1,-1,-1,-1,-1,-1,-1,-1],"loss_changes":[3.585109E1,2.1553453E1,4.6308937E0,1.267568E2,8.724014E1,8.64838E0,0E0,7.025265E1,1.2115781E2,1.2123398E2,6.3936426E2,0E0,0E0,1.9041704E2,7.5644394E1,3.0927963E1,4.2571594E1,8.510545E1,3.2882065E1,5.114972E1,5.4519463E1,5.4298466E1,3.3752594E1,1.0557042E2,1.8532576E2,2.525679E1,5.146652E0,6.1261932E1,4.9041893E1,1.5527574E2,1.2294943E2,8.612267E0,7.1900587E0,1.4571594E1,2.969345E1,7.3663445E1,2.7161709E1,0E0,0E0,0E0,0E0,0E0,0E0,0E0,0E0,0E0,0E0,0E0,0E0,0E0,0E0,0E0,0E0,0E0,0E0,0E0,0E0,0E0,0E0,0E0,0E0,0E0,0E0,0E0,0E0,0E0,0E0,0E0,0E0],"parents":[2147483647,0,0,1,1,2,2,3,3,4,4,5,5,7,7,8,8,9,9,10,10,13,13,14,14,15,15,16,16,17,17,18,18,19,19,20,20,21,21,22,22,23,23,24,24,25,25,26,26,27,27,28,28,29,29,30,30,31,31,32,32,33,33,34,34,35,35,36,36],"right_children":[2,4,6,8,10,12,-1,14,16,18,20,-1,-1,22,24,26,28,30,32,34,36,38,40,42,44,46,48,50,52,54,56,58,60,62,64,66,68,-1,-1,-1,-1,-1,-1,-1,-1,-1,-1,-1,-1,-1,-1,-1,-1,-1,-1,-1,-1,-1,-1,-1,-1,-1,-1,-1,-1,-1,-1,-1,-1],"split_conditions":[4.1346154E-1,6.785714E-1,5.625E-1,1.3994169E-1,8.56E-1,5.4545456E-1,-3.0041885E-1,1.7307693E-1,3.392857E-1,2.3111112E0,8.5714287E-1,-2.6178628E-1,2.6094335E-1,8.467742E-2,2.9032257E-1,3.181818E-1,1.3076923E0,8.2857144E-1,8.375E-1,9.97E-1,1.6190477E-1,3.45E-2,1.0526316E-1,6.3725494E-2,3.75E-1,2.21E-1,8.076923E-1,4.7058824E-1,3.132832E-1,8.1877023E-1,2E-1,4E0,2.4117646E0,2.1458334E-1,1.2777779E-1,8.857143E-1,2E0,1.9397654E-3,-3.794658E-2,-1.1147588E-1,-2.552549E-1,4.075992E-2,-1.0236424E-1,1.1140353E-1,-1.1669836E-2,-2.1438362E-1,-9.058784E-2,-2.5014898E-1,-4.018344E-1,2.9819353E-2,-7.913178E-2,6.342655E-2,-5.7528894E-2,1.4918397E-2,-2.5777665E-1,1.498318E-1,3.595825E-2,-3.7348703E-1,-8.021427E-2,3.480543E-1,-4.5741018E-2,-9.683257E-1,-3.1553772E-1,-4.0569642E-1,-1.9855512E0,2.494917E-1,2.9903343E-2,-1.6349489E-2,1.2689338E-2],"split_indices":[3,2,2,1,2,2,0,2,2,0,2,0,0,1,0,2,0,0,2,0,1,1,1,1,2,2,0,2,1,0,1,0,0,1,1,2,0,0,0,0,0,0,0,0,0,0,0,0,0,0,0,0,0,0,0,0,0,0,0,0,0,0,0,0,0,0,0,0,0],"split_type":[0,0,0,0,0,0,0,0,0,0,0,0,0,0,0,0,0,0,0,0,0,0,0,0,0,0,0,0,0,0,0,0,0,0,0,0,0,0,0,0,0,0,0,0,0,0,0,0,0,0,0,0,0,0,0,0,0,0,0,0,0,0,0,0,0,0,0,0,0],"sum_hessian":[9.035925E4,9.031041E4,4.8846336E1,6.728477E4,2.3025627E4,1.0068962E1,3.8777374E1,6.2761805E4,4.522971E3,7.5655293E3,1.5460099E4,6.4001594E0,3.6688032E0,5.644211E4,6.319695E3,8.336162E2,3.6893552E3,7.4547627E3,1.10766685E2,4.7068443E1,1.541303E4,5.5815586E4,6.2652423E2,1.907132E3,4.4125625E3,7.0135175E2,1.3226443E2,2.4169324E3,1.2724227E3,1.63791E3,5.8168525E3,9.5085526E1,1.5681158E1,3.762667E1,9.441772E0,1.7001777E3,1.3712853E4,5.2554184E4,3.2613994E3,3.878212E2,2.3870303E2,1.1137238E3,7.934082E2,2.307006E3,2.1055566E3,2.1431656E2,4.870352E2,1.02556915E2,2.9707521E1,6.264625E2,1.79047E3,7.8295825E2,4.8946445E2,1.422388E3,2.1552211E2,1.0381682E3,4.778684E3,8.430224E1,1.0783285E1,6.1645885E0,9.516569E0,3.287767E1,4.7490015E0,1.912896E0,7.528877E0,1.4992375E2,1.550254E3,9.551724E3,4.161128E3],"tree_param":{"num_deleted":"0","num_feature":"4","num_nodes":"69","size_leaf_vector":"1"}},{"base_weights":[7.639725E-4,1.0645585E-3,-2.913366E-1,2.9247159E-3,-9.923772E-2,-1.5788948E-3,8.7264426E-2,-8.3381987E-1,-8.76634E-2,2.7138516E-3,-5.656757E-2,3.184503E-1,4.6782844E-2,1.159423E-1,-2.8057486E-1,-1.752076E-1,-3.2370657E-2,1.392502E-3,5.753308E-1,-5.6653106E-1,-3.1029612E-2,3.7262392E-1,1.4008285E-2,1.5183748E-1,-2.3682462E-2,-5.6866713E-2,-3.6765718E-1,-7.19679E-1,3.5893791E-3,7.764181E-4,-7.711181E-2,1.91078E-1,-1.6523118E-1,-4.1098036E-2,-2.646117E-1,1.4114892E-1,-1.216601E-2,2.0951214E-1,7.626182E-2,-5.6498647E-2,2.597139E-1,1.3661276E-1,-7.231197E-3,-4.8287045E-2,4.667499E-2,-3.6375366E-2,9.690245E-2,-8.2471035E-2,-1.7933996E-1,-2.3750477E-1,-2.8452523E-2,4.5816146E-2,-2.4367506E-2],"categories":[],"categories_nodes":[],"categories_segments":[],"categories_sizes":[],"default_left":[0,0,0,0,0,0,0,0,0,0,0,0,0,0,0,0,0,0,0,0,0,0,0,0,0,0,0,0,0,0,0,0,0,0,0,0,0,0,0,0,0,0,0,0,0,0,0,0,0,0,0,0,0],"id":15,"left_children":[1,3,-1,5,7,9,11,13,15,17,19,21,23,-1,-1,25,27,29,31,33,35,37,39,41,43,45,47,49,51,-1,-1,-1,-1,-1,-1,-1,-1,-1,-1,-1,-1,-1,-1,-1,-1,-1,-1,-1,-1,-1,-1,-1,-1],"loss_changes":[2.6293842E1,1.678771E1,0E0,3.355386E1,1.3856083E1,1.9795752E1,4.1893818E1,3.4923687E0,7.806942E0,5.8856743E1,7.906946E1,1.0997139E1,2.8222065E1,0E0,0E0,1.4203117E1,2.4481804E1,2.3980246E1,1.2772919E1,3.9119278E1,2.7646454E1,2.166687E1,1.7708767E1,8.174667E1,5.6192272E1,9.527027E0,4.908283E0,2.1406136E0,1.1929617E1,0E0,0E0,0E0,0E0,0E0,0E0,0E0,0E0,0E0,0E0,0E0,0E0,0E0,0E0,0E0,0E0,0E0,0E0,0E0,0E0,0E0,0E0,0E0,0E0],"parents":[2147483647,0,0,1,1,3,3,4,4,5,5,6,6,7,7,8,8,9,9,10,10,11,11,12,12,15,15,16,16,17,17,18,18,19,19,20,20,21,21,22,22,23,23,24,24,25,25,26,26,27,27,28,28],"right_children":[2,4,-1,6,8,10,12,14,16,18,20,22,24,-1,-1,26,28,30,32,34,36,38,40,42,44,46,48,50,52,-1,-1,-1,-1,-1,-1,-1,-1,-1,-1,-1,-1,-1,-1,-1,-1,-1,-1,-1,-1,-1,-1,-1,-1],"split_conditions":[4.6E-1,5.0980395E-1,-2.913366E-1,1.9278351E0,1.48E0,9.677419E-1,2.8125E-1,2.970297E-2,3E0,9.621514E-1,9.7959185E-1,2.5352564E0,2.007752E0,1.159423E-1,-2.8057486E-1,2.1333334E0,9.589041E-1,9.5238096E-1,1.825E0,9.73E-1,1.1392405E-1,2.375E-1,5E0,9.73E-1,1E0,5.7142857E-2,6.0099167E-1,6E0,6.0099167E-1,7.764181E-4,-7.711181E-2,1.91078E-1,-1.6523118E-1,-4.1098036E-2,-2.646117E-1,1.4114892E-1,-1.216601E-2,2.0951214E-1,7.626182E-2,-5.6498647E-2,2.597139E-1,1.3661276E-1,-7.231197E-3,-4.8287045E-2,4.667499E-2,-3.6375366E-2,9.690245E-2,-8.2471035E-2,-1.7933996E-1,-2.3750477E-1,-2.8452523E-2,4.5816146E-2,-2.4367506E-2],"split_indices":[3,1,0,0,0,2,1,3,0,2,2,0,0,0,0,0,2,2,0,2,1,1,0,2,2,3,1,0,1,0,0,0,0,0,0,0,0,0,0,0,0,0,0,0,0,0,0,0,0,0,0,0,0],"split_type":[0,0,0,0,0,0,0,0,0,0,0,0,0,0,0,0,0,0,0,0,0,0,0,0,0,0,0,0,0,0,0,0,0,0,0,0,0,0,0,0,0,0,0,0,0,0,0,0,0,0,0,0,0],"sum_hessian":[9.0001164E4,8.9974336E4,2.6828465E1,8.833705E4,1.6372853E3,8.386003E4,4.4770156E3,2.4295473E1,1.6129897E3,7.778836E4,6.0716763E3,6.661037E2,3.8109119E3,1.648783E0,2.264669E1,6.235551E2,9.894347E2,7.7610266E4,1.7808815E2,2.8854675E2,5.7831294E3,5.6528986E2,1.0081384E2,1.5294883E3,2.2814236E3,3.869238E2,2.366313E2,4.8248188E1,9.411865E2,7.725387E4,3.5640204E2,1.6926408E2,8.824059E0,1.2279959E2,1.6574715E2,1.06870445E2,5.676259E3,1.4940404E2,4.158858E2,8.2090675E1,1.8723171E1,5.606513E2,9.68837E2,1.2920936E3,9.8933E2,3.3143082E2,5.5492973E1,1.702218E2,6.64095E1,4.3023342E1,5.224847E0,3.4092667E2,6.002599E2],"tree_param":{"num_deleted":"0","num_feature":"4","num_nodes":"53","size_leaf_vector":"1"}},{"base_weights":[5.9808866E-4,1.4437111E-3,-2.884665E-1,-9.805937E-3,1.7625852E-2,-1.3312703E-1,-9.219916E-1,-4.323718E-3,-1.3790661E0,1.9267339E-1,-2.9780464E-3,-3.03175E-1,1.9484282E-2,-5.058535E-1,-3.0539283E-1,-9.269487E-3,5.982705E-1,-1.8334352E0,-1.6032556E-1,1.874097E-2,4.0673617E-1,-2.5213772E-1,1.267853E-2,-2.68462E-1,6.602397E-2,2.5657406E-1,-2.9920807E-1,5.681517E-3,-3.0823714E-1,3.083038E-1,1.0152644E0,-3.2303371E0,-1.60802E0,-5.268766E-1,2.6285207E-1,2.4546693E-1,-1.6047856E-1,8.707903E-1,2.3849173E-1,-1.7971668E-1,-3.957531E-1,2.1000557E-1,1.5135624E-3,2.3451345E-1,-1.7014228E-1,1.8192944E-1,4.006747E-3,5.002806E-4,1.776997E-1,-3.5996234E-1,-6.207455E-2,2.5920522E-1,-1.2635021E-1,3.3845907E-1,9.34744E-2,-1.0130146E0,-1.74871E-1,-3.0494648E-1,-6.5043885E-1,-8.456534E-2,-3.1637752E-1,1.4300068E-1,-7.0436835E-2,1.4838758E-1,1.424594E-2,-6.5942355E-2,1.6087964E-1,3.0405825E-1,1.952509E-1,-2.2303136E-1,8.253178E-2,-7.122595E-2,7.551013E-2,-1.7846592E-1,-9.275657E-2,-3.0471548E-1,7.6422565E-2,-2.4578373E-1,1.9349515E-3,-1.1511301E-3,2.1352836E-1,-1.220175E-1,1.21036015E-1,-1.3720146E-1,1.4825924E-1],"categories":[],"categories_nodes":[],"categories_segments":[],"categories_sizes":[],"default_left":[0,0,0,0,0,0,0,0,0,0,0,0,0,0,0,0,0,0,0,0,0,0,0,0,0,0,0,0,0,0,0,0,0,0,0,0,0,0,0,0,0,0,0,0,0,0,0,0,0,0,0,0,0,0,0,0,0,0,0,0,0,0,0,0,0,0,0,0,0,0,0,0,0,0,0,0,0,0,0,0,0,0,0,0,0],"id":16,"left_children":[1,3,5,7,9,11,13,15,17,19,21,-1,23,25,-1,27,29,31,33,35,37,39,41,-1,43,45,-1,47,49,51,53,55,57,59,61,63,65,67,69,71,73,75,77,79,81,-1,83,-1,-1,-1,-1,-1,-1,-1,-1,-1,-1,-1,-1,-1,-1,-1,-1,-1,-1,-1,-1,-1,-1,-1,-1,-1,-1,-1,-1,-1,-1,-1,-1,-1,-1,-1,-1,-1,-1],"loss_changes":[2.196803E1,1.631275E1,2.5674795E1,3.96799E2,1.3253908E2,2.8366928E1,1.5401306E0,1.5692125E2,1.1643628E2,1.4407993E2,1.2826497E2,0E0,7.7744074E0,4.6144266E0,0E0,2.3343382E2,5.1514465E1,4.3125732E1,9.188307E0,8.683933E1,1.3523523E2,2.0147469E1,6.815712E1,0E0,6.9420195E0,4.7069457E-1,0E0,1.1711858E2,2.2445747E2,1.0343471E2,1.358493E1,5.9104156E0,4.2234283E1,3.7875986E0,3.0642662E0,4.6516914E1,4.9461235E1,1.3820709E1,4.602849E1,3.2275764E1,1.1035019E1,9.110106E1,1.1864064E2,1.156609E1,1.0043679E1,0E0,1.1568785E0,0E0,0E0,0E0,0E0,0E0,0E0,0E0,0E0,0E0,0E0,0E0,0E0,0E0,0E0,0E0,0E0,0E0,0E0,0E0,0E0,0E0,0E0,0E0,0E0,0E0,0E0,0E0,0E0,0E0,0E0,0E0,0E0,0E0,0E0,0E0,0E0,0E0,0E0],"parents":[2147483647,0,0,1,1,2,2,3,3,4,4,5,5,6,6,7,7,8,8,9,9,10,10,12,12,13,13,15,15,16,16,17,17,18,18,19,19,20,20,21,21,22,22,24,24,25,25,27,27,28,28,29,29,30,30,31,31,32,32,33,33,34,34,35,35,36,36,37,37,38,38,39,39,40,40,41,41,42,42,43,43,44,44,46,46],"right_children":[2,4,6,8,10,12,14,16,18,20,22,-1,24,26,-1,28,30,32,34,36,38,40,42,-1,44,46,-1,48,50,52,54,56,58,60,62,64,66,68,70,72,74,76,78,80,82,-1,84,-1,-1,-1,-1,-1,-1,-1,-1,-1,-1,-1,-1,-1,-1,-1,-1,-1,-1,-1,-1,-1,-1,-1,-1,-1,-1,-1,-1,-1,-1,-1,-1,-1,-1,-1,-1,-1,-1],"split_conditions":[1.92E-1,1.15384616E-1,7.966102E-1,1.1E-1,6.3725494E-2,3.49E-1,1.9753087E-1,1E-1,5.691057E-2,2.0833333E-1,3.56E-1,-3.03175E-1,5.4545456E-1,8.064516E-1,-3.0539283E-1,1.8867925E-2,1.75E-1,2.2222223E-2,3.32E-1,3.45E-2,1.5384616E-1,9.4339624E-2,9.4339624E-2,-2.68462E-1,5E-1,4.4444445E-1,-2.9920807E-1,9.090909E-2,3.3E-2,2.7272727E-2,6.3725494E-2,1.2751678E-1,2.1666667E-1,3.181818E-1,8.75E-2,1.3636364E-1,2E-1,5.2E-2,1.5625E-1,2.7272728E-1,2E-1,1.2E-1,1.5384616E-1,4.4444445E-1,1.5405406E0,1.8192944E-1,8.055556E-1,5.002806E-4,1.776997E-1,-3.5996234E-1,-6.207455E-2,2.5920522E-1,-1.2635021E-1,3.3845907E-1,9.34744E-2,-1.0130146E0,-1.74871E-1,-3.0494648E-1,-6.5043885E-1,-8.456534E-2,-3.1637752E-1,1.4300068E-1,-7.0436835E-2,1.4838758E-1,1.424594E-2,-6.5942355E-2,1.6087964E-1,3.0405825E-1,1.952509E-1,-2.2303136E-1,8.253178E-2,-7.122595E-2,7.551013E-2,-1.7846592E-1,-9.275657E-2,-3.0471548E-1,7.6422565E-2,-2.4578373E-1,1.9349515E-3,-1.1511301E-3,2.1352836E-1,-1.220175E-1,1.21036015E-1,-1.3720146E-1,1.4825924E-1],"split_indices":[3,2,2,2,1,1,3,2,1,0,0,0,2,2,0,1,0,1,0,1,2,1,1,0,1,1,0,0,2,1,1,0,0,0,1,0,2,1,2,2,2,2,2,1,0,0,2,0,0,0,0,0,0,0,0,0,0,0,0,0,0,0,0,0,0,0,0,0,0,0,0,0,0,0,0,0,0,0,0,0,0,0,0,0,0],"split_type":[0,0,0,0,0,0,0,0,0,0,0,0,0,0,0,0,0,0,0,0,0,0,0,0,0,0,0,0,0,0,